{"blockSize": 8, "vocabSize": 27, "nEmbd": 10, "itos": {"0": "a", "1": "b", "2": "c", "3": "d", "4": "e", "5": "f", "6": "g", "7": "h", "8": "i", "9": "j", "10": "k", "11": "l", "12": "m", "13": "n", "14": "o", "15": "p", "16": "q", "17": "r", "18": "s", "19": "t", "20": "u", "21": "v", "22": "w", "23": "x", "24": "y", "25": "z", "26": "."}, "C": [[0.8144451848245735, 2.1855138840761676, 0.006403885683231331, 0.4224269190933467, 0.23967687113273625, -0.6789036039828026, 0.03293016351415833, -0.3499134471919626, -0.9198480367380036, 1.6051194598681822], [0.8410572964290562, -0.3770034257258087, -0.477226761794779, -0.5046922838540442, -1.3494549561010745, -0.2672821411454239, -0.09145109184879359, -1.659601696540219, 0.6235530851122362, 1.4571327964368581], [1.8101821549899355, 1.3925881280885322, -1.8393872662746529, 0.3617038939215852, 1.8056746290120338, 0.6929580888123716, 1.338535321617052, -0.08155958651470821, 0.3029598846176102, 1.4618421936620054], [1.8173493250658808, -0.2518647809072527, 0.4049663747935508, -1.0020664984344338, -0.2684240840225693, -0.2217090789876228, -1.02963869499113, -0.11856012032972642, -2.0885500024522012, 0.29396374129640923], [-0.40516565306874325, 0.17111130120441498, -1.1313269601140254, 0.8468277434140691, 0.22967715167059344, -0.25010915411834717, 1.2144459708028446, 0.3315665530338138, 0.16381088531880014, -1.5386397123891304], [1.495880450412615, -1.5543199960115635, -0.19278295738949094, 0.02120189718545097, 0.5967875848667983, 0.5491074371149983, -0.06154843237734348, 0.4439110396890199, 0.023405892530551226, -0.2112964309402893], [0.9311434044149712, -2.03850252983435, -0.5571369803029569, -2.136055618563437, 1.2560711583993704, -2.1147320712894704, 0.7633183030959545, -3.022710879706935, 0.5144887229325219, 1.008991035810814], [-1.2642381048767661, 0.10680710603167871, 0.2703942463954355, 0.756201753820029, -0.9840864777694817, -0.35400659207787843, 0.6862211877038225, 0.2761265930312012, 1.2272832505825817, 1.2364277940709454], [0.7561293090266835, 0.34429973972004313, -1.0034746989385275, -1.4714994245400916, 0.8941273657803228, -1.374825074697544, -0.035955845853210364, -1.358220707042203, -1.2592749545875197, -0.0654248044753546], [0.7201223062723427, -1.4984114509321143, -1.185408328458894, 0.3188863231527272, 0.4951848441347722, -1.2411878617560699, -0.13698198680786428, 0.7353596985027301, -0.6060439168391072, 0.19134256317464626], [-0.7973328602094412, 1.5789079326975932, 0.5837222030740213, 1.3674269241716919, -0.1352846728264984, 0.40792255143701794, -1.7452721550809387, 1.6521321464253995, 0.3529486543269358, 0.6517406790483413], [0.6834115726826538, -1.0525082413694054, -2.0648765650099263, -0.2312687265810053, -0.6503550553402183, -0.6596157341521206, -1.7002597941632704, 0.09015973830045947, -0.30570361815423264, 0.2475516015587302], [-0.44769128378293976, 1.0483142240863406, 0.427035636109793, 0.8677444829559858, -0.5851878455330036, -0.6629311417726694, 0.6821908664270956, 0.810001643773733, -1.7696409787252376, 0.1708202949861292], [-0.6838660903877432, 0.15087825939533583, 1.540049245855175, -0.6940309821933313, -0.5676909317936208, -1.2737557414580252, -0.030395282078999164, -1.5177141427729381, 0.8572456286484684, -1.2210687291174487], [-1.626282554161908, -0.3842588959012914, 0.5573442719131477, -0.8114147474923996, -0.688713053299306, -1.4252764154724564, 0.30586274537126296, 1.1922129258229954, 0.19731392748459653, 0.7683601837242301], [1.393146183721277, -0.17020049995467343, -0.7305641207399713, -0.3020343353430886, -0.9293994646254295, -0.4544336280752237, 0.7707304491481161, 1.8524883876905858, 1.956080269195192, 0.5273562190099867], [0.8991838845413085, -0.10874885681269977, 0.7658649881941882, 0.11136178181017103, -1.7060551392787138, -0.3144557793965466, -0.19276934167276855, 0.2949400638431967, -0.19361369492300104, 1.4179372280384148], [-1.831207540731845, -0.24076481899884367, -0.25285902137259525, -0.09519150707190767, -0.31305104600157846, -0.3278168726799153, -0.6546302649770764, -0.4083465868844983, -1.3313710815294617, -0.9662795340609687], [-0.3143251524330017, -1.4406559253058127, 0.6223788881576244, 0.9889311827838744, -2.493907692817962, -0.9347354577091346, -0.3366439877531552, -0.7032355198574854, -0.7035404833620676, 0.3849107283245562], [-0.4265902670837372, -0.8724590513087682, -0.02202787484526604, 0.4639278689445292, -1.501439329179479, 0.4533720279560427, -0.920787751472837, 1.7958870307725119, 0.9411963307142888, -0.46779821167117003], [0.31321856860268504, 0.430059705784169, 0.43516925516829164, -1.2491663514039353, -0.4332606232061397, -1.0815019370479142, 0.3415958326743011, -1.2808413305776176, 1.1801805998800918, -0.3974953865762341], [0.8289049067321173, -0.569979576487341, 0.30274665121028316, 1.8194911682042427, 1.7709686164275784, -0.4377253354324561, -1.1476873590834624, 0.22668107185753425, -0.7520297278937802, 0.6620263018380164], [0.039364673439893486, 1.3889268023231773, -1.5574177498821131, 1.9519957029571302, 0.9315788456735883, 0.30542054368102783, 0.364429699210075, 1.0302320001015892, 0.7202184404564429, -0.9510539520670193], [-0.5459646811116753, 0.6498353446762487, -0.331003429723876, 0.005013011907962586, 0.047451377326411706, -0.5566986768600048, 1.3417000298722441, -0.6485074717033225, 0.4410555216729187, 0.5925362918943992], [-0.7476184704208302, 0.23031722852292053, 0.7421931475078074, -1.7993623516070572, -0.778729901145201, 2.0319447570729685, -1.4781587124590558, -1.7817067170933352, 1.1427745049671445, -0.8373882880201099], [0.6744905100449619, -0.22955051071084256, 0.13706994976057935, -0.691834701514738, 0.6117177181034567, -0.029275524028877828, -0.5656214633051999, 0.6804575542998849, 0.3263764727221035, -0.2099105517276875], [0.9929717455501401, -0.06861808071679978, -0.07512173097397652, -0.22972759860243203, -0.8216618417387678, 0.6072223935702522, 1.3067559773816222, 1.931234367700668, -1.010317149107563, 0.5031612392014077]], "layers": [{"type": "linear", "weight": [[-0.057292597732699034, -0.3435143897378586, 0.10430776926219264, -0.45681685262335875, 0.007129580107671147, -0.06977935745965837, -0.0700548440485431, -0.16550285670777512, 0.4527200532405156, -0.07624358157267137, 0.18546127383612757, -0.10101033227189164, 0.09096145108898271, 0.418556731634704, 0.42487049887491357, -0.1116869114738804, 0.02640855767623725, -0.3910722774155398, -0.24796615019118756, -0.09577706173878969, 0.019117583760572748, 0.08270176903633751, -0.034515989343363244, 0.2027367926785148, -0.45988516618113207, 0.4641406860753516, -0.16557554619588696, 0.393702876903246, -0.27031189786163545, -0.22514717001679485, 0.00820923538218863, -0.47373028165183123, -0.5151377218078297, -0.18506328174766254, 0.3307589246686201, 0.0364443059027911, -0.2557013543030824, -0.13948658250126306, 0.34521859005011335, 0.2613905926236801, 0.17227218333301889, -0.1575088925993333, -0.11630272496806408, 0.039848642802259096, 0.04357724868795178, 0.03526372236275362, 0.013984244931133566, -0.20400278920329465, -0.3736134937691539, 0.045880425760767576, -0.22193104508747669, 0.22536045817850517, 0.0005562587842867328, -0.15828052713373542, -0.11775946187435332, -0.5452254842215051, 0.2378233039695414, 0.24899630528779637, 0.1903429052164398, -0.12501467126366414, -0.09759154600541631, -0.1524667976829885, -0.2030556981330092, -0.2788901319400623, -0.1845393250273261, -0.10041169236572871, 0.12221738624547111, 0.14104295800209785, 0.5704286431799452, -0.16074654042332542, 0.024003901165019177, 0.17650269321973075, -0.29715438237951985, -0.17336161920545307, -0.05403526283424477, 0.07555783515473163, 0.205060226376272, -0.2898487294635644, -0.24611525846738408, 0.25325655328431285, -0.22220885614442015, 0.14534503349934205, 0.07325900951601282, -0.30485682330380964, -0.20407109651116362, 0.38017988599235303, 0.25138230701929315, -0.21022081311751958, -0.28341520360072237, 0.19337075935440454, -0.2986985162797979, 0.16849650507384273, -0.063439455616373, -0.16638062285336058, 0.11105420213625726, 0.3331516992584387, -0.049620671463854925, 0.36346004010552674, -0.18697729423401444, 0.34042320372092905], [0.10958482946802825, 0.07520631889997643, -0.16786072052567336, 0.17466509291845694, 0.09480459091946619, 0.05334530660244198, -0.2540412260519728, -0.3113043615972783, 0.17667132784161468, -0.06846604408869864, 0.2112645529089731, -0.14862219191820294, -0.0012869132253320586, -0.17538050139937042, 0.07284837325948847, 0.419507265982662, 0.25482443400509375, 0.04992951399824451, 0.041581184390638556, -0.00302459981619672, 0.16685974336953735, -0.008002279768549487, -0.05960967352933637, 0.10538815685034367, -0.25837277353860705, 0.010251872152680908, -0.11038555215803114, 0.007348394525827162, 0.13384012564152842, 0.1466324530596549, 0.10150043885508324, -0.2506122620316981, -0.34826939754244113, -0.019333209082425633, 0.11052065715819061, -0.1444326721135351, 0.14242822844409728, -0.008683104154429534, 0.022617020359767655, 0.10537704470296987, 0.07717073287545162, 0.46721277357176655, -0.08269691621966903, -0.2991013973231475, 0.11726498162026465, 0.1063385132837344, -0.024788035475776505, 0.006285202058712821, -0.04101626495887165, -0.02364043523097264, 0.07076308836030894, -0.006364517508701243, -0.06753339315267545, 0.10738984078197138, -0.09453372585755923, -0.24150075536674454, -0.07280668815478866, 0.15900319322604378, 0.163740581218085, -0.2908681858931023, 0.36035708771782016, -0.18694575814969644, 0.15581216277272225, 0.4050548481632785, -0.36827999699150016, 0.4132723479934772, 0.19482270076516034, -0.04167032981126193, 0.02086005278004424, -0.22594131495244998, -0.3490964958703442, -0.1398390131240521, 0.34479419611707474, 0.17557691789737986, 0.12109741906150712, 0.10871949211512223, 0.04661603457383047, 0.4378888270232492, -0.04938915199796046, 0.11008674991270224, 0.4438001745914727, -0.039792132488259954, -0.22210053893598772, -0.09053135731595402, 0.16111958097176468, -0.2710452109806727, -0.20801416714662097, 0.1713497445593682, 0.010078105554673084, 0.46716187082744726, -0.0324138714798948, -0.08654676786839263, 0.1553714516823791, 0.16319276568816116, -0.2243590114912241, 0.5117907713822762, 0.1801807338263712, 0.183550398437331, 0.2922197223950463, -0.29897705924060836], [0.31686230525071174, 0.328909722613547, 0.07675115750733748, 0.6698097232259111, -0.27959244286753787, -0.404187203902116, -0.08008754906515855, -0.4573002357158943, -0.20239558397906598, 0.20265009552887298, 0.12153768507717451, -0.22849848410876117, -0.03195765915975925, -0.25579967874140624, 0.09265699385019702, 0.2194991369629162, 0.20296489226479247, 0.12113771085374395, -0.28835374402235375, 0.10417672084110682, 0.20289246302201439, -0.5330544152674208, -0.22143278729984628, -0.28829005509445993, 0.2619662582127973, -0.46026016609102255, 0.11778640747473919, -0.20725193267741496, 0.6921674315463939, 0.16993688195649662, -0.02114050166630604, 0.39589663951480425, -0.530832033713352, 0.33320011626231966, -0.23125427265066714, 0.0038009707912044412, 0.23485801312375143, -0.10723363808354465, 0.08554676789443447, -0.2909152464101704, 0.2006102794218238, 0.28444475529316554, 0.025557852157555457, -0.2952462480103984, 0.3173630668705579, -0.09428832514628509, 0.13405664446451868, 0.25035554268076504, -0.1163619935484631, -0.024487316501101176, -0.2986547735547649, -0.4979856709412757, 0.12467300835881548, 0.5131731941564277, -0.01165255587231467, 0.587816959444775, -0.04410686881599266, -0.23436923793972034, 0.12490429777384549, 0.52810828264278, -0.3653039329476218, -0.19340511277483907, -0.35290051015763324, 0.793084881822335, -0.13976812717171602, 0.19627743415176668, 0.2532165890703767, -0.24200636314286098, -0.15551063385270325, -0.2098075470094044, 0.30700209072877427, -0.10148702021562574, -0.41507039366045656, 0.21761973066038526, -0.5038318837081226, -0.013877059138098457, -0.1382183938276357, 0.46109222541406986, -0.0947165493762183, -0.23849993087882598, 0.43147137238233985, 0.3447182017883774, 0.27376504222057396, 0.3698129624965794, 0.24530144151968902, 0.17058453043229074, 0.20481735833764708, 0.033663991183020804, 0.023759232196829516, 0.579586403561363, 0.42420266128446665, 0.06752694357977805, -0.15852899825348998, -0.46394077167279074, -0.5172616844050903, 0.3847131403058509, 0.4538135386012331, 0.08900640350270789, -0.04865675102423852, -0.24194373971600092], [-0.1095915957529524, -0.0870197635416672, -0.03807713129994255, -0.11224528213610961, 0.33233733140339183, 0.049341240094357426, 0.09995880352836826, 0.1618728468454298, 0.1945714527618398, 0.26043066372077445, -0.28524838768309635, -0.02409125573201613, 0.1537015041836777, 0.01176525368604446, 0.0005934212879947492, -0.27007183281276553, 0.09206455520371612, -0.11757291069014673, -0.09935802016124151, 0.20282206525947763, -0.0953326141053198, -0.1453080167567916, 0.35921305315626473, 0.07978857556996713, -0.20018795933535574, -0.08161147808766138, 0.06327569901049553, 0.4195225264922782, -0.5061779716941375, 0.46332747624238474, 0.28906434640147194, -0.11179622991022048, 0.3052292070399498, -0.3576058649470687, 0.006662233418446165, 0.295715991996605, 0.08644207207751085, 0.16276830604548007, -0.16502968897255219, 0.1962724805099553, 0.12905573423195812, -0.028368274348103333, 0.00799254944358838, -0.39123027258057114, 0.1507842193897985, -0.3525259888526036, -0.4487754214427883, -0.06444953311048454, -0.007118808301328447, -0.05848310542693244, 0.06590203964286019, -0.4041644403468517, -0.10104782416562937, 0.284658238234559, -0.09807592482084926, -0.053213826393989985, 0.20666924746319287, -0.27910209229570754, -0.07606694030266023, -0.2198190834067589, -0.14575480393981538, -0.022197511567761775, 0.25910517991018106, -0.05527573127508193, -0.19086966556020085, -0.08633318560681237, 0.005899026262804945, -0.17880843591643503, 0.12111714543093155, 0.3412681644104628, 0.22460918040193556, -0.4894922173192447, 0.21897449643863365, 0.15441869576933354, 0.0035881139991376394, -0.27458706364035085, -0.11693285550942067, 0.08970636984729914, -0.10653794738286351, 0.1068078436102632, 0.10857328899807332, 0.3016881115613415, -0.19066530206049948, 0.12789318630122204, 0.32605939089341646, -0.03762812851401605, 0.04599615802852275, 0.04919359598103807, 0.11969779794459474, -0.6559838689154813, -0.16807973953499902, -0.010605548534089808, 0.04094656422817003, 0.03604993657733381, 0.017801806275524967, -0.07125569655749363, 0.004050425577627012, -0.23291646430311788, -0.10129315606169376, -0.023177000282810604], [-0.16231122327281028, -0.2435795186194876, -0.4430900338940442, -0.10997436288020793, -0.41357923386994955, -0.3241150523837656, 0.16748630155620103, -0.030060182267909265, -0.2426279044793782, -0.15549539769551995, -0.0917868902534624, -0.18706907795709138, -0.17804174065881168, 0.13060173909604691, 0.24602966987030195, 0.036244255158016776, 0.07910198927519263, -0.13715784448325954, 0.015839670274256278, -0.21552211179452294, 0.06733063264578651, 0.2238046473107658, 0.028222723171841334, -0.10293106432223079, -0.20176824808326543, 0.4216242616502169, -0.1599727636470085, 0.1155716407375744, -0.34504334203841913, -0.5181256558319982, 0.2541133252379624, -0.15134888262679025, -0.47782265381610545, -0.07882496154302794, -0.2385164170744382, -0.17474420828246126, -0.4668367351533393, -0.22943858515648907, 0.13086204764472026, 0.06494655239485612, 0.08434410480653419, -0.05163277678821191, 0.31739349892432067, -0.16748870725937426, 0.13704954720418033, -0.13072532498710082, -0.1928706522652343, -0.20273419560218775, -0.11082815600651132, 0.13507233978615796, -0.18085520782216627, 0.0177973747133922, 0.2562376702253881, -0.1791641248429895, -0.09438294333839388, 0.09317337901378991, -0.202013117747022, -0.08302819718004915, 0.523122930236416, 0.30289074605249416, 0.043747371995962944, 0.4125629247759884, 0.07885248324650446, 0.42028009328869287, -0.038982850117856, -0.02771474071568681, 0.22161683484859088, -0.06296925087227122, -0.05171501490607144, 0.12910241851104448, -0.3074851164651669, -0.5182571940103402, -0.012766890497596014, 0.062070045602638034, 0.3385284759644463, -0.2582057008030744, 0.09740561927395787, -0.2620469097190148, -0.3443866194730074, 0.16551748892367463, -0.004794347216239804, -0.22645124498184088, -0.17721465243261683, -0.15232040945092012, -0.03094733419911827, 0.10352313138079941, 0.06169989345585089, 0.18061298980031706, 0.3405514638109103, -0.3877698166982608, 0.134798550144284, -0.08953153387468644, 0.29493317689828946, -0.24553433497443483, 0.22529050733337724, 0.22954640644101662, -0.14278221716525488, 0.1905962027033691, 0.004130167534367277, -0.09605928303718016], [-0.14076344623961426, 0.24249982119680163, 0.1499988274452353, -0.06150842690381368, 0.18994974055049477, -0.2357038347976617, 0.2465805554786581, -0.02157774339547645, 0.2740282363158906, -0.05241642264322952, 0.0127145402375657, 0.22211303122503678, 0.23063674508396279, -0.029054357779704908, -0.14664852233424008, -0.03589779019225936, -0.07566484982602557, 0.07773591463371587, -0.034607034679452316, -0.17220626166890793, -0.12667599481920547, 0.21963717905917796, 0.024332981908887753, 0.012772087936303207, -0.17433093946118047, 0.1443189655942465, -0.22913998467480248, 0.27449081974526746, -0.2103668929716225, 0.09037631053167915, -0.3630604689525112, 0.06017587201973028, -0.18623750462490726, 0.15760766389074882, -0.038817832719270536, 0.012695171492080383, -0.5361579455438827, 0.2822162672865334, 0.3293524738007588, -0.22682970350069873, 0.17809671543680988, -0.0767489859128982, 0.28927419142832805, 0.3655534318110321, 0.33050741533384725, -0.25073734407979636, 0.05672591301063926, 0.5369810559732577, 0.07454692525138618, 0.1019678449131838, 0.10630145595109183, -0.12203757167043487, 0.2326347807993584, -0.06488697252164609, -0.24327271831529426, -0.2783307883154972, -0.00045630896810005135, -0.0547073459702149, -0.11416018652382445, -0.18486656944126031, -0.10807894623124999, -0.253869822274262, 0.02364026710380197, 0.1971796611240552, -0.13461703361286456, 0.06018924493964012, -0.13847286452073682, -0.20579455403810185, -0.2664747674166303, 0.037268292743007234, 0.05610243608596109, 0.1044893118070828, -0.5037590471522384, 0.1561262567209753, -0.17524486124182007, -0.08951902113356783, -0.3005388726450053, 0.21722256023235328, -0.19077860038095773, 0.07976882994653292, -0.3145871547931213, 0.2840824150172728, 0.12558057083323612, 0.2409220293038959, 0.06900294916783387, 0.3117415544397005, -0.2460763596487917, -0.2557450391009628, 0.030603034694141818, 0.01178215021186017, -0.07328043054913122, -0.3518820210308527, 0.29383120332607304, -0.43411434187856746, 0.1704913387306621, 0.04274473121718839, 0.3695563315789681, 0.4117115594035388, 0.19613448597166372, -0.24832030048008252], [0.3646190824533246, -0.0526258008697733, -0.023636510071914894, -0.17130931885309125, -0.11058407747234193, 0.16787716631991326, -0.37600315779529564, -0.23790203894299755, -0.2366596766235613, 0.06369147351704858, 0.3452137981908251, 0.2730274021868119, 0.17133798128414973, -0.4605831685248044, -0.3584342387757025, 0.1261114292306855, 0.3121750160816168, 0.06153287717453828, -0.4753252682241678, -0.12675199822566174, 0.2657585577297984, -0.14717613335693225, -0.019412909202450385, -0.20564238242912128, 0.48024377624946996, -0.0554734342568511, -0.33718194611333707, -0.015482589689848248, -0.00014672303742634075, -0.40863635363054057, -0.029589902902281116, 0.23110643069354345, -0.28324939012231476, -0.08371234708731003, 0.13896282952242928, -0.07912209380672372, -0.012679017970971568, 0.10821269657741152, 0.016313454001232294, -0.044771415015749313, -0.033325896358295005, 0.3434216954168073, -0.2537424359055987, -0.005980636353767359, 0.0215968571482184, 0.019208750268829677, -0.22121959601057867, 0.16721074375815811, 0.05420207815782035, -0.26945372640028703, -0.0944763050310922, 0.3380690705084682, 0.012597929518144842, -0.4394264257995612, -0.22521108887210584, -0.46548927704743276, 0.2522936144631272, -0.24259064905405353, 0.15439050219337644, -8.47121263341048e-05, -0.08161688607104849, -0.08028512409360473, 0.02169495467534373, -0.18894231484655225, -0.11081708345962189, 0.2444754654930008, 0.01213193458796037, 0.23993162089495146, -0.15518652814512962, 0.1235114750461558, 0.30882297721384383, 0.06878543584780554, -0.15795775825821204, 0.20981090338572017, -0.18322956301408394, 0.23147124892291468, -0.02823470023798025, 0.061099636664406924, -0.00640802577012891, 0.05195003429703742, 0.13391252614088345, -0.23744997461178768, 0.10786541881320931, 0.38843829529144613, -0.3412853951788297, -0.13266677190175996, 0.8558417168617762, 0.284432318928649, -0.016085500656157926, 0.08056239434202613, -0.15680921938558057, -0.3718657858839785, 0.13928147615398723, 0.3817664949401619, -0.056381509564233157, -0.2818274897578177, -0.12697781310249584, -0.6308789265870426, 0.10896589176271029, 0.03486740171727566], [-0.0030528800951965234, -0.10245939439757917, -0.20222426533068005, 0.3616738184795263, -0.2726078859595087, -0.3051436929574469, -0.5146708674590599, -0.1107005227221607, 0.005532496105571923, 0.17221667105365596, -0.32012888042499427, -0.31160102991497207, 0.06811039063472951, -0.2145605297677865, 0.12001012734093645, -0.04306229079217442, 0.16242153614404795, 0.5222707336928307, -0.439098931098231, -0.22886147350218716, 0.22788337860900781, -0.20160745566339788, 0.2965241902337164, 0.18301534491175456, 0.16627188082922464, -0.22336696961642238, 0.3225127513637446, -0.3624369167109279, 0.2872221367200923, 0.28509914756250143, -0.20559039027113094, 0.35841826922559766, -0.3460018412379066, 0.08658726677692591, -0.2505989461087394, 0.08139278088474791, 0.10136733202677942, -0.25638003200062337, 0.005244842592254179, -0.16950635502880032, 0.07793860196492756, -0.012740450604478336, 0.08680855358916184, -0.2951088802597803, 0.4670967435154001, -0.12383990019023713, 0.23894174319618197, 0.5711805046822888, 0.02098159166403283, 0.20542128908728574, -0.12591420602918557, -0.407933512488017, -0.12653188971380636, 0.08885754210700002, -0.00768694145464652, -0.03900095937293703, 0.45350664899601495, -0.26974709965212695, 0.4112800014821965, 0.14702411471633078, -0.1879545172132306, -0.20676259379813264, -0.05622718227546576, -0.41559863912037154, 0.546792027259565, 0.08223528470414776, 0.1747469766162609, 0.6805096009953393, -0.0631125294000733, -0.1180834767207271, 0.17978868773355453, -0.16349673877895915, -0.16809684532242292, 0.011723986844763392, -0.0882101996354624, 0.0716863965133809, -0.07540471128133441, 0.015814049182304838, -0.21209622906192327, 0.0997427462451782, 0.06709963903361778, 0.2709214655251378, 0.3124456869135491, 0.4976283784856883, 0.15238503854780786, -0.07551732539318658, -0.37418084648246325, 0.3160790979103026, -0.09307621259608027, -0.07683558469099072, 0.5374261316001769, -0.22465595133944424, 0.1166677277429615, -0.3663339794115399, -0.007071249460695123, -0.02252002475519206, -0.16411879945941912, 0.03821976992065974, 0.3378713890582523, -0.2976486389356438], [0.1902890402240879, 0.19637322241577726, 0.018589333348799794, 0.22498982533262965, -0.10014647303059447, -0.05421771802100197, -0.10235370565594458, 0.0533555414635251, 0.17816601195758625, -0.03957114727865836, 0.13849093454392156, -0.1943318846154727, 0.30451165995721013, -0.1976965841850821, -0.08531357698039593, -0.020039018627148616, 0.18072114396806252, 0.045973060315594755, 0.05704336103729062, -0.03305470407361367, -0.03665486517106534, -0.26135392772170296, -0.13830751951589573, -0.3167349108549887, -0.10364102432381671, 0.09808034116589803, -0.032509372802607225, 0.35235412158017243, 0.14220616013903734, 0.0141388347247836, -0.3962926928977675, 0.25575959431401374, -0.32990901010602225, 0.4951388215622335, -0.30698642436262236, -0.334333937995184, 0.09278144355511952, -0.2578528338206219, -0.3956367284771564, 0.43591080896947654, 0.3636548892408979, 0.34859308254587223, 0.00918526610256127, 0.01478972006359446, -0.37358512287597556, -0.21843183637919267, -0.1162763493138699, -0.017850890240664483, -0.37902056563525893, 0.2432603742598885, 0.2987814134114942, -0.5691737326480685, 0.4094688840123599, 0.16541889763611614, -0.30359397743438155, 0.38385013038302335, -0.22950442878975538, -0.012507475866820269, 0.07104193686070756, 0.07839757754283294, -0.32965114791030675, -0.09045864175835752, -0.027154383953342232, -0.27676901026266776, 0.034583319731027885, 0.07926604105982163, -0.43339352208870663, 0.5398532446908372, -0.052089741887751395, 0.04431032425320484, -0.40083513964398965, 0.19729874816595425, 0.04071755662245793, -0.05206058941784265, 0.24096262074735444, 0.46109316707276465, 0.682139508045139, 0.45168231025073546, 0.26393770780396025, 0.00046077860679159897, -0.4146452262401635, 0.08207720840543382, 0.5660406023469601, 0.23207257440286125, 0.45724149917452284, -0.18874595771023114, 0.264770806318013, 0.2574627274306549, 0.17701005864991326, 0.38196217617891265, 0.1253571780769539, 0.24693142325332867, -0.15162873113605257, -0.07923420921542162, -0.007348502022683772, -0.08556163098865786, -0.29384408488533986, 0.18694049590372175, -0.0005215620275989584, 0.2703065511264481], [-0.40173236316474376, 0.20770154659648168, -0.1970187707335127, 0.2596276867382067, 0.077449534975107, 0.4275626304507331, 0.10064841496128328, -0.2005535073946898, 0.024003771199708316, 0.2283104019472636, -0.13129588119743793, -0.34592568259440565, -0.1543532820166232, 0.2241858867190622, -0.06339910010640921, 0.5260767545819062, -0.10887828841634077, 0.18296541776131872, 0.33408533098004156, 0.03760880248153481, -0.17830209841933214, -0.02108650931935813, -0.21713058550319936, -0.07723034717864358, 0.3243732561797882, -0.1782700253877342, -0.20256720935626904, -0.36104951991358664, 0.2559067282069213, 0.006505050627950923, 0.03181276305755926, 0.38603365125517736, 0.009235215042031692, 0.42977060834895037, -0.2681867321382852, 0.30495521984777174, -0.013528761343074581, 0.06217508549517205, 0.36270494020368965, 0.3215704682772342, -0.09445660085656554, -0.011494182250030145, -0.015143829373398698, 0.09763334984491245, -0.19513582357585027, 0.01780361915169723, -0.266395537380777, -0.12218230700375199, -0.12461862124223227, 0.19310701341288652, 0.13878366658607225, -0.16538346941312532, -0.18702720027028957, 0.14177031860342126, 0.04450975344230759, 0.4416810081479292, 0.1930659687116565, -0.38176947244094916, 0.16651736483172142, 0.23095309978889572, -0.22917117633378853, -0.2093082858323092, -0.010621823912930307, -0.09391700374462435, 0.3695121445933353, -0.11167442943598054, 0.15752535668751047, 0.1359319902244477, 0.06402103561856891, -0.4538764454524588, -0.16842444408062315, -0.07421657101224606, -0.3382037258178527, -0.08429449162858371, 0.020625434027002024, -0.02392151361884595, -0.034890857996985866, 0.09503895459539093, -0.10217125005695757, 0.2157890102871618, 0.05319262505396449, 0.16843483438618326, -0.057710038793039854, -0.26091876885892895, -0.2530935738120131, -0.16951507247168748, -0.06837063822758672, 0.030641298542056702, -0.22404267748140155, -0.12787131340334354, -0.4233373476985566, 0.11579476346338799, -0.015543912718537948, 0.36324247071482724, 0.201141291213193, -0.24519942995158134, -0.10858493586262609, 0.042811290259301374, -0.2239035161110087, 0.47048283932332907], [0.2877296822177165, -0.37554700115006473, 0.2764423584047245, 0.24539618557527548, -0.30203998158132084, -0.16280939592176422, 0.304306899031914, -0.013125556053310996, 0.30345255729843423, -0.061458915033345364, -0.3478577388575791, -0.14671023776962816, -0.025779003507865158, 0.10757730834107708, -0.0031758329364900716, -0.5462104392436541, 0.032629687881508544, -0.020219933374198515, 0.2530241870522186, 0.16195173288245657, -0.2776363591026306, 0.3272079460685385, -0.10978416360182186, 0.09010307744365711, -0.3155297067953612, 0.19707710216333962, 0.18039620944962007, 0.20192726875980083, 0.02047679752264087, -0.45803396192206636, -0.535842863561151, -0.3588247570464141, -0.20168720555613615, -0.0054793110709645656, 0.2648212980490688, 0.25623977583892316, 0.1458466061578935, 0.22315057518259124, -0.03832619797042317, -0.10633426008685118, 0.036215368351414215, -0.0849308401884541, -0.30651714037824057, -0.006251470777825012, -0.02767064811952851, -0.04190597300993766, 0.4084831243191357, -0.5301858100381515, -0.05363593756219693, -0.41878397164508135, 0.49002658062339616, 0.18131591365850158, 0.06764307833613525, 0.165895408703171, -0.15295084032138043, 0.010178418120381876, -0.09081559115122724, 0.20065218999123147, -0.1856995592043706, 0.2520524536152917, -0.4283754102955123, 0.21315188625250606, 0.2871946999188773, 0.2617138743930138, 0.06400346680022441, -0.12589027705531874, -0.045511133284548005, -0.21782167772091535, -0.030585959864964575, -0.3926392277313999, 0.15091400364965155, -0.08756697963406257, -0.11278102569138512, -0.03270753220627315, 0.20991237615387967, 0.03690231661638023, 0.1179290180005752, -0.38831338608548865, -0.06430177020847248, -0.32691498867528396, -0.3401575890706864, 0.10281768668094282, -0.5350141490057481, -0.2608273927137767, 0.09804546763175644, -0.11107676635784099, -0.09116203007894717, 0.008354189892916506, 0.2715928095019058, -0.29161312027787223, 0.34546927191335514, 0.1171242125580081, 0.23262253637860378, 0.43788914300000636, -0.02470256331145765, -0.2646430529499735, -0.482078971340945, -0.19162539173053222, -0.16475057895051062, -0.10201438686864411], [-0.47368533021998416, 0.1027905781235895, -0.43057388581609174, 0.11605350916652592, -0.06322538372172626, 0.21992051183663508, -0.05404737444197993, -0.07162007213186804, -0.2668670312979907, 0.20315316309400533, 0.5414163662732858, 0.08167935520256601, 0.1464029127510155, 0.055794891688619584, -0.017401638957598914, 0.5385651123406151, 0.5374260140185484, 0.3682616940075426, -0.03057727766571373, -0.1678104570718075, 0.2580772451625913, -0.004935219011971633, -0.24223895280733948, -0.11907376250214229, 0.008610725012262364, -0.33290711146929175, 0.07605782659021064, -0.25496312171861557, -0.10725721905532574, -0.005677062965709383, -0.102672358799054, 0.01014442267781229, -0.18779691519657662, 0.26860314292439863, -0.44101768955446574, 0.21270244692665144, 0.21601380656960156, 0.20303735088602778, 0.45526766747513037, -0.2119846464729998, -0.4573825147211995, 0.16189696743270807, -0.0750482358238643, 0.06149003066124572, -0.12075759854407951, -0.3867510286976506, 0.20998481867483929, -0.25093215789876133, -0.4311808825294269, 0.10436652591348278, 0.001255708737967973, 0.21608323302654384, 0.34607440720696186, 0.4661660085238361, -0.32564277544692516, 0.05036171987485689, 0.25044956931806484, -0.266673478947131, 0.6243423546399413, 0.23493159631690413, 0.0880016315528357, -0.184317936259472, 0.15303575265872515, 0.5228684920205718, 0.01058122084504695, 0.12252500859244533, -0.3982478616695979, -0.1979827128935111, -0.19025383067316912, 0.40827039922839653, -0.19993593670366427, 0.20809674454848032, -0.21056819295912999, 0.21266961827751116, 0.01558488819455292, 0.12561209844649815, -0.24179166331672264, -0.14939889215897634, -0.3889506192411827, 0.3358557066918936, 0.41912925586112715, -0.21838129496044192, -0.13508319980383945, 0.22401578270519018, 0.44090831663988483, -0.04622921420057861, -0.3166942804978704, 0.08766185863471426, -0.02893722398694227, -0.1405002162619684, 0.20884122208953626, 0.0005443284007524391, -0.009936123650138323, 0.09307811067862613, 0.3428551321851065, 0.3449897330624199, 0.18962069223171463, 0.09988986351710853, 0.04748800321812808, 0.5012995807349264], [0.20900866867980278, -0.09415154139656408, -0.3507060384891402, 0.1253772644899229, 0.2946497074810852, -0.5526416250568448, -0.08834517605033973, -0.24925419282280026, -0.1406510131820712, 0.1832800123035899, 0.04426546928234903, 0.08028553654709107, -0.13537768968954303, 0.07163739579673448, -0.031241607087765147, -0.06184805135660075, -0.19009804218641982, -0.06071466350333857, -0.29632629075531014, -0.46740872715627496, 0.05741948893263138, -0.36709223423092907, -0.24539484649593923, -0.28385177098917963, -0.16671613629804025, 0.0940811080551992, 0.4223920461213329, -0.008090019524546124, 0.2595156322924945, -0.009880760432401227, -0.41288058469818983, 0.05195797115993904, -0.24882870362345239, 0.2043012780519496, -0.21049344704836942, -0.01371792378109387, 0.17118680980692594, 0.3107659925805911, -0.521412867624725, -0.35620109197693156, -0.4617668543892244, 0.12271994575377905, 0.37844196141535, -0.22572467012828143, 0.20492178262679117, 0.26918914002990224, -0.33808666281573707, -0.012339889899795849, 0.07720798649042145, -0.34785724685031155, -0.20466152431416898, 0.05998732861664608, -0.004821935815235847, 0.23209154619860425, -0.32685775778258924, 0.10038544060013566, -0.07673244315560232, -0.29362128275371097, 0.02732477380352298, 0.20429875968730785, -0.2676009227735679, -0.2461824440998352, 0.40215737644176414, 0.7874506014484641, 0.028359899825393876, 0.0738790636221802, -0.15564310890849606, 0.04802522396200379, 0.1475119033468997, 0.21554581977399498, -0.16081528500556555, -0.02609798005388015, -0.1194062014158067, 0.11144413107195056, -0.0850701199053806, -0.08136859713685743, -0.055938876718052415, 0.00030579030331222973, -0.4771658955892115, -0.05077693917203951, -0.14088038261015565, 0.4930415259081135, 0.2455104418665825, -0.2244194122906632, -0.08144104762928106, -0.07256326517131959, -0.6234737794519761, 0.5283289675198598, 0.0847316869136752, 0.22121287898395012, 0.25714208289556817, -0.2525825318412346, -0.29258237144027927, -0.13466451516363698, -0.15799613216717787, 0.20601899902012008, 0.11192888497792208, -0.2728983893997525, -0.12877155146152083, -0.026611687080883677], [0.17745142075057393, 0.28490145878679735, 0.3501529032895661, -0.14399256331426746, 0.027325658486666612, 0.06763654864037004, 0.2315092779267534, 0.4472997960035028, -0.110081882956051, -0.02670141184552945, -0.3096523867364521, -0.19661587306616565, -0.41819361006186767, -0.10727344189764312, -0.1336207448498211, -0.2673235428945306, 0.0738181638958101, -0.12435650662798907, 0.1856562764845831, -0.4265453201643221, -0.08910941183308772, 0.1882573905640661, -0.17242743953383477, 0.03164398158420842, -0.10518319246021475, -0.07807866749529634, -0.18727858527535923, -0.10895879570040821, 0.17073200564208607, 0.04598207905340621, 0.3752190564884177, 0.24725238952275852, -0.11995295078491035, 0.017828017593800132, -0.33942257319456015, 0.09327669462963302, 0.1201013246134621, -0.3979910030589852, -0.19472974537531837, 0.14036246615276154, -0.10924590954259449, 0.160826393061651, 0.47559410818037096, -0.039435686876330686, 0.0572100812926737, -0.1708054241778656, -0.12017580874331958, -0.3669369219312508, -0.2115013376839866, -0.3609645520272796, -0.03847941504153343, 0.24307059899770797, 0.288586976041736, -0.1790085812187485, -0.2730070431323547, -0.12521535577100382, 0.2869938087463666, -0.17389016920815153, -0.04610456894227376, -0.19598464200611973, -0.2281213963357237, 0.06554102256997393, 0.05873606626476309, -0.1424793250174436, 0.13416127685631207, 0.24512231994500297, -0.17869060026914246, 0.5510298175146069, 0.19464715366735597, -0.13176851605271672, -0.277999996179687, -0.30030925259547736, -0.12508333325974394, -0.13940199135306466, 0.09926767006526095, -0.057344932741584, 0.2861423505207818, -0.4397932760944458, -0.058180830983082674, -0.0632794377010125, -0.017675780323299674, -0.19641195631434152, -0.1761683043015591, -0.010608214397519914, 0.33600324341755944, -0.14870929924212986, -0.11557744141009577, -0.060588662082828953, -0.09881440668085688, 0.0877707082088768, 0.6478878580413321, -0.22736677105449993, 0.24998401663699174, 0.2293573275677467, 0.2562637548578868, 0.2786468578737689, 0.04358362654524204, -0.17200912971596385, 0.09001727469796116, 0.06381177128578282], [-0.06169508638232372, 0.172183971508401, 0.37824842520302304, -0.39614890856634305, 0.3246024315098235, 0.5801171945997585, 0.10738027098050933, -0.3017910773197072, 0.046801261258535246, 0.4882233404595007, -0.11221662741062785, 0.28488802071420416, -0.04672395141641208, -0.023266888222946827, -0.16789120080285388, 0.1527276286376583, -0.04347124569853627, 0.11286691772792036, -0.014296158113892784, -0.3382382714922175, 0.06444284459530843, -0.009293906091911225, 0.03461021739454197, -0.2934342771410879, -0.0894316878920405, 0.4686992339692007, 0.10892974883849108, -0.27252499089415727, 0.11590642132029196, 0.15388024706207634, -0.41494444983652856, -0.021540624752443713, -0.4964415793339294, -0.35214816130543614, -0.4786677963746552, 0.3947320741546658, -0.21110891080134322, 0.7220019327754924, -0.05951598778742638, -0.1689501104016677, -0.1164485218708493, 0.26366254856452337, 0.3323332710900097, 0.1878582722469857, 0.4009267247957856, -0.20958090242124683, -0.2455458853012106, 0.004071540048959806, -0.3843209738910963, 0.15504655307956813, 0.4552593588434145, 0.05431699303561269, -0.03791352165933608, 0.06279933887362363, 0.09762138453283667, 0.44284754011001815, -0.24971284588161793, -0.007032465388282503, -0.16895626032084027, 0.2763216349707295, 0.12869108827083578, -0.247824049017762, -0.4290753286654906, 0.18363990100631783, 0.1112637297170833, 0.11036892191746231, 0.05079292288932453, 0.08927392927498332, 0.16541670718520798, 0.2871484765507566, -0.04330932049010725, -0.16943124094776502, 0.06001155069008235, 0.2239048835183415, 0.3511423303839883, 0.17076554716062872, 0.09519344470657116, 0.10730968067939761, 0.16442038165263845, -0.3385959769272289, 0.13863405774949544, -0.29356266930925506, -0.07887905038250571, -0.24954234957065133, -0.18374379586124137, 0.1861197718498749, 0.05909654120597891, -0.04297515679798433, 0.0210398354581851, -0.3561393803194918, -0.2037528969641546, 0.1262252242145091, 0.06075865404629294, -0.279774439589075, 0.11760718774467938, 0.16747293317984702, -0.28931232932214784, 0.7123440788234325, -0.04085289705525034, 0.5077421763314588], [0.07479818315664359, -0.08716745957352365, 0.25202540911304505, 0.06015921142498456, -0.08970628959736875, -0.2724761489190951, -0.1060918860560118, -0.23576679524208613, 0.033674650493825176, 0.4162970110568981, -0.006063064149994231, -0.19372326409250262, -0.3156227790878981, 0.21752875181478676, -0.2404114433109299, -0.20259676785557762, -0.12595792788593513, -0.3257424458328125, -0.19156115611351016, 0.12940217756191988, -0.132819640150638, -0.3158350775266847, 0.16510341339229884, 0.011098471491298882, 0.07543899159295142, -0.013151327392885551, -0.06969586718882903, -0.5096319508850309, 0.033708964186713285, -0.006885610212030064, -0.04777361724001205, 0.10251417261973084, -0.27838492155429545, -0.24050002472144386, 0.10112062667422694, 0.08153000571557932, 0.3523761178559905, 0.12982999910514997, -0.01760679508866476, -0.20437021142778164, -0.36010653720911917, -0.15740930772094852, -0.3153145876953783, -0.012447434783911401, -0.23422634488943467, 0.0722180906492591, -0.15819299487217675, -0.10388620536208192, -0.02216390787153638, 0.17043911234795864, 0.1497542132061068, 0.5994547800140494, -0.11867239416114313, -0.10798869547693339, 0.5420660397762306, -0.3575430025692698, -0.1624974454259808, -0.06409232169433281, 0.13731902030157678, -0.1559841444312499, 0.25263704824399047, -0.4467318999449174, -0.0943345878521565, 0.03155503259783153, -0.20475971446030602, 0.08876156855152445, 0.09566036353416171, 0.06449095612441566, -0.2146751249810259, 0.193931364811285, 0.2801771916082675, -0.09687261061590943, -0.017720664969335758, -0.08680886069329431, -0.022584295378514255, -0.168434770143653, 0.17554365971834504, -0.16242018629657481, -0.07926069846532872, -0.2625391796477233, -0.18965863693196097, 0.3066994632454466, 0.3152173310901397, -0.2098905859114834, 0.015030577320462495, -0.21207763623413428, -0.08331825155451061, 0.2280445993171459, 0.2131363853200938, 0.06448636439533288, -0.0661022368302653, -0.1187032646700967, 0.6015282694664581, -0.008118885706613855, -0.3002766805964466, -0.1734089434193777, 0.11624793161423662, -0.043012895824587546, 0.2019357187756707, -0.18479184473394128], [0.22598230642008565, 0.29313050888942976, 0.37325636374430193, 0.24623381195960964, 0.39167805823271856, 0.28350719925104795, -0.35342364577082025, -0.18820607493600375, 0.23696082104589802, -0.13448875001121094, 0.6060247032426224, 0.2319703606832474, -0.2410987186455064, -0.25864186799150635, 0.11416988828416728, -0.13166581012737608, -0.20603423642501828, 0.10491867329981526, -0.18170878225080161, -0.23380115100695836, -0.5034051953981983, 0.008633517425138647, -0.22628417390781147, -0.18060347859427286, 0.013555754366281097, 0.1230367068743165, -0.10403440616957554, 0.03670435439870219, 0.06387183203401946, -0.4088886462041495, -0.22607697694688655, 0.2073689212226239, -0.015516547051092323, 0.4422548019928257, -0.24986484919322893, 0.1011647300230105, -0.12431633746484885, -0.26125000800449294, -0.23246744829882862, -0.0057641864425014774, 0.185418737206322, -0.051186923657019046, -0.44570990964498286, 0.018162456245560687, -0.27744090686134704, 0.25079802819225405, -0.3221870518772651, -0.06872100038871547, -0.35501721425233823, 0.11002461607259183, 0.5424935592695072, 0.03230988302432461, 0.16452844722911555, 0.09129215133538769, -0.3242126972074874, 0.18899155875113083, -0.016384077042301444, -0.20854496597684302, -0.09284338504344197, 0.042763664463262345, -0.11662913430929256, 0.4187535179476462, -0.14810881329210937, 0.026159289764187785, 0.24339293293926775, -0.009267648825637308, 0.15590126051902994, 0.6776543521460241, 0.04559502666604387, -0.2917648348961384, -0.1686834575876683, -0.11933063476105721, 0.21090856827301735, -0.2446122118077638, 0.2555292398513007, 0.033730268237065965, -0.2745334464558535, 0.09377945823918113, -0.35171539690028664, -0.20872877137834667, -0.05987361733332953, -0.32081856515891727, 0.03621023517413086, 0.08385908547658062, 0.15920876867612696, -0.06999056085786713, 0.2009332528967384, -0.046643531270872084, 0.1069094704450093, 0.024331238553051058, -0.03293378836432255, -0.29034356186373383, 0.4001335787388415, -0.2878969046776988, -0.46011089828531887, 0.22058202154788448, 0.06771003961424868, -0.0805931075844008, 0.003434867075216023, -0.24976180462833314], [0.3017931812219094, 0.09460188178836954, 0.1121529462064583, 0.07720612033169662, 0.3608073680733658, -0.19279870043159864, -0.1473121020836387, 0.03939479402278368, -0.07544504478375318, 0.4172317559208289, -0.03005155350497499, 0.6532557978662727, -0.12621825685080187, -0.35417869299885174, -0.4513899288492259, 0.16208820165113924, 0.40769167871592804, 0.12337420466878952, -0.20331986390713394, 0.23134991068641017, -0.1878983037230169, 0.026736885322179965, -0.39338458050293895, -0.09583044865501722, 0.3205989420622846, 0.13210913977310326, 0.3069214665094159, 0.03164189201734824, 0.026045841066371932, -0.15586426995216737, -0.1262426496314447, -0.03787784516989788, -0.21903941883474487, -0.0999927650134105, -0.028314868642686775, 0.00020817786876599245, 0.024594086224750622, -0.11620739693323857, -0.10735769948516584, 0.03811617219038283, -0.030708711828182193, 0.300566009849973, 0.1639220194839853, -0.26502474719243596, 0.2439946267835102, -0.4302915869329079, 0.3081815440943007, -0.33838073266130747, 0.3123226745790083, -0.42405733142672525, 0.24010702526910144, -0.09802244137293148, 0.06045492730016674, 0.18915308900018707, -0.004210952868531041, -0.046069860271935964, -0.1306924785517551, -0.20395131613367967, -0.08646378898940292, -0.2932589259470443, -0.2598274581133102, 0.26548436583581936, -0.12097924466832741, -0.3419368783960553, 0.5922043482798579, 0.20901202409291883, 0.10656475509110706, 0.16436482570868674, -0.13862108060440784, 0.08006075381326459, -0.42222772308345513, -0.3410657370099321, -0.2338551686964527, 0.17517258799356222, -0.0774426684228503, 0.05026812259914693, -0.11137116753765978, -0.03603183184629976, -0.24461021097179925, -0.08344215924141989, 0.03098449542245622, 0.2506766375654687, 0.15568790584090106, -0.18536244693686, -0.04040461973778363, -0.19555998566186084, -0.10872824037212228, -0.07160711455112076, -0.17517821924813784, -0.05641679608351896, 0.2313710110000441, -0.061926522912697506, -0.10080424161820611, -0.0904997612941756, -0.3467407895033878, -0.10772563824233833, 0.1649561819265842, -0.12007907565795271, 0.23003583913032763, 0.18986760636728148], [-0.24905611301024608, 0.2779351754480744, -0.2773073218562279, -0.12233208352306071, 0.17394465780611199, -0.08923442346820466, 0.07199609376562695, 0.1313239194724008, 0.17121741984661315, 0.4212418427965687, 0.26119847109124966, 0.6803392447090522, -0.13506867655456672, 0.275466212533957, -0.08063216372969306, 0.058189983928515876, 0.08768041743066264, 0.13111671306256895, 0.21950884650281824, -0.13265491941962082, 0.012173576303475101, 0.11014064142612323, 0.23159095817758923, 0.4055426074571376, -0.23913241308203967, -0.01747211174800072, 0.2319764196774857, 0.2525818695671019, 0.33081684730921523, -0.031361860536880615, -0.640131996493522, -0.3255680284566301, 0.10671439917515303, -0.047523329775852774, -0.0028242091448439552, -0.19977769755067812, 0.41875108204658046, -0.05561730730734498, 0.2947401295418089, 0.07351853252975202, 0.10772511245237286, 0.3501849345347923, 0.16920741878670906, 0.2796848527042597, -0.37106755284870996, 0.17453327522399417, 0.2996813388258221, 0.39918417240151116, 0.16443287821547622, 0.06026262926410154, -0.1222469857629611, -0.2440852897032781, 0.5571308964732081, 0.011456247280008469, -0.0725334081218591, -0.2684533670670187, 0.27099418536984776, -0.45554469925788993, 0.34498811921904565, 0.01119502691269231, 0.18219128405270438, 0.07076575816174809, 0.004525558884097989, -0.08016301155881343, 0.08100407733464401, 0.07504868138332157, -0.11203435724677996, 0.020739210582117595, 0.3907913417668722, -0.21789190258877514, -0.18569984634783315, 0.06398028454233148, -0.4078701693307033, -0.6016703461887588, 0.12677773994657068, -0.2104100278698627, 0.01592329906275762, -0.21966985847334677, -0.06421881138433023, 0.03492633808267424, -0.08439088558891812, 0.16162999671003592, -0.10746001916618006, 0.05302091844752978, 0.5338115902873246, -0.5024317763104097, -0.33113233071559667, 0.02119116474654145, -0.030254708062734652, 0.19187446266943112, 0.43714083739104986, -0.24956982841419292, 0.1664378760007101, -0.03232381531446307, -0.1153032849063877, -0.017660287191121886, 0.08093807897309209, 0.01725847253487694, 0.32614990949004136, -0.029156443709141312], [-0.11406746271065797, 0.13516724413240708, 0.03496042844874335, -0.2733683316169926, -0.10431436428973398, 0.05891308719772453, -0.24174406516450067, -0.23808579342178027, 0.2530230240930043, 0.28778803946180304, -0.1925055850172076, 0.3625978197972249, -0.3568831775123455, -0.015596027058601823, -0.3262800414936293, -0.021360407004944276, 0.31935687229586895, 0.16292977342458703, 0.021739109811614456, 0.3676481760752975, -0.6801540434380062, -0.2236599654560953, 0.12021051222840161, 0.07134913507234006, 0.24150099335814615, 0.11269401841976559, 0.32183478878125416, -0.14040776510262662, 0.06963517611146383, 0.2149111119210186, 0.20631682262510145, -0.1605285781262944, -0.3313577591681103, 0.10727728670960528, -0.192142708500782, 0.24328212880813857, 0.119866283548937, 0.19755856847486092, -0.07956544530920158, 0.2673100762920434, 0.28910490500949704, 0.08203080594847494, 0.13920907415317288, 0.2530284575125028, 0.46002849813466873, 0.6332943237029868, -0.5163819202469684, 0.17972182471703316, -0.5327778128845262, 0.12963711250655652, -0.2653711478031297, 0.13067418079341692, 0.09814167115681902, 0.06444283197845362, 0.035855545390508246, 0.2928326007208683, -0.27449182059760735, -0.25718571592509526, -0.10631649598488634, 0.3003021660059935, 0.40241394448888607, 0.3732522172965928, -0.41423136062688914, 0.39241830958517016, -0.1490285500058712, -0.30573623860082905, 0.42977758555705214, 0.00864933876343698, 0.1766180228870245, -0.17046405537774226, 0.17864718433318266, -0.2539655259231695, 0.16931844140680583, 0.1458983630942885, 0.3186384029951585, 0.07941973035018196, -0.07946720012164768, 0.07948985026724179, -0.06243442803346238, 0.026839475018563846, 0.06654840360528631, -0.011823552328451439, 0.2732591751738625, -0.040548893786623415, -0.07593560428509553, -0.2286562396803295, -0.5298807963353978, -0.09061946225267983, 0.07504036766658666, -0.23643097507492397, -0.14893089347746385, -0.1412188465613263, -0.11235444769167315, 0.14740154389149968, 0.1638317663303052, -0.13303753304153518, -0.17481984731111627, 0.5243032824134007, 0.04718199973572106, 0.07464419118311853]], "bias": null}, {"type": "batchnorm", "gamma": [1.023616160133016, 1.0013408023405739, 1.053577638009846, 1.0361919446930792, 1.016734309245736, 1.0393830226337932, 1.028273092076342, 1.0070961819217146, 1.034631522344482, 1.00824191817493, 1.0062142408255659, 0.990181342858095, 0.9988939221208377, 1.0556745845939752, 1.0163405361377384, 1.0166699959804244, 1.0434377505735781, 1.0472146830243523, 1.031075496939409, 1.0083800776376834, 1.0241116130416652, 1.002283658841935, 1.0328086469789055, 1.0298027892901154, 1.0441263964242287, 1.0450941706472163, 0.9916840604525042, 1.0236636552995326, 1.042095811364165, 1.0015493013479864, 1.0235223742029511, 1.042376497458625, 1.0096912764320622, 1.0286381996182237, 1.0441039252713318, 1.044981453013814, 1.0345840441977183, 1.0517768032763064, 1.0564117130612656, 1.052081311580859, 1.0775293768872265, 1.0376496024748953, 1.0295044472210513, 1.0487975962393097, 1.009790398947945, 1.0288919689789497, 1.0616315779225338, 1.018502216865724, 1.0888767198985154, 1.0291824400594531, 1.0693246484369605, 1.027435488116009, 1.0309310035160095, 1.0524287437614581, 1.0559289537025291, 1.0143474972434408, 1.0399136695613482, 1.0321417495972036, 0.9951112759746407, 1.0440234856963162, 1.0417723332294413, 1.026745567406976, 1.1011859150189305, 1.0208410850860876, 1.0455037566523233, 1.0392866112048789, 1.033723765470741, 1.0232557335658998, 1.0208828483871213, 1.0124784071091648, 1.0248503648083256, 1.0019500728051254, 1.055778547099554, 0.9954199985914278, 1.0434314137167415, 1.0088183435471048, 1.0039821927116495, 1.0150497888276224, 1.0947475092170715, 1.0495728035657028, 1.0155279249649343, 1.0234631813320563, 1.0157759382576141, 1.0389298701121088, 1.0023155189130735, 1.0370538277496142, 1.0400067868729548, 1.0541932149662254, 1.0186284627245172, 1.0468193247483477, 1.0913366159659477, 1.0384643735151338, 1.0734814072440355, 1.0047018090289093, 1.0327749909566262, 1.0195288576788273, 1.0762561118359526, 1.122673500674357, 1.0532647878520442, 1.0075465933574654], "beta": [-0.019731108949942417, -0.06929656814246392, 0.06916604838744649, -0.11261422461103907, -0.08649120497696912, -0.005228812263347363, 0.0310035626170603, 0.06696854099958713, 0.013893155167931964, -0.06735260114820231, -0.02540694817150998, -0.11063602958301655, -0.0197229601529799, 0.07125109394989014, -0.010839954363868802, -0.0714611065391335, -0.05642481667420281, -0.03094773453442595, 0.00795521474489725, -0.016912946223544514, -0.00302837874966371, 0.16175934335892342, -0.006091062143705721, -0.03423080366789252, -0.0574208185900697, 0.028062436852124815, -0.10924329113407094, 0.09555490501118652, -0.08734777525623671, -0.12619658380684393, 0.05468565065930578, -0.060907876322940764, 0.12505850766824636, -0.009046890927558495, 0.07434028866314772, -0.06759974015989835, -0.01563599798783487, 0.017633643209491706, -0.04120635587246653, -0.023931686847354115, -0.07815661340656226, -0.059173833190572615, -0.04820585396428781, -0.014956568223740477, -0.026523134643525622, -0.02333202724167896, -0.1611498039405788, -0.17906093433414147, 0.07225650807585608, 0.07453335860977127, 0.09482464719180785, 0.10973334449512795, -0.025762218432372478, -0.017766792014720856, -0.07038076469496729, -0.027892363998371174, 0.08622113565749602, -0.02255819788346954, -0.0876290920665209, -0.1386884284707332, 0.0600429877189281, 0.05720096720280824, 0.07898957651356261, -0.12939357724585, -0.002170593903946341, 0.007164622891722929, -0.09092460301703019, -0.0766885914312098, 0.011466586120990064, -0.008202193257740485, 0.012565376495767057, -0.01905627853508431, -0.020511673605193632, 0.00871223450409997, -0.04956497884749024, -0.0429649900192732, -0.03716199298249727, 0.0005162678334149988, -0.10899602240696452, 0.06224081840583641, -0.02348758039035635, -0.06809272267891177, -0.13277700436936987, 0.0023801011451332114, -0.09687721604541198, -0.027697999412346276, 0.02796022891750069, 0.04633313387059881, -0.022779341262791283, -0.04168924641561224, 0.02623526069267881, -0.017086839297793813, -0.06554801082283927, 0.07268984096858222, 0.01545958589246388, 0.004913535856404683, -0.05043709173407544, -0.00458532408137591, -0.017298734491706817, 0.017876679441080644], "runningMean": [-1.3799568249306913, -1.6567918326444548, 1.5156920400831522, -3.424368617198994, -0.3681531854186057, 2.758254537904886, 2.132354774737055, 1.706534709928074, 1.2165825687575689, -1.9568522536391824, -1.069126828069727, -0.5384632915738745, 0.12636294113204055, 1.968882221201562, 0.8589269776477564, -1.7794916454324015, -1.6965814960464787, -2.04014661614446, 2.195584391989114, 0.7643394975851815, -1.1998683474945966, 2.878324991563463, 1.1765766359981857, 1.0700475545485308, -1.4066202341076748, 2.3079376483726004, -2.226467421816136, 1.3452794099730705, -3.3706769033438944, -1.4376786649059328, 1.742302051498299, -2.144177045665291, 2.108035505846456, -2.0939348804957323, 1.8691320923450658, 0.5771301277444392, -2.181559698583585, 0.5300013138999488, 0.9354039915190319, 1.631814194834732, 0.5501631954632222, -2.4237819781421535, -1.0020849572707082, 2.040636213742105, -1.4436589949381382, 0.5439789261236124, -0.7939661042821524, -1.945316815942566, -0.5630767154249736, 0.6179734644924962, 1.0421893767551882, 2.513799165102476, -0.7365626315829824, -2.6817719424282167, 1.0053198320729249, -1.3834452802555732, -0.319230939813883, 2.4486041665587646, -1.5526282287395665, -0.9044543188315652, 1.2900243441920325, 1.432646647139954, -0.07395636562481288, -2.548143749444705, -1.246161800646629, -1.8212224341667123, -0.061522722761888346, -1.0475618435404597, 1.0675911714541917, -0.17935604249419154, 0.6279860955266634, 0.45785595543021285, 1.497831239949347, -0.9344821609657181, 1.8232434449765507, -0.4869347874720669, 0.8777389858967932, -2.223552453503255, 1.6859851627902342, 0.3123117873584055, -1.610828438829044, -2.6174267155195023, -2.4638117170971636, -2.063493498927807, -1.9904346908141575, 1.247488692258758, 2.1889766569025984, -2.102546911906688, 0.25252347336813386, -2.8747834446871083, -3.2583520113401567, 1.2166231039432978, 0.9175741590845945, 1.9835184610913248, 2.4943648708848705, -1.4387183002674366, -2.1593040741803327, 0.7237546658319012, -1.4464827544009937, 1.2242423220406096], "runningVar": [0.9631586793602188, 1.6718980019923242, 1.8192551706883182, 4.533327487422755, 1.3457139629372177, 2.4527008640795933, 2.2290102472719155, 0.911809151987562, 1.4963286647583145, 1.9926453666611843, 1.535880477254924, 1.6007353516916567, 0.4307045046494159, 2.457437973606919, 0.7356508785676943, 2.656544027613995, 1.5094683839545309, 2.2843078835074584, 2.331694754321534, 1.1800415875513164, 1.143928077263918, 3.2018111947521617, 1.0262873782934383, 0.7541988067872142, 1.622608095949887, 2.819323858765358, 1.8176420672842186, 1.436212200892231, 3.7908647476694144, 1.8675427987714353, 1.0342775307997625, 2.9325715311724765, 1.3898635991091055, 1.621644769143375, 2.2644600830652823, 0.3975975122254429, 1.687804496227856, 0.634827881348164, 0.931079721949521, 1.2313472865117734, 1.2276009783061719, 2.6271430127168736, 1.5950398357130595, 2.024134005988296, 1.2566536649065598, 0.8925146589085653, 0.644840670635039, 2.408112488842302, 0.6810477990692247, 0.660601571988271, 0.9344329715051327, 3.062302981104389, 0.41236291001303105, 2.5794526014162744, 0.7506651436024959, 1.590226936434766, 0.23230692099658354, 3.1729039233589345, 1.3341831548146312, 0.6652783655203806, 0.9369046753420891, 0.9387709971301852, 0.459592125563124, 2.2759098678786565, 1.2332499483874289, 1.8765432617951152, 0.40210576686214017, 1.3306571891221872, 1.267800868601809, 1.1400262777913426, 1.5629653596227302, 0.5282780637965814, 0.8016108079930256, 0.7528638899001864, 1.4021626468522144, 0.3021271771512091, 0.819534271562714, 2.65234745665246, 1.867679866292126, 0.4409986325981424, 1.9671243293827523, 2.0891376862420366, 2.7889803867755125, 2.8075085841382004, 1.898416038446654, 0.9434048938389465, 2.740060059663176, 1.9210193728036322, 0.2835083804143123, 2.774010734277133, 4.349655517331184, 1.1829168463757458, 0.6870385659891195, 1.9160052588625733, 2.233304358502724, 1.2258862927551006, 2.7687580704867383, 1.0571386773969713, 1.424903713109817, 1.376237732981357], "eps": 1e-05}, {"type": "tanh"}, {"type": "linear", "weight": [[-0.033005503816483255, -0.08741236903570673, -0.06084963118133898, 0.08388326543291194, 0.06943095747128997, -0.042010378060699405, 0.05884559259546625, 0.003951816994663182, -0.022138808900226705, 0.11825664810777876, 0.04578082889218783, -0.1330816217196073, -0.028972614186639857, -0.02158498669178139, -0.18129065439471262, 0.08527993807029292, -0.037466623475433794, 0.01885983803803403, -0.16142718135723244, 0.033024614853466604, -0.0140429489970169, -0.03773998495087385, -0.005779808660080304, 0.10667095253375129, 0.0001899470436620268, -0.02672095335642532, -0.11434637975936979, 0.00075780037593912, 0.0731835780492329, 0.061744260676345815, -0.04194164831547738, -0.04815724054583011, 0.043922698563469885, 0.05828875368957591, -0.05010728602277365, 0.05229543821773388, -0.019555681190027867, -0.03049243086237751, 0.0812103469763046, 0.05108351808801562, -0.10188655847553038, 0.12487060561711708, 0.006273898915250906, 0.12650314908735713, -0.061548252552153626, 0.10516707620729805, 0.03120182646826186, -0.0457669791640296, -0.19416190547498174, -0.015762992242825794, 0.055732035167008455, -0.05088679070176468, -0.0789156311357966, -0.03512725798336137, 0.012566831355328474, 0.028672004534196306, 0.04814294542835815, 0.06130751198458009, -0.05544048609833991, 0.034128372938640586, 0.02769356022355243, -0.09011535959388675, 0.055568327105418265, 0.10025214575799045, 0.009543712121151798, -0.1118173436091943, -0.02415515903951235, -0.00061689971035708, 0.020535208100798147, 0.021282415434640708, -0.08314852242321584, 0.05569417939622342, 0.08592494506151667, -0.008100475534909803, 0.08781692577339008, 0.00733590726610647, 0.08563208523614077, -0.008691196998630031, -0.04964353001233454, -0.03960993925099308, -0.023700275141773947, 0.03632891290720912, -0.03786168940394995, 0.015058419000610829, 0.03940649065005863, 0.12530509201796292, -0.004914927496333042, 0.04910641070246612, 0.06206201820103868, 0.04788889361961693, -0.09632612702562425, -0.02787886071794207, -0.005612775574592301, 0.014404251637834336, -0.025659678588582664, 0.03842758197099536, -0.052077642600783146, 0.13782716296992933, 0.12147800988376027, 0.01887427113164396], [0.03343058748441134, -0.022622014949011345, -0.03353908577943797, 0.007741237113679027, 0.015034787359381973, 0.06296966156478201, 0.05969574649334588, 0.034133324918534304, -0.005720719032481141, 0.11055396603743352, 0.03973848082052214, -0.06669184444974502, -0.06837418255053586, 0.0005502847970759497, -0.014087990981110349, 0.022965273172738856, -0.0012417867525328864, -0.028637661432234205, -0.02190901729179266, 0.05630497866939307, -0.0494000260236463, -0.0047124894899830475, -0.06977635366022747, 0.01345184908871948, 0.05743308374944519, 0.0180454943059785, 0.015051986391199628, -0.06014343771242549, 0.02181506087835409, 0.019149972323496432, -0.05821678844816662, 0.031074902308931385, -0.09910128252437336, -0.0389990136768769, -0.1392885506513957, -0.031035010036168282, 0.05469619108379214, -0.016129665185142802, 0.010884321848798156, 0.020259439830892803, -0.016182099259721635, -0.07923718487451695, -0.011937515607934915, -0.017853278695017377, 0.07479131442404155, -0.059529965209499755, 0.04186748491063109, 0.14123253402050226, 0.005745195991896452, -0.00018816854630567938, -0.04673044350549256, 0.06357706285758782, 0.04858951147939704, 0.03820818055354061, 0.11232421387813707, 0.06488474124808315, 0.010548677133871323, -0.05800528308106333, 0.00714915381966649, -0.02925438821040161, -0.015615557627715475, -0.031085371976362502, -0.04210597078625435, 0.019427153645632765, -0.06485386854971302, -0.021048694041332458, -0.08026980831858019, -0.08166831617452903, -0.051540659842670235, -0.04625783600251241, -0.13699451386894507, 0.14274269116265834, -0.11944833924054792, 0.13545744016625158, 0.04676345671794209, 0.03650356223077533, -0.03752226430551161, -0.00947498059644008, -0.11356401191736797, -0.03208055682584538, 0.2288187511018886, -0.12261117844868062, -0.09388537858433207, 0.06158040945759964, 0.04051751877941424, 0.021437923456254906, -0.07528820020732852, -0.029230907281430445, -0.07746542753275784, -0.02526172880541023, 0.01931683099503736, 0.14373315454377272, 0.02162291456974651, -0.09101178057223404, -0.028782184454274204, -0.05820891675358072, 0.11350110301944813, -0.05255990469309205, 0.10720601034190008, 0.17670257472345907], [-0.0002562332874087593, 0.09235769035177625, -0.03936347342112233, -0.05519909555374521, 0.003614541264907213, 0.04569443537543203, -0.05462402532537988, 0.02312396658585751, -0.03805765123607483, -0.04600403966514226, -0.008262077381008367, 0.04684837680803118, 0.03739689156404203, -0.030492204277722222, -0.016619202169418923, -0.08703386292874427, 0.15937988451170138, 0.04058096669406361, 0.05118625358340432, 0.02252954292616071, -0.004811311692489794, -0.018792720102167083, -0.08230085625126662, -0.08191594636475909, 0.028749760495000234, 0.01960614657646549, 0.08205180502231937, -0.09421268943618177, -0.13865485712739822, 0.03873163819705561, -0.06505915224555105, 0.024961244001539803, 0.07866837577617822, 0.013160285791597356, 0.07441376053362883, 0.01752637918265535, 0.025323195199504808, 0.055366881963185684, 0.0135034392563139, -0.01157234784332352, -0.015287174252873341, -0.05172953556736093, -0.18153804791696615, -0.08911507525329124, -0.0029616355745473535, 0.024410272329971477, -0.09787565045375266, -0.04696312771918947, -0.130247603548948, -0.11395865263914168, -0.006144935159372973, 0.012052088674997493, -0.028944410052823583, 0.02719626412512708, -0.03875776331076966, 0.0717631062937249, -0.005824408617932957, 0.025237365606261178, -0.022356911701061355, 0.10010161597057028, -0.029065036281949886, 0.10229173947514276, -0.09512575448763369, 0.025344332357931598, -0.008373902285322098, -0.02426059707132519, -0.0663434740261806, -0.011866972687381556, -0.07936161266652446, -0.04069726068971494, 0.14814142847812306, 0.0044413445330043645, 0.0361758827303242, -0.0197940986907033, -0.11555628055854658, -0.03221320734857783, -0.020155764399496737, 0.0365806505486592, -0.05796574118270192, -0.1272449163490386, 0.022298297644928338, -0.02112271161027657, 0.022945895713535013, 0.011407363173173427, -0.048024600294550294, 0.0006110012808556462, 0.08227212834177754, 0.006645445929395339, -0.1706826501856301, 0.0002530039941920477, -0.03809824667139804, -0.014197348540398155, -0.06983777016064945, -0.013378608919826694, 0.038439210572337165, 0.016598666075246914, -0.012248607910274222, 0.022328845673583377, -0.027333180963120415, -0.07491282320438528], [-0.18443745500363987, -0.11659142914062139, -0.020725682177972354, 0.15765921557990942, 0.02729682839285317, -0.0040682923093597915, -0.11297947755482292, -0.14957526666375204, -0.09644304477901075, -0.0006676149708179017, -0.019683693522529067, 0.015060080887673105, -0.06986786968169978, -0.024845715636988196, -0.05048961282744261, -0.05349110326668739, -0.05651068611260736, 0.02695350833315592, 0.05348850552212161, -0.027484474241407226, -0.07781734210277025, -0.06597649990734095, -0.10574414996956552, 0.10671446323951483, 0.058690136505177445, -0.01694576899207129, 0.007364774518833187, 0.03745137383335256, 0.06687735388654341, -0.20568442009155896, 0.012913531177470312, -0.0935711999660577, 0.08467698191375186, -0.02075404218919038, -0.057294235243849065, 0.054602252944138084, 0.024998764200385493, 0.050935494958288065, -0.019828275825832402, -0.02277226184896805, 0.013454512542348116, 0.06803370711742011, 0.13495751490194227, 0.0839219397190977, -0.01434552531751852, 0.117868931277185, -0.010069200979526238, 0.01717068877565883, 0.012144209325007567, 0.0029577272688968456, -0.07002194910439866, -0.0454872873330416, 0.00980106282135964, -0.05980259518399403, 0.036568628696534815, -0.014003028168431287, -0.018004435807826707, -0.020822077219854514, -0.09807684271258954, 0.03529298630492383, 0.05276261252378151, 0.03096832275809215, 0.05647126741741015, 0.015426535168145546, -0.02917476024668116, 0.03349750233319418, 0.0678913549413792, 0.03074654819544064, 0.09916766695512895, -0.09095793560161053, -0.024805537813031606, 0.020986486311715014, 0.06485773740174561, 0.1433879543659089, -0.010244764407354, -0.004453102660209157, -0.003785730374355741, -0.08634488248332868, -0.009813579615859134, -0.08914055098293645, 0.12134952686208667, 0.05346596659815158, -0.08572579565402202, 0.09960780287985234, 0.0014920960600908796, 0.0760334959287136, 0.03427398488796513, 0.08300136023476519, -0.052882624615146166, -0.10672408079422394, 0.004295764033556311, -0.004368805831740585, -0.0274141937525944, 0.12038778895688902, 0.015621925934811024, 0.0021160776084982198, 0.15691346790308727, -0.07294701712397218, 0.01852031744535626, -0.04153610449834863], [0.018063169837111474, -0.03661419982823, 0.06673709669715137, -0.025708529802057508, -0.08291682380141084, -0.07707131885136008, -0.14199842215248665, 0.048842018035462176, -0.030054472577082266, 0.03507508841620887, 0.022382128163663303, -0.015483489449603401, -0.08339279288468195, 0.03238585642618776, -0.13315669306945754, 0.11163227885206752, -0.05006869296559477, -0.08250245957891027, 0.0888395920470364, -0.0851961348086417, -0.030105757137357633, 0.07798063437639494, -0.008066030549128987, 0.032137659960646756, 0.11146050803698693, 0.006822926803542198, 0.027286926810849398, -0.10287065787465387, 0.007989726598299697, 0.019453313249145582, -0.04822520882939753, -0.001777344710720995, -0.07711473260179381, -0.037278728625441605, -0.0460491403419548, -0.05400337347652818, 0.06667908830941266, 0.011402002689669321, -0.057620916696897034, -0.0434922699857191, 0.08185275331589575, 0.07234084084227879, 0.02053970080329284, -0.07336141287492351, -0.06372231668087217, 0.014228894678903179, 0.12260760747674869, 0.0861922795003594, 0.07144808638882857, 0.02972181846517403, -0.0035020209899721735, -0.021374656510758275, 0.07402891177852017, -0.08844742129775976, 0.02175956711891511, -0.08317373075450006, 0.01788293952660272, 0.010234360215095115, 0.0008302693325799817, -0.018201918783086215, -0.00753251982729225, -0.07521493671328534, -0.045785205327564506, -0.053559427711837554, 0.08902167834992429, 0.001152919498859535, -0.025994951611683567, 0.04395714092390897, -0.03291836657883139, 0.04000425343285149, 0.1917947686891456, 0.04697900917224479, 0.09909259707774776, 0.035808709298755195, 0.02672218479823612, 0.142457797532809, -0.040906854073901995, -0.1495832479514128, 0.04970437214159226, -0.025116353745009663, -0.047893629284443615, 0.045596802055026246, -0.07201880298331115, 0.0934942431418803, -0.029473758894712387, 0.07838304159164698, -0.02602787427743702, 0.045872840711722714, 0.03852982777563514, -0.07061697199621286, -0.024922768854394307, -0.049966541286355595, 0.05123158842031224, 0.030024408444517956, 0.04159268883125055, 0.03669908904192924, 0.01623524217708209, -0.09087256978050268, 0.06913230768984112, -0.14479157666180079], [-0.01717138442352277, 0.04683815673464951, 0.003918786026137188, 0.06186637620332574, 0.08476832794073168, 0.014634156611713127, -0.04190254994861835, 0.05859501193334955, -0.1125813674396542, -0.08254801645054975, 0.01404715908344231, -0.004030476756507037, 0.015406328599551121, 0.16103803001004868, -0.11391399735101729, 0.06156600375359707, -0.01999827526689543, -0.16462389619088794, 0.0031284222144442935, 0.09910273858777345, -0.047130091724037496, 0.07497324807686577, 0.0663050166060585, -0.0012450855471636776, 0.041972327860626144, -0.007027810830652232, 0.09029987130973728, -0.0057245888125655306, 0.12224852401990459, 0.0014255509483401296, -0.08777199671877176, -0.05337249793730474, 0.0405162214655635, 0.08029577959148877, 0.01929245428079637, -0.007369818298004782, 0.059796712313895245, 0.03781928527241024, 0.06434036134874792, 0.07182680927440675, 0.02634786488985626, 0.037266064407776744, -0.0954764181151164, 0.12304907952173262, -0.07844770178537996, 0.05042300370304316, 0.11918561570821404, -0.025844941846093154, -0.07503034458160059, -0.021890358839657526, -0.010023265086162648, 0.07976882326707846, -0.05528379261406406, 0.019994140529822013, -0.09503971789217626, 0.004603874831583986, -0.07015417333051294, -0.025962936808156246, -0.11647811228788595, -0.035595677436260444, -0.03109475437150036, -0.0388858008570179, -0.021800601556669925, -0.09385268391219678, -0.0008603309337397067, -0.046195831100083136, -0.11182438237829902, -0.05801058510045859, -0.004421453113007715, 0.22039623685799473, -0.009487697216913196, 0.054015448079620304, 0.029061560315601472, -0.05441848553100888, -0.016616852643540098, -0.08910759095334561, 0.00881129578287028, 0.08310308505710745, -0.0033304538726935365, -0.035470262750227924, -0.07879436637211348, -0.020189155809695478, -0.018568057546076072, -0.03958402979060091, 0.02314194265861701, -0.011643855361558389, 0.008009235608779322, -0.019785588761219258, -0.004651651785288639, -0.0719981949356354, 0.09423248490469492, 0.13422360461652255, -0.15851240023514793, 0.03208299222658708, 0.04655450026324373, -0.04460439070262713, -0.19923952780194204, 0.07552762135134991, 0.05971610156963454, -0.003414859455385984], [-0.02681460690691642, 0.07356181025958763, -0.019334460228552473, 0.0696351711408848, -0.011484896064635557, -0.02147622618292036, 0.022834547495861342, 0.26119582023541793, -0.02568560721521004, -0.07425226327827576, -0.11036678792250995, 0.006792838235183811, 0.04347979634857414, 0.01790400369604957, 0.02326396490868998, 0.06199423672989423, -0.016860450513161734, 0.052262915569589945, -0.06382639933450697, 0.02655520654055857, 0.06418276997422472, -0.14384752843192644, 0.02017194969597152, -0.01746650774702824, 0.12488465899867826, 0.0043816282752274964, 0.015291579056427817, 0.1569516673961941, -0.028288866461862405, 0.13585200603896527, -0.034570010992755085, -0.0020216363300736523, 0.006772566993803984, 0.039487582507892596, 0.07564449514807148, -0.17892497831605408, -0.19796570364508037, 0.04247915108840024, 0.03540689642752824, -0.06620174285224195, 0.004521279409550392, -0.01684391730922176, 0.017447816081670984, 0.07361735043689684, -0.10308040212451255, 0.05225502893363871, -0.0025616192322594914, -0.08915591618026761, -0.008766911565608227, 0.038523025288756514, 0.0030088187519561787, -0.04317020644728321, -0.06924790924947499, 0.006823487725395536, -0.11970755137904412, 0.031469420599604135, 0.07012763000405237, 0.018272466500827297, -0.009278712706861477, -0.10302394027181555, 0.063172188368973, 0.062515397084135, -0.039825122218605714, 0.00896472571176481, 0.0053147692234078725, -0.05865703704659594, 0.00641181279583846, 0.10967996834385298, 0.007057189418469237, -0.019387736735892377, 0.09744228066688643, 0.010574785264979483, -0.1461326102282389, -0.08561897517794724, -0.0243198325993221, 0.01628456621136297, -0.05048744749090866, 0.001631955671187314, 0.05538185860450932, -0.1243871131358049, -0.09934315678495131, -0.019444102303936332, -0.06100519112600662, 0.015418524428447886, 0.06485854604401696, 0.06325207254035642, -0.06719059083015688, -0.032830788036604004, 0.06517124946625062, -0.07405240419187524, 0.004591154273963593, 0.030087235214734706, -0.0834161594267202, 0.06565157772748746, -0.06973356368658283, -0.04254222753376143, 0.06663727584614118, 0.03826111331306228, 0.188258640028923, -0.05677421995194939], [0.03461420824865849, -0.177223167945146, 0.02241821943454413, 0.07120706876743856, -0.04841871979671359, 0.09396003516380036, 0.04178950207910739, 0.005664088941863406, 0.049100323381637896, -0.057654933393700265, 0.046780553580757056, -0.03884584614936251, 0.14615101595545782, -0.01597753407225575, 0.05818327491564579, 0.037458354823355376, -0.020196265942248087, 0.01209319424904744, -0.031969279602724214, 0.1399124359194781, -0.038316251766595505, -0.013605966370478319, 0.07590642589245919, 0.05569545969425375, -0.02437592272293165, -0.0015764388130281339, -0.0015065021257352237, -0.02269363572583391, -0.013862762514759779, 0.048132186214399915, -0.0620864046154043, 0.05747794152057649, -0.10392566230835053, -0.0037379362240687703, 0.04353208096694358, -0.07256213538149682, 0.06744253115079055, -0.15927463005329148, 0.01460076883286204, -0.14246947887688843, 0.10106756486873349, 0.1152408661433722, 0.050041075037356865, 0.062266946916309254, -0.010419914668795374, 0.06327742497353057, -0.09206684170017997, 0.008691618124803666, -0.22701374615092937, 0.025211943558148667, 0.08157484938167964, -0.008451956868919827, -0.02956820187465299, 0.0848906734971704, -0.05181723110352819, -0.022227229947434975, 0.06513983587539762, -0.03601334471765998, 0.02836638872680247, 0.09655959908398347, -0.055502117509261185, 0.11457747361157222, -0.10760732979015324, -0.04191725209537672, 0.03985072703531528, 0.04068082565045355, -0.020679972214274953, 0.10102291869330163, 0.0088841086590376, -0.051550707032099706, -0.11205768072345247, 0.11188673359944054, 0.09577813527422396, 0.10829069755761223, 0.08809264120559941, -0.0793144442872691, -0.06201034597357176, 0.05186851849062592, 0.08526391621022383, 0.007921319204908335, -0.07861981135263443, 0.06573278450373017, 0.09012051547416393, -0.04028244538245421, 0.050889633986783506, 0.04127221738177419, -0.04173669101235475, 0.05582369297766138, -0.07438170369137241, 0.00309972446649443, 0.1098080822608922, 0.021164561341989654, -0.02720149297473034, -0.020797082158199514, -0.04659861337077686, 0.024086008677549356, -0.04232204754611268, 0.01679578776853193, -0.10096153803030859, -0.08384346436810264], [-0.01563326379654612, 0.0009756924080854986, -0.033405383212084236, -0.11443384505603793, -0.08393870173254703, -0.07897816248517824, -0.04311541083687932, -0.07543030486284034, 0.05280818765311292, 0.10462742955353155, -0.03968125604467485, -0.01148610190559334, -0.02162993868303176, 0.051569124844904723, 0.020713432481078306, 0.032735907876193786, 0.09253281221824079, -0.06634921821724409, 0.05271619004214222, 0.05400579569984641, -0.058574805488250725, -0.12653727129080833, 0.021631689881720654, -0.016815707870315274, -0.01732229503067552, 0.015212509768705995, 0.08232312049357274, -0.011389819339069662, -0.0434655550964192, -0.08123360120345431, -0.027285162862764105, -0.05059110059195294, 0.005240315129112181, 0.012929472180971529, 0.11373820295332294, -0.05848284417958025, -0.058332756547370745, 0.0835488850892047, 0.009961465317363812, 0.01327714150666731, 0.04074162445018512, 0.0055142708673041, 0.010252018172599284, 0.11114174485490837, 0.02221014188488466, -0.06356361200806492, 0.008158461886778823, -0.13508036866542375, -0.0027137349214748393, -0.06481643850779631, -0.010601954822615469, -0.19225881210289406, -0.08342510781947632, 0.13509057454598983, -0.17612699509458304, 0.03423024042504155, 0.02840182896134428, 0.02084700511041861, -0.017245635378323815, -0.002763301395956833, 0.0037199371138344397, -0.01727458877482669, -0.013981618282298621, 0.055143774593807524, -0.06526783294273851, 0.11484384565027174, -0.18395417804710584, -0.1522301406225954, -0.022104225238815802, 0.06403327031408917, -0.13538075755021287, -0.12174854594923096, 0.050083280095618125, -0.08339670914961417, -0.01782334212091003, -0.036349435311675095, 0.13518790770892147, 0.15010376980053636, -0.003465864413573785, 0.05226272546602058, -0.15975223815620365, 0.01965490274925676, 0.1293858001672036, 0.041387417690781164, 0.05548178992008203, 0.06596766774430761, -0.20040610489525398, 0.040703358120917986, -0.00506828918656215, 0.10775147948444243, 0.0537867700725841, 0.06888376814460562, -0.09119743508308097, 0.05394440032413311, 0.0034349121846908312, -0.10483874472665537, 0.02350624098283009, 0.09507084815583196, -0.13092247649057082, -0.14171817193604533], [0.10147487997719473, -0.005409964420121544, 0.012195982740319548, 0.0707336678841172, 0.03947985896450406, -0.11083718204781724, 0.10677492559540758, -0.04769665012357415, 0.140920412413395, 0.08491486902423943, 0.014556367125489505, -0.10305280720811635, -0.004740649395203467, 0.014642631899467465, -0.12151026335543524, -0.05496981215881141, -0.08890961506807585, 0.12098482356259863, -0.06626433782020615, -0.07163002398261106, 0.04197981478384276, 0.08471189879436081, 0.049566610496471764, -0.001971807342753122, -0.01444101514409695, 0.08304155350898924, -0.011322204359994929, 0.10597625221181296, 0.10786848216163007, -0.09720870458002048, 0.09357852487266599, 0.12353980325887526, 0.005990879228358768, -0.09077326105915108, -0.1313268512930852, -0.06548145484566081, 0.061633686491234525, -0.02701691808389352, -0.02510919479090033, 0.03457358892214517, -0.10413292921688017, -0.047528061057953576, 0.04928190319127165, 0.0171534575351086, 0.14190185505156927, -0.06793456945053082, -0.004172202857388107, 0.04204945190158327, 0.02895965971507825, 0.06249391382034387, -0.09165216420558565, 0.01233487495874275, 0.09843392802494148, -0.011271499577697004, 0.01689658690874212, 0.00992677850465789, -0.027440568992055204, -0.013384105617380387, 0.05355688255290292, 0.020085223682024856, -0.0341058908163714, -0.0773588373720853, -0.06654829304253235, 0.001177704061993312, 0.003482613042086864, 0.04126028761516653, -0.03102399145668787, -0.03644252080508393, 0.22049487726480113, -0.03440758682337445, -0.03492272672842257, 0.012354943046695297, -0.07834213739931165, -0.12413984884325348, -0.031402891927864274, -0.040922789312293234, -0.005410369702095277, 0.03524166018203136, -0.12250192993630293, -0.06018969818611599, -0.029333047777599316, -0.17921523671457298, 0.010532520808669931, 0.00103483756616046, -0.03578683639636589, 0.0053574859487053985, -0.0009072599569051177, 0.02416015520549191, 0.018498722862432676, -0.1468625886741121, 0.1008632002658839, -0.0596871331771971, 0.09756863949973087, -0.03817569590797509, 0.050395667054471294, -0.04485409742487016, 0.07520526241721825, -0.08888420586384478, 0.04179459328611771, 0.10656769896905004], [-0.0086344053981599, -0.03409612295080544, 0.1434721896321791, 0.06327690270670726, 0.027138763584059783, -0.006402691674548369, 0.04735971553008352, -0.022809826619584958, 0.03662415809704451, 0.09822297084464855, -0.043474489361524885, -0.05467006885655908, -0.06987045406015763, -0.13838139153397322, -0.0533824675046087, 0.034526644176144074, -0.037584077406814805, 0.058562538879291574, 0.07018092646550488, 0.024483998720066787, -0.05649189330282537, 0.04009096804402419, -0.021705791015604766, 0.05388490585421348, 0.010878687294252481, -0.10087372229868101, -0.03354693045797301, -0.048040897438551645, 0.04540271184368705, -0.060091726490917936, -0.04674714924529727, 0.04522712120680698, 0.04321303118571258, 0.12438930620157342, -0.013704762299656073, 0.04024303694826683, 0.06119199740281135, -0.0019775826027213987, -0.06475401787419889, -0.08952267806426323, 0.09023666612776952, 0.059866440574411685, -0.03681128327415452, -0.02579476155186031, 0.11139897742251406, -0.06950300469134371, 0.05854142348837465, 0.17307802846621725, 0.05410252223337435, -0.056228739808191354, 0.13992343808211796, -0.056134739172705964, 0.004669447618563466, 0.02979495597491902, 0.04515847896206493, -0.025145427913952148, -0.020578475260011365, -0.012344079546527666, 0.037083637816137535, -0.024257856718111395, 0.09989923976596851, -0.021967149606870823, -0.03535985714345492, 0.006588841582080798, 0.004753789628441405, -0.05792369047964981, 0.020813792234539753, 0.027986051325228314, -0.00366833970949384, -0.03130828807431864, 0.00933275207139937, 0.09411926909677225, -0.09879603948558949, 0.013028554381568358, 0.08298241035100708, 0.013950491921685291, 0.015396080669881613, -0.01998680621230148, 0.08860922836849523, -0.01837396445191684, 0.08339097414994999, -0.0539492118728426, 0.041104229878801246, -0.19859461855651633, -0.08465491705268684, 0.10156037056145188, 0.04310299821652397, 0.0474620615710766, -0.10155306629614412, 0.06288962961617088, -0.058982677185401323, -0.050636375007434876, 0.018136761862532495, 0.0014254259672100292, 0.046908649125416306, 0.03116377680492625, 0.059148136563328436, -0.03673387238476716, 0.01614630526150096, 0.06038121189418646], [0.013825053234973813, -0.049561164614151235, -0.028170954176225053, 0.09446248593593512, 0.08969151323023312, -0.013772854130152218, 0.094032983026923, -0.1041862669403302, 0.15078155445846728, 0.033126507780263645, 0.06296428555226817, 0.02158436204606788, -0.06798559908647991, -0.005052582580710283, -0.13502616986076296, -0.03616795692347745, -0.032620133298046944, 0.08058661620923756, 0.06589738623055201, -0.07914064761394954, -0.0596578752056221, -0.10133296481595407, 0.07191210243949503, 0.07114499967343618, -0.0002959026190192209, -0.07913739033203389, 0.06655491709402854, 0.03190459300908502, 0.01181081777006158, -0.07910107496708138, -0.12052651898460791, -0.003043781566467513, 0.08632725347826369, -0.08214879960414158, -0.04128157809092903, 0.01781654668503759, 0.1483254020799009, -0.022866218738656328, 0.05205289854577443, 0.06385694363752714, -0.035858111377778626, 0.0060739128156015836, 0.027093083898681234, -0.08150902341828242, 0.1080716240352783, -0.046795109228528774, 0.10082180576732738, 0.005114603574172898, 0.11082944233320931, 0.1205009281294459, 0.03676674936847345, 0.09647804795124812, 0.05098422557909923, 0.09969953855910488, -0.01566055550870342, 0.04551148365979308, 0.1283989709678846, 0.0417735830068425, -0.05521669886495872, -0.1275188645077031, 0.03191545423853307, -0.06518691321077291, -0.025339699797801207, -0.02175516241998946, -0.08851473642272484, -0.13589748206445032, -0.01236390594858193, 0.01040626990002268, 0.009555201580712186, 0.047244196167889975, 0.10184115528601975, 0.028958776320917562, -0.19331579492574827, 0.07742782564117699, 0.022569380965487145, -0.05342259590021242, 0.00779267836160255, -0.03378823746612575, 0.20905795059779703, -0.027019007673305864, -0.018401138960925482, -0.06107718643197541, 0.04006763930938527, -0.03665980629062132, -0.01063948497299683, 0.0037154834734777977, -0.05280265892314619, 0.08131115949193304, -0.021899746212228295, -0.028746640178340322, -0.059485870095247424, -0.13499327446446524, 0.11067018397812518, 0.021806087158569035, -0.07084346771092011, -0.11393620996243961, 0.09490136763106886, -0.00306263597516472, 0.05844020548970094, -0.01739964526160513], [-0.12409002935667156, 0.03153518741111219, -0.09790369872616775, -0.08500746411600463, 0.055838862119223155, 0.027817615145506756, -0.08903673404791822, -0.025504646114740518, 0.017204429688007006, -0.03532553928077018, -0.004636413970969353, 0.05767169606221745, -0.06665143834967623, 0.0767547594302147, -0.03562980878547295, 0.024611106285754542, -0.030822283017207335, -0.05080473037369457, -0.07355462511193514, 0.019978960065684236, -0.05281048177899533, -0.09732148000524746, 0.06854609016145653, 0.07016105547052433, -0.20073456451506544, 0.035593323391729235, -0.03290505367803654, -0.021450007958452193, -0.021523738459464717, 0.03941147011149839, -0.018993731039239365, -0.016548683520441615, 0.08177720899329861, -0.09202705817629521, 0.017077682160952352, 0.005414429752812446, -0.12850931428784393, -0.005663421593978531, -0.05141861961479458, -0.04395747441858662, 0.00047647722801668675, 0.09630590189259965, -0.013327988104857715, -0.03754091264082629, 0.03799241051730297, 0.05003577533828542, -0.010119613359217147, 0.06449417253340292, 0.015418600817224765, -0.04703343316087172, -0.05104245201826152, -0.051924671086261434, 0.02987227889679965, -0.040267907727234965, -0.02216800004113685, 0.004254664709790566, -0.01707637279031748, 0.011793376595367128, 0.011683442366988747, 0.01232562457794891, 0.12137732435656369, 0.14812463334805745, -0.12486438923796699, -0.0104414624501712, -0.04972344662111784, 0.07534095175119955, -0.11373419695925974, 0.03866379352565911, -0.004034208348033452, 0.03010332902849157, -0.07006325948875756, -0.060165830600185544, -0.0335898544453341, 0.07788684440987904, 0.10570676430204352, -0.1393903941767841, 0.11912392897620719, 0.007594211840250174, -0.02487367655985601, 0.008061168739333232, -0.1977323750821402, -0.011665332256832065, 0.0068829397033128535, 0.08683366891239439, 0.039497096739151354, 0.12766976700010058, 0.0799949459892164, -0.00623035020467971, 0.11862875103119248, 0.07053666340357584, 0.0030444781071336208, -0.050838691249167754, -0.02109525417755384, -0.02040978602827381, 0.002287865025479974, 0.1083876177034218, 0.022065751092044214, -0.14712585425804411, -0.12841015894435354, -0.03212908037944016], [0.04333334328315386, 0.04691742525736673, 0.02416703647232683, -0.10257181108242969, -0.01726918313103566, -0.0366703539610222, 0.06297792513244124, 0.033270364484051976, 0.0009004238974755201, -0.05499848180757925, 0.058229913738849615, 0.04854894544574157, 0.1413104146579992, 0.08669319477129898, -0.0010861628769462694, 0.09873496331874948, 0.0449329587002574, -0.0100374082182371, -0.1281384338098063, -0.013747330500015288, 0.04249077789821574, -0.004655357594383204, 0.006471867600909617, 0.00220770541909278, -0.009954791263581262, 0.0671791476412173, 0.1273573487525265, 0.08158361830155735, 0.050886465217738736, 0.1793989503535118, -0.059461515575166324, 0.054857342084166816, -0.04712976598816942, 0.03073109712506165, 0.1106260697538345, -0.139559570220822, -0.013686474451613254, 0.004067143987879809, 0.059644744756253865, -0.13958640882240517, 0.03193365378874384, 0.054096062638147306, -0.07223026180165341, 0.04411552270869846, -0.004166552870455817, -0.023175171863334548, 0.038394258223347445, 0.001301767279848014, 0.024170225778263693, 0.08437418584716612, 0.03576112997166698, -0.1355624023514781, -0.06626114437029779, -0.02885163572668838, -0.01673627787509756, 0.011719283529491661, -0.018136730842025297, -0.02633939103800687, 0.02381266982980094, -0.08636942534735158, -0.09085820150937547, 0.10383588758462967, 0.023003345823808585, -0.0515975088343089, -0.000839271552948259, -0.1792433412790905, 0.06854782879630159, 0.008316767209513342, 0.02552566675174617, 0.07054907869832885, -0.022478285008414763, -0.17161296440139448, 0.05250854160564345, -0.05602455737161853, 0.005429218668465456, -0.09598316467576126, -0.04218841112213369, -0.033078520947309155, -0.17670133949182096, 0.06920804470452299, 0.051905395125450574, 0.02512297145313101, 0.06124322603851569, 0.01936169868588976, -0.009883038023356192, -0.011030674581235186, -0.09550914620972083, -0.050300977182987885, -0.07912342432365226, 0.06233396705874413, 0.07350732535651792, -0.030379421338637545, -0.054980337220095744, -0.10195929374867412, 0.020079884578789547, 0.10447242446926068, -0.0458288533260859, -0.017972761568137617, 0.12518441633533012, 0.07654068079078968], [0.0755535764281307, -0.05391159608519143, -0.08262009965864969, 0.0475169970531389, -0.0686319291619668, 0.11157113569209112, -0.0566378558159727, 0.07691296015944943, 0.029233877667466796, -0.08135229886987139, -0.116521534640438, -0.05820043501594382, -0.020693187125258035, 0.08537683776792301, -0.0117686930458862, 0.058711295911918454, 0.03072990661930658, -0.11189015392612627, 0.08942439416421913, -0.028449382784707145, 0.07144079387830482, -0.019552764075408693, 0.011025618812204492, 0.14785217607156687, -0.08751980469269341, -0.17177541621141812, 0.1595653799171976, -0.09064616933255892, 0.05768735810906458, -0.026894134711891296, 0.061294478228315005, -0.03983041551309779, 0.04409512501732142, -0.11920819892300469, 0.03558428907738576, 0.05025464605074705, -0.1366731445925095, -0.07072351549377055, 0.050367903660132635, -0.10029500777681098, -0.01727561158857406, -0.05782776359393503, -0.10303544943960191, -0.040008277258445385, 0.06946420738356074, -0.007257140720350907, 0.002701606333502075, -0.02476230764338299, 0.036943652524579214, -0.02301634107891032, -0.03151759172507535, -0.027014960605201217, -0.0713584129493459, 0.03135008875853606, 0.048965220478732266, -0.05682271393561418, -0.04145926582813847, 0.0324567659591939, 0.08210483165891796, 0.11181978886643838, -0.03829144285858564, -0.06570102738734314, -0.02279467103299005, 0.07333763076909264, 0.16637640060008016, 0.10738510403826419, -0.10903803581115183, 0.14660592416007853, -0.026006833431993264, -0.013727215990851662, -0.015894315081556174, 0.024082738793776908, -0.08799292971100738, -0.015572798206854976, 0.06470487410545202, -0.10691292025252147, 0.02620805327581278, 0.02194984889395133, -0.027016960720168768, -0.019482438627300962, -0.09774134132552488, 0.059987142692075515, -0.021720485427764714, 0.002468013015996666, 0.047280860912868025, 0.06709581398174283, -0.09732219883769258, -0.12220906896241583, 0.06547737397069302, 0.05628390040417029, -0.005655065789300844, 0.03714123756049139, -0.10262516534281106, -0.0022143271063326617, -0.08910495397321958, -0.11339939738673226, -0.008183369667676925, -0.05483969823815303, -0.02354517750747313, -0.04220697977795151], [-0.08642803008192346, 0.0644243237826664, 0.11430994434071569, 0.19476758996854418, -0.02213568118798657, 0.009497189864948121, -0.11147371634390668, 0.03974803540399778, 0.04248362548075933, -0.025392938610826584, -0.09880844303171211, -0.09041531334044356, -0.024552456770978098, -0.15925612492801325, 0.007851722416463001, -0.17341323455849442, -0.04115758819543068, 0.03623944290326129, -0.0006157536756431506, -0.0022108017324656884, -0.0763332154820045, 0.04276026469108606, 0.18204774996706147, -0.06748992884115952, -0.005674550383958754, 0.12329320942507874, -0.17590154984490253, 0.017910121805865726, -0.010923726018917624, 0.1192973306617036, 0.006040366546121025, 0.013944499660093075, -0.019257748033442056, -0.060517896946877356, -0.06669979483671887, 0.013422917643479458, 0.03949770196932099, 0.06801843168726779, 0.00961912776642682, 0.010422421495124285, -0.15401186846239212, -0.049621830172427835, -0.04113753410097124, -0.01407458476277315, 0.08069944081026253, -0.15795650770288538, 0.1342262623821899, -0.08373980996014828, -0.03482660058495257, 0.010358677972888714, -0.022909918997233495, 0.0666366162733158, 0.0037964886198566428, 0.0181368847657883, -0.0006332245112411374, -0.03402016775639713, 0.018184154497333085, -0.028284746565144, -0.0267592778914948, -0.12598457438176597, 0.04219032938847099, -0.11426451689483955, 0.09614832918161108, -0.039507600147573825, 0.19424913260558424, -0.08818932182290333, 0.044606362931321364, -0.02561832631503859, 0.08477964372920029, -0.07223032004205006, -0.08178019384530535, 0.0708405018867213, -0.1020645091312535, 0.10191409981496909, 0.03546983380927164, 0.04025464531643558, 0.01606358256028923, -0.09014866924641829, 0.004917257938856503, 0.10393235185488812, 0.06416850757429945, 0.012733337112423315, 0.061154780164458425, -0.02229713038533292, -0.03595050390971144, -0.01138896570079203, 0.10652786237842679, 0.16782108573449464, 0.055409795580739135, 0.05079381619972325, 0.029075391002819247, 0.16184156966209376, -0.06680601210230136, 0.030255485148387534, 0.04215896356178686, -0.059726482111168405, 0.16470781565558681, -0.03763635845525702, -0.03257327140590649, 0.010497661968917072], [0.06941641725520317, 0.01565497889684635, 0.10807397113804837, 0.014516053480934845, -0.26245055896783615, 0.0024078540256244198, 0.0696785934205011, -0.0722539757057405, 0.004649203551961897, -0.026559353040498525, -0.01853121226807519, 0.005887747482959048, -0.014219573520957936, -0.10329180820152088, 0.023009832326870972, -0.006035833459228148, 0.005543272836458588, -0.02827885266984295, -0.053688046886555, -0.0687903499075436, -0.005668906343127229, -0.062018985813359864, 0.04212252815474307, -0.08891091103438721, 0.02506273939497175, 0.14795872269795032, 0.06251159038194519, 0.08067645498053927, 0.0014640675041222547, 0.017262760148758056, 0.02934640545815378, 0.04747674988512785, -0.02066767911694613, 0.018143383952766858, -0.00973081781891525, 0.019958276095546765, 0.0435772119727171, 0.009802709729197471, -0.10553791995824298, -0.041306032078056436, -0.08258151945826377, 0.10072202292134175, -0.026599684299573427, -0.012573897053255713, 0.0900757551676641, 0.02370543934767344, 0.23606676738309965, 0.08370787285086728, 0.03418480842614487, -0.006449064842923648, -0.013042135533088167, 0.15583297396786885, -0.022776540996806777, -0.09480218499154368, 0.07389201950315369, -0.015004962518045568, -0.12194242559653042, -0.04423196623970581, 0.018565384168063005, -0.05744027646012615, 0.005954510049271402, -0.06013641752066211, 0.2298477125560988, 0.013591575874352349, 0.05637896993749852, -0.01261518550377415, -0.028833397997818762, -0.02557819112898189, 0.012487690092561139, -0.009897545076286858, 0.03339738561170497, 0.07812546153681818, 0.029937366210688605, 0.007740617793501924, 0.06859831016419453, 0.05192290311476935, -0.03936492835325885, -0.11080356450500907, 0.009448519283158116, -0.031241301907693274, -0.0283545813670646, -0.01997232544411997, 0.020608370550578754, 0.10443024403447483, 0.05465879293003964, -0.03230035299778474, 0.052437836896342065, 0.02858880767377713, -0.02548705239997608, -0.12202527657941468, -0.012520669191846528, 0.03149806720348412, -0.09907722745257683, 0.0018870173389921177, 0.01611582721672143, -0.01547622094843592, -0.012763052464985493, 0.0413632457585008, 0.05099337227010985, 0.04661071546621039], [-0.037543781804073195, -0.001906784100739208, -0.1271781328048677, -0.11873458550353805, -0.09414178955542889, -0.058116287547777354, 0.0016789373126067208, 0.05699689180538546, 0.007142431738854141, 0.09465922278738924, 0.054407824890153014, 0.07248677661487302, -0.018552186696158875, 0.01792935150394702, -0.01717397106698631, -0.04119763917707677, -0.07955937209623615, -0.04194064421819156, 0.06609121474339365, -0.015011852785649316, -0.09600052406682635, 0.038176485090230215, 0.029521967416264876, 0.1401872000554248, 0.08108372361970832, 0.05646836941369532, -0.06890146741164883, -0.08757867446278007, -0.04112480153579174, -0.11143253361704539, 0.1406706960022275, 0.06107070727413519, -0.08025043946405888, -0.11570226144724066, -0.08404291078575099, -0.004832406066589962, -0.02678560545529717, -0.007603500623485001, -0.08813025334570389, 0.011016778879737427, -0.08124079918258069, -0.058825407729663, -0.0009064200982139611, -0.05606902598333358, 0.06070309124917823, 0.025000846869253784, 0.03391144929521405, 0.016770245533343563, 0.09702125411201676, 0.05380245152507824, 0.18419120260689073, 0.016083037740600176, -0.12819471913111413, 0.03380042134791779, 0.052910855831478414, -0.002943046196955589, 0.05649771165152641, -0.06676199421117755, 0.14061951882024326, 0.02046083164192773, 0.009569276381123861, 0.0180083504944045, 0.05279357224861724, -0.029705794201373214, -0.07763081927231362, -0.06892160793618006, 0.025592390237272965, -0.0845912152025917, 0.2627454475492721, -0.03523032006829165, -0.03464125259260042, 0.2512335105376508, -0.15100571024361142, 0.02952834298361243, -0.027169499772106736, -0.027219660939062404, 0.03286667695904068, -0.13170157104987415, -0.056137825601929404, -0.029111815446665208, 0.09598271506501603, -0.13150624459419133, 0.09026677229669898, -0.006871450037151171, 0.11426740401974975, -0.1826446162785889, 0.11143192278748991, 0.08538837199511908, 0.0032876683026325146, -0.053945476566813366, -0.030745301134399886, 0.05107699076832065, -0.024116425201886258, 0.0700513629914936, 0.07778412773284035, -0.07004819219291165, -0.0329087450360544, 0.06998273922273955, 0.09743657852879617, -0.026045177654764346], [0.005584569960643625, -0.04841361566426136, 0.09295627416082279, -0.005077341211891461, -0.08372026883453552, 0.06706026636972172, -0.028112715560776515, 0.07575587363879926, -0.011956143855587006, -0.07969396557577177, 0.008095882120288013, -0.05200116236739905, -0.011868735987808314, 0.09073197652952522, 0.041697497006735786, 0.005107271165908091, -0.07060995723895057, -0.11049314628593222, 0.056487925326986654, -0.04768170645256661, 0.15761658190364156, 0.03628359285162078, 0.05810234114550857, -0.06697606853094659, -0.03672558650068535, 0.09055586490839822, 0.036312819470692884, 0.06364231338751943, 0.06371998729748214, 0.027553298278617584, 0.07586231323999307, 0.01538953751807356, -0.0017243961522146996, -0.2162391721712031, 0.1124499633976118, 0.0650792430768992, -0.11169206350605489, 0.21605966314073582, -0.046999709029293645, -0.15652429180237853, 0.018042860277001232, -0.0033565018336657346, 0.10509137053443912, 0.10850751500413905, -0.0030902316249010863, 0.05326939257722747, 0.08834137156172779, 0.07442500001923927, -0.05571208375941327, -0.03431738126413074, 0.16817337427844364, -0.030694926915612982, 0.12407325729289001, 0.12059726969559303, 0.03461421288818351, -0.008194116976379845, -0.00927144104972746, 0.04092976826320728, -0.021469509763701593, 0.09213188917570216, -0.01898683303651484, -0.030771928636772243, 0.12212106580969878, -0.06521668286479632, -0.0997354187659097, -0.02794676722272584, -0.06932299962396392, -0.0030623622110684447, -0.09854098815695278, 0.018943609860271944, 0.07113701394378376, -0.10296561571538569, -0.12620865745684753, -0.09870919312884224, 0.11676457331411469, -0.03837172079268463, 0.017618548939262707, 0.0014799545964837846, 0.005379007808311617, 0.10508241936945988, -0.14607378759380388, 0.021106184282149578, -0.08553329526330125, 0.03863059586338711, 0.050252213096676386, -0.036635015196792506, -0.06633864225286829, -0.016253294124655385, -0.17853663192034033, -0.003912773504874491, -0.09985429530383973, 0.02108910740868222, -0.07685619925298295, -0.016931044220702653, 0.04383232005171007, 0.04840255671483716, -0.1555026027408552, 0.048571016983824544, 0.10331935155790668, -0.07318302849869168], [0.0408462563234666, -0.06293406238778664, -0.06814475790536771, -0.06446700584482169, 0.03667626575844355, -0.009994352633708552, 0.0438444652354209, 0.09056635116704559, 0.04738639115586757, 0.032214933457668384, -0.07076066696303829, 0.020186496716144493, -0.11793880775017711, 0.012815998689766286, -0.05190454928328495, -0.04896713327443658, -0.010590247419190211, 0.018661037050912543, -0.004080340991050596, -0.004988759743602802, -0.13830863826696396, 0.017617020309345918, 0.04729880164188012, -0.11052514254486927, 0.19883719722456672, -0.0013669701510861513, 0.043268111517246216, 0.08032454487632112, -0.057641885847419624, 0.05887061467277101, 0.13061269125205222, -0.003892378095068798, -0.04258211840672218, 0.03822594550745436, 0.08020893875877819, -0.0542386561817173, -0.011858917461996214, 0.09807224798953681, -0.009902247339561958, -0.1789522666300853, -0.11697649758935524, -0.06818217726419784, -0.15446351586637533, 0.03644623270198303, 0.03218261153652956, 0.023732204437774043, 0.0358144955093786, 0.053911232001295536, -0.00868543743457699, -0.021752583888803304, -0.09241907962084399, -0.09523643142091774, 0.08854755601074168, -0.10035891505232612, -0.06803909774841303, 0.016826517577637992, 0.0067207233890463165, 0.055342114207334266, 0.0046304653970112445, -0.09155897827170845, -0.1150179554011787, 0.06904645398553821, -0.10519123634868671, 0.017988683961667813, -0.07556756946334237, -8.532360965513952e-05, -0.05819594225788406, -0.039214679898628126, 0.0182858762202074, 0.03960738028865533, -0.09586560992610743, 0.039941796614740906, 0.07079008311245753, 0.027711314205400905, 0.0668057934047405, 