{"blockSize": 3, "vocabSize": 27, "nEmbd": 10, "itos": {"0": "a", "1": "b", "2": "c", "3": "d", "4": "e", "5": "f", "6": "g", "7": "h", "8": "i", "9": "j", "10": "k", "11": "l", "12": "m", "13": "n", "14": "o", "15": "p", "16": "q", "17": "r", "18": "s", "19": "t", "20": "u", "21": "v", "22": "w", "23": "x", "24": "y", "25": "z", "26": "."}, "C": [[-1.1107171882558058, -1.8423094473231476, 2.622701054384497, -0.3362119587932941, 1.0922067398398214, -0.1349987156419714, -0.7943212602810408, -0.07231581092186994, 0.19917902986442054, -0.0854445257533673], [1.0574257430738783, -1.6290344216944956, 0.696832485741505, -0.40041982080683014, 0.705284035137515, -0.769635475232129, 0.5037287515711282, 1.3139903450029056, -1.0456817609938953, 0.9268351853992409], [1.7762816811952362, -1.2963747616354249, 0.1841447636665867, -0.9431472503952396, 0.8197016495842859, -0.6985057097476132, 0.04191724797979765, -0.7948724290728683, -0.15091900482112805, 0.6162112759295031], [-0.5997819553747976, -0.1044533488182787, 0.022381044022137773, 0.41307836583917507, -1.127872505894372, -0.37868121224208456, 0.27743837874877453, -0.5993234051831844, 0.51993369628565, 0.5088718961968796], [1.5574490622586201, -0.48058491552791766, 0.013424057337226607, -0.8937051746951941, 0.21727321890460213, -0.046628434597028486, 0.580606597689062, -1.3444936309254198, -1.166154000697977, -0.8328855594646989], [-0.8298724626856459, 2.0782040009363447, 0.22738823854590096, 1.5774459087168975, -1.6964480774914004, -0.6516407962520185, -0.6320788534114156, -0.4580683596444993, 0.931127830620242, 0.0026719786015978676], [-1.5714802559417458, 0.28673827136666274, -0.9858734518322053, -0.08268888064745017, -0.22090719304286874, -1.5896929872573209, -0.1750672511198689, -0.067316202876405, 0.7964887912012164, -1.4856075945586065], [2.4146173287874375, -1.509353091772507, -0.8094430710410945, -1.2624670646871743, -1.2145113495222761, 0.1173101055925581, -0.2727184876958204, 0.6347154838029672, -0.7190078353591897, 0.7865901599528718], [0.9047963693900111, -1.193701488040923, -0.08455418966744818, -0.12747701808717646, 0.09964718839302861, 0.34781698238719455, 1.1239675739638657, -0.9671099052596078, 0.4066536337603144, 0.28925426762045037], [2.3709170487018127, -0.4840039749818048, -0.9945970906375547, -0.07996655821164471, -0.36457426522559844, -0.4804749795645524, -1.0699630773782425, -0.8169982490236836, 1.3917970556927788, 0.36639980824872304], [-0.43958376332428784, -0.18817176562850724, 0.7229412043734865, 0.6790699285042325, 1.934561692739157, 1.1688764328284709, 0.3276290533725756, -0.2753910653716954, 0.2733112708399716, 0.04288912718432584], [-0.3724269180351279, 0.4514032548565242, -0.7376498340115482, -1.7154764541150778, 1.0322069553638016, -1.9425766381915832, 0.9769997495799208, 0.310278670764539, 0.15136361879821036, 1.2694614137144582], [-0.6705384352855724, 2.330430926675464, -0.4939656773069439, -2.051541680908752, -0.8348208733739341, -0.8779084475174367, -0.8188957256535168, -0.30980615481085244, 2.200119275094343, -0.5718372782188808], [0.1848231804054166, -0.5931583485212536, 0.09194230576210528, -1.2805975651356514, 0.2566166825110837, -0.8225940316309724, 1.76222166817233, 0.9521039192306384, 0.09798577124591949, 0.5823234638701935], [-0.6941294696763296, -2.4229751176304863, -0.22479592534304843, 0.7544147123746565, 1.209669237259004, -0.4422219491787796, -0.40695646301734445, -0.43595531824217454, -1.5867761640258962, 1.3397293672365718], [3.4480805910600356, 0.29611975644430716, -1.6169747770704437, 1.4120448525827713, -0.019834537732941922, -0.40349399833065897, 0.6934885596052373, -1.600978941567823, 0.0960915040371578, 0.2614416295859356], [-0.28780779531428397, -0.9205724900139987, -1.5281596069039598, 1.034180423861227, 1.5718990575732064, -1.9594414624225138, 0.1615719723878243, -1.054751691368774, 0.9518377640805263, 0.715640247972958], [-1.1351752125637868, -0.9333488247207994, -1.1055538280345933, -0.7540319721506492, 1.3775051830359961, 0.06684555494166632, -0.07440561323179337, 2.571896786957547, 0.3420817144933764, 0.5078491984939139], [1.012146010943628, 0.06630656411655678, -1.5933215113151655, -0.3042314136987743, -1.2321914488530965, -0.32030861081383016, -0.24234339182990594, 0.701426095639848, 0.6998120637721452, -0.10224315718814216], [-0.858667278946986, 0.10540185750280845, 0.5219831536685126, 0.044503173177965094, 0.9163800387857245, -0.6745851540518548, 0.6942653054648101, -0.7029699818726113, 1.010050146923507, 0.6276985340259902], [-0.22581036900616142, -0.9344441570281665, -1.1365713875864458, -0.16601300778302158, -1.4883951542055796, -1.0016171436229093, -0.05261631409979765, 0.14208470318488547, -1.4710506126305403, -0.9637190389180642], [-0.6373594379383566, -0.8449895374204837, -0.48647694788050155, 0.2956210789450095, 0.2246108114185743, 0.42262649269983127, -0.016678572265250196, -0.40494830987777525, -0.6955006457008631, 1.3980955392883452], [0.7688514977625304, 1.2855672230698667, 1.4782989727867035, 0.07609928239809549, 3.1617838974309307, 0.6466521722544538, 0.850747644457695, -2.05064868769775, 1.1721051806656337, -0.8980149794248458], [-1.2793646764038258, -0.3269018611410414, 0.5899735587249302, -0.026044939615343918, -0.8396502212052072, 0.4849892595781418, 0.15198683113719325, 1.5374495405587387, 0.025810247931454224, -0.6692265459444242], [1.7566736998770904, -0.7293850322644096, -0.7916827809870022, 0.2919320125320189, -1.0105409888595238, 0.04859749708453823, 0.9499993967199301, -0.8154047736587449, 0.7633384486132629, 1.7954584433409166], [1.493591896200053, 0.3322405732083147, -1.2859067545775746, -1.4541368981376914, -1.388895750096462, -1.002092095967625, 0.3932159367577669, -0.654756154742854, 0.7205875854251383, 0.05225398405728343], [-1.6927233453877788, 1.3746962387313948, -0.44202293060611, -0.6193222788840143, -1.376529604464562, -0.145192082146551, -0.3650527210472415, -2.3072776949067757, -1.510717683011948, -0.33022853485519893]], "layers": [{"type": "linear", "weight": [[0.036524149318232106, -0.21950756592269746, -0.44674806780586745, 0.8816891411098509, -0.4212616114838902, -0.27062971301073824, 0.1727801308201697, -0.2375728540596191, -0.07574878454592543, 0.9498730397377524, 0.5023203049967311, 0.22335813887946587, 0.16658062934660303, 0.4253016727863462, 0.19382862253317495, 0.9093947927385825, -0.32665527622958795, 0.04437116568341858, -0.08792289449516211, -0.7386471871349005, 0.2571388885085247, -0.4858361214886416, -0.1809967099399474, -0.6422079266988557, -0.5303451422520364, -0.10548930410708658, 1.4011239444883379, 0.08548742672042559, 0.21574845935326228, 0.9348987787601734, -0.13168176119098668, 0.5259101252345229, 0.1159359092661299, -0.12649097795226075, 0.19649684779339974, -0.39330001755093735, 0.2032755229227181, 0.430965447537671, 0.6190944671413743, -0.25006275458772825, -0.10219484797720409, -0.23638931800037943, -0.5688217320806105, 0.32775676369150997, -0.4231887553706842, 0.5461600419719091, 0.26501519278161884, -0.30041625114989073, -0.2560850091406189, -0.06464106661828922, 0.26750295537825464, -0.29934194377978157, 0.9672156765354154, 0.15384368399434334, 0.1988045382602628, 0.30045924496174714, -0.011470146721139761, 0.46100867257473976, 0.22876938117750678, 0.35986197713569706, 0.6664169415959696, 0.5922494492932148, -0.26885938014918426, -0.6116602482418829, -0.12552755312042282, -0.1297342314879579, 0.024587359495880486, 0.5280540235037049, -0.45020791302138413, -0.1773213013597161, 0.043076097773605625, -0.28449797280317957, 0.21738103817580715, -0.2985010634141836, -0.7819998989863776, -0.9478473203483061, 0.3657411081080037, 0.12083731347603154, -0.17638440445890471, -0.14394641931486946, 0.11622324527049617, 0.3490322022362656, 0.08575126843142922, 0.05579409144979805, -0.06143665496203455, 0.3140448828845141, -0.15970444936028516, 0.349868074781203, 0.5579575237411541, -0.595078663841896, 0.30767220091879305, 0.2776559984135923, 0.3465039181779225, 0.5610266878400251, -0.048646968219683756, -0.21423002142764355, -0.5546747451581661, 0.052646778943214526, -0.5530271636184113, 0.12927942262199982], [-0.6638368233789047, -0.1600001778110974, 0.5051269784339155, 0.44934468912786746, -0.5227422731730289, 0.4566605831676343, 0.135895504443668, 0.3479127098428194, 0.1357785557804298, -0.012433406689552878, -0.15032541269993666, -0.023582191021721682, 0.37477348714490644, 0.028236221663114087, 0.019614541974707127, -0.3954347314415542, 0.10290705662630051, 0.1844815425245236, 0.9943421120991198, 0.2904926322047224, 1.147500134966296, -0.2949820161545183, 0.002646885224305361, 1.1821881723645398, -0.19487978505690634, 0.27952803503929724, -0.7119518493692152, -0.4346037338004339, -0.6628311468336809, -0.09761321043947666, 0.7167364602702054, -0.16174921804597162, 0.38349292540289875, -0.2202478298794564, 0.24225307191714368, 0.7994109851902221, -0.10357490189560196, 0.06950058618968077, 0.34546239109174853, 0.820511652068006, -0.37826411755307027, 0.20307271216382342, 0.0699621956288986, -0.14684460525730642, -0.06592441230263016, -0.48716272151983003, -0.4544438173477268, 0.2443441210729397, 0.012923042305001327, -0.33657013059620583, 0.1273219840907472, -0.08241932651318347, 0.49366914784834326, 0.08465545702511004, 1.2492246507296803, 0.4398391734308712, -0.33563982254966523, -0.6516873529132996, 0.208457178951351, 0.1738706145570803, 0.025462076269118335, 0.14291096851609025, 0.4660095056782419, 0.004078892409821568, 0.14812940560283586, 0.6985175967217515, -0.2069324644539774, -0.2134980837937698, 0.12051995309008959, 0.38550714074031095, 0.6688756729956853, 0.401899409651506, -0.22830584065153636, -0.2548542169396642, 0.28048982243404197, 0.35434907013507755, 0.20711474109906797, 0.241991572489132, 0.03359262901699219, 0.0032421250757936368, -0.158801870605786, -0.29699233312782086, -0.8662179455213543, -0.13838191675596984, 0.11827431720641336, -0.3082716996015883, -0.014353411086701774, 0.2609321354666096, 0.5976578243374395, -0.6471830544510594, -0.7647743549375547, 0.6472768436860833, 0.1830868573688531, 1.0781942518337266, -0.04078971673642361, 0.7322024115194443, -0.5764234295182302, -0.39185743746447765, -0.039344809977023255, 0.5470315992112823], [-0.1410977825742309, 0.5031452086950448, -0.38127554948491166, 0.27774771376429813, -0.4123173681786873, -0.5595457180957878, 0.8958723029934214, -0.6421636300415364, -0.2514370963072099, -0.22669106842574419, 0.15885474035563887, -0.2447785027120523, 0.011228874730994523, 0.20360390852203403, 0.5816031674317654, -0.5094360518500599, -0.24030498385646612, -0.6587210571998446, 0.7977293199521992, 0.0892970101099351, 0.3377281773786823, 0.5039634618412006, -0.2974842532917132, -0.1128329489379934, -1.1514169221220079, 0.05633845523578683, 0.6487852648831153, -0.21077433614935473, 0.46374618715731974, 0.19563711141815224, -0.08104572881146958, 0.06235457003631554, -0.8597543817072864, -0.24904804154704197, 0.16655927246125496, -0.5866875856406756, 0.31483995277798565, -0.5398096812527963, -0.7552442320972099, 0.04349491980123218, -0.26955451374858075, -0.3044589119525855, 0.036937769278533275, 0.29359402452545197, -0.1772951593954551, -0.5531314161877122, 0.8549587987359177, -0.13305877489299148, 0.32945861565232976, -0.20621517845564089, 0.08681865545363181, -0.16255396988471008, 0.6189032799119073, 0.367856131602023, -0.024043713575958373, 0.1679485247658976, -0.5137163282263811, -0.5124733196052315, -0.2696739910887134, 0.6074080312913877, -0.277715280824949, -0.4193281040937626, 0.2104589467773713, -0.2557887587619547, -0.3667074491906224, 0.2460853821422156, -0.3231790420970482, -0.46397989944418755, -0.2003608262270869, -0.012328223117756434, -0.08271930168143707, -0.355126057956918, -0.30273533057376156, 0.5184323424157402, -0.29195902646559463, -0.9668728739692342, 0.23047491708658827, -0.09158496325606563, 0.4768425673121573, -0.07899124699866782, -0.24318309182517453, -0.2077246700667877, 0.28737153207172256, -0.4257620558852192, -0.19325067801537538, -0.057450891640875676, -0.4889696852998145, 0.2104410456687184, 0.18380338450468156, 0.08340610073596481, -0.12854759085052844, -0.48344955628099945, 0.2742040301586386, 0.19666383495808007, -0.0880647543482206, 0.19730423261929808, -0.12268031626365614, -0.2442087170602669, -0.009425688737870143, 0.0008978569266849343], [0.2565659748638341, -0.09639951878035602, -0.67146994062753, -0.2951744723502547, -0.5772839944732726, -0.023671922536794475, -0.2221460077702746, -0.1381509051492522, 0.17111461964800495, -0.4870728314708362, 0.29665059656652626, 0.03433000007963216, 0.273725309967346, -0.09833120048095029, 0.48194732727245465, -0.25557552416684204, 0.20797276982487203, 0.2258266248414388, 1.131983636968059, 0.13196909368917212, 0.030881844182392225, 0.13684455790615954, 0.5148861770556187, -0.26102010131210746, 0.3877981409470673, 0.41550348692700495, -0.39216571023637087, -0.5614573351637682, -0.03310709048293871, -0.04237876660130518, -0.6438445089743002, -0.3163209930365879, 0.03381564044815394, 0.28373123839250497, 0.7569546731706265, -0.24206593301210882, 0.03345061510062724, 0.008314908960402755, 0.40822033154161813, -0.00611838914385231, 0.16844789412861735, 0.0728114454801578, -0.4736009213045375, -0.04917639013698585, -0.3283751419359135, -0.19259364017091596, 0.12827174673537767, -0.3772764700379427, 0.38117939691022773, -0.3128470554931574, -0.08327092801478403, -0.2183879246944936, 0.9257985581856225, 0.3550233814060882, -0.10746061580924954, -0.10009598476681818, 0.2453623898235049, -0.03976046666937309, 0.5128620593672357, 0.4731486459265787, -0.057761002279542194, -0.4160288942850768, 0.5051585808550927, 0.4349264886651473, 0.04887996988623002, 0.8303952993000379, 0.4522036308006184, 0.10282841245761402, -0.1947957858787801, -0.47841455807489275, -0.26804502919121515, -0.010474136571962497, -0.14214414994526917, -0.23510635042966269, -0.5352920460108996, 1.1068585819026866, -0.17865962417386358, -0.41619598921035145, -0.4242042580015982, 0.27095933094730285, 0.12272984858408059, 0.09092491267369081, 0.577597342538519, -0.532351180858083, -0.23061127179560037, 0.4223525540501817, 0.09709535223669956, 0.3423935632887604, -0.12825935290833892, 0.04174690188239058, 0.030314377635014433, 0.6665320321825926, 0.912613365661746, -0.38533122742326037, -0.2071058158763537, -0.2730175256982249, 0.5063474938462951, -0.34086268618937704, -0.1865482388471576, -0.32329289675056466], [-0.04604576509427497, 0.03727820522845486, 0.4092659313245466, 0.4834690885026158, -1.1138473036301855, -0.036019928805610245, -0.1163137373247907, 0.5264410832825315, -0.7016661850009779, 0.1824837379769889, -0.02645939547178724, 1.1913496662057819, 0.9194092173598825, -0.034936049868305244, -0.06306483800040841, -0.3493749007256548, -0.5221183956398632, -0.3737832038348453, 0.11050658429175626, -0.042681927556629265, 0.14827826639381037, -0.11623006212208083, -0.27027239768060773, 0.40648078359684, 0.1771589432189166, -0.2247192357589515, -0.7042740939038535, -0.23319924024395244, -0.8436794798412255, 0.28478446793660306, 0.28320652601348745, -0.3483830550769157, 0.43834415205738364, -0.5016156501932919, 0.19709125245332515, -0.6622599827055496, 0.5486556525423992, 0.16691344384132054, -0.4832896756976632, -0.0514809339741371, 0.07744954162076155, -0.191452462073695, -0.434467037435381, 0.07279260649911241, -0.07315274401807645, 0.039089264529529426, -0.01931767541347953, -0.6188565973728192, 0.029212061430676405, -0.16147621976936571, -0.09312897830621712, 0.47044742683104757, 0.3964136839110824, 0.09646443689356202, -0.3241801397761924, 0.432998319678079, 0.14631882702583004, 0.7523329664942392, 0.09892514806272283, -0.13722016451759442, 0.16571931128630948, 0.27494720931934014, 0.0985469153568984, -0.3518155746250641, -0.27545320225238795, -0.3449709983053834, -0.24557604915637124, 0.12695521914821484, -0.12187251543949114, -0.7103197006125465, 0.5872796093169897, 0.7976692527720388, 0.09205730641993744, 0.37620494208232497, 0.3859765517692411, 0.388057193555349, 0.25685921499539616, -0.3249151049769776, -0.1353235082820738, 0.09230990256333182, 0.16825059470858925, 0.09133890524444307, 0.13575379209260463, 0.3957732953659053, -0.6318689599796848, 0.5088265944709839, -0.8061372950872857, -0.4206070438620017, -0.10503008368654419, -0.5744182800150646, -0.13125836165141944, -0.1215755903019947, -0.06589105489568586, 0.819417654510761, -0.486487089788732, 0.4328075321468368, -0.6740192198509564, -0.11194181373980798, 0.059052120674878895, -0.18378083892694438], [-0.007762802776359367, -0.26104966683137415, -0.32185045130943085, -0.8017253338181071, 0.1224878432971478, 0.37519687394824497, 0.16697506616374977, -0.11182155790799078, 0.1814437899230482, -0.6393862083899137, 0.5958904277598541, 0.2988899615189335, -0.15258712027434057, 0.4771459699227488, -0.07173081689123034, 0.3738000587675148, 0.28139823350810994, 0.3739964421953729, -0.2606216574750168, 0.34135027926500466, -0.39510844061406225, 0.10016834681850403, 0.07620895047162445, -0.3597072761973935, -0.14018146577381704, -0.2874187753900906, 0.2179004931021978, -0.2837408527131694, 0.37476551513133494, -0.134931738334939, -0.10319077690236955, 0.47010213572994275, 0.0392787148451449, -0.3276741700370629, -0.7865510250529107, -0.20076197438191765, 0.1636596474087471, -0.2418371886885327, -0.23995464901038452, -0.41356025994260137, -0.19900567398763075, 0.24843252084271827, -0.2673312625137304, 0.8280844953216984, 0.5703854394909706, 0.4725053418223109, -0.3518808510849853, 0.0018575522305799104, -0.25069706493509375, 0.007404295857236282, -0.2903737125777887, 0.19308259950214787, -0.9597085541679521, -0.1443733673367111, -0.15354209748026815, -0.3419387088844349, 0.2787720651197034, 0.3120937327647831, -0.3644930133281287, 0.45693962306077684, 0.1943123642984108, 0.37257993472199613, 0.39116235800443966, -0.18411251278153545, 0.16993090038966466, -0.14626263822152083, 0.38895313594880215, 0.0003867282678220203, -0.0748344335045934, 0.36074277492606555, 0.17111915047409526, -0.7072383913432575, 0.7935300509574067, 0.24900083782408852, -0.5524327937340531, 0.9467596941745511, 0.1770737832471114, 0.4196388801168501, -1.012451772763726, -0.5039156149462161, -0.38996979179556546, 0.543496161352046, -0.4700742289917391, -0.2613483382718378, -0.27588018741478904, 0.7474635042555874, -0.1045670280427342, 0.21917750340896872, 0.31888736823825026, -0.19300535564816326, 0.08944566067503283, 0.09484648346195841, 0.09419353248596952, -0.008054087202480627, -1.0441381818396394, -0.18449093596225125, -0.4062195737991996, 0.5589694528795573, -0.7223324255253434, 0.6344623771389534], [-0.041615616967725935, -0.03122003061302261, -0.5670421842584582, 0.030956912968684018, 0.18758732739011516, -0.1666275624613813, 0.6867028137496758, -0.3309168116673526, -0.5821004990729254, 0.06802633303652354, 0.1762736910253761, -0.5444606433910796, -0.2540506585339765, 0.6563074241784259, 0.015502801887252587, -0.7894966788337958, -0.105796500733811, -0.2342390515108582, 0.4919985787150482, -0.26737113559738557, -0.6785910091732645, -0.15820887755777469, 0.6314952667859891, 0.1365953617833806, 0.18741051637854136, 0.09130717839956987, -0.29376165437701224, -0.2704387648049237, 0.06070507855432484, -0.38721147462645644, 0.1488794206780495, -0.03556979254201121, 0.4008847752814791, -0.40871436519110893, -0.24190071377073813, -0.7402967921031439, -0.598632487054276, 0.42446681508993567, 0.719280517525348, -0.3137056875050872, 0.17433539009414772, 0.5305429547144375, 0.9590828743020281, -0.9523500601257285, 0.14181136202358202, 0.01663976345047969, -0.08123337915489219, 0.2359931083628262, -0.007217342919179656, -0.3968121807827903, 0.07596115903666399, -0.32389044331162115, -0.4359648597883865, -0.5104292902534753, -0.7401851388119607, -1.1077095573839866, 0.17860796669152051, -0.5402241053627663, -0.9935165524441072, 0.7552217395224986, 0.5802900406196123, 0.2819076317890988, 0.4269099173464524, -0.2855571503747517, 0.0026004983061248413, -0.12636426514227797, 0.06412728199402182, 1.0149408606428458, -0.8110754494809608, 0.39476917933123473, -0.22822184813968693, 0.48002099594171876, -0.29136238366940337, 0.2037775232464348, 0.7062440901266231, 0.09170377110155448, 0.3573954899457085, 0.7972022399579343, -0.23103374441467522, -0.160164405123544, 0.29978194195236246, -0.4429922076376142, 0.5337440272508475, 0.3755586088825138, -0.6517220464361247, -0.28806505496603946, -0.623056967248789, 0.019019228035239845, -0.2538911422532696, 0.03362982422305826, -0.6892937185844586, 0.008277738185248825, 0.03242983446642151, -1.0183282175382118, -0.4885903614686906, 0.1338972516044683, -0.2683200352469114, -0.28409795544511485, 0.5493708269007714, -0.5255536442884099], [-0.23188219182243908, 0.16611374873717116, 0.798949116214319, 0.020679790683026635, 0.03400244049816231, -0.013185405354011545, 0.3039511149566964, 0.1938142312068799, 0.2532345620276543, -0.4484500242847927, 0.20214440514567109, -0.6719816778358797, 0.006482909957426929, 0.6518288181490274, -0.9768755481063828, 0.17836908619434333, 0.5004155214337184, -0.007697095221197932, -0.06075565051701147, -0.4994480888544587, -0.708493788156294, 0.20731406753377654, 0.28482260471270604, 0.1945419726395282, -0.5573805907738717, 0.07628082027723135, 0.0456344460557856, -0.24945469265172093, -0.7200535828153424, 1.0586695781997644, 0.19633376476312828, -0.6404674287180502, 0.06018818502379404, 0.03455248719641729, -0.06501332260501491, -0.0761874586370438, -0.350858291919225, -0.19066468163280914, -0.1485213316046653, 0.05025209241291417, -0.1680833337701234, -0.42649711571195714, -0.6788958042031767, -0.44425232365455813, 0.3695691395479338, 0.49080103537552316, 0.49179757827821774, 0.31746622838666977, -0.3736349696543377, 0.5982268607605536, 0.4436082518949543, -0.5530204475397714, 0.9727139313492918, -0.470480127651962, 0.405045088195977, -0.09445733894240646, 0.7285329968377259, -0.06048174979825841, 0.5476029278361084, 0.6490938820898536, 0.25596542900628716, 0.12033038107779041, -0.15618667743995354, 0.03864474414302653, -0.12154352087041789, 0.2231151394809431, -0.6120404339135844, -0.9477381663465746, -0.08451900817578906, -0.03359283024939892, 0.6713270562666062, -0.21564937214770036, 0.12227549358473203, 0.32216483627135106, -0.23023665178001068, -0.5547616927963294, 0.024409454055598887, -0.1350458795212882, -0.24692957583203456, 0.5265239052530414, -0.13725729369898573, 0.32970558942680883, -0.12376908185921592, -0.9559989937287057, 0.8154958146278645, -0.022796652301353117, -0.6962575954087256, -0.5996087921241874, -0.23770551834285458, 0.2178461770133479, 0.15723689370429753, -0.01368777889902624, 0.425843407883016, 0.24955009880490236, 0.05883814109621398, -0.014592869895767073, -0.6916898442337845, 0.2980979558153143, 0.32435518563724935, -0.14885557381304806], [0.3352725330892429, 0.5153072757065235, 0.06994960510608562, -0.36860647779767064, -0.41291876958492574, 1.064662594038855, 0.1530593365118912, 0.014970942942491777, -0.32752464268074505, 0.33500280443102265, 0.5621920861078171, -0.05900911850900859, -0.3711299175441397, 0.7241931023536196, 0.48542691626155815, -0.09857756311515409, 0.539838840186687, -0.6319913085863181, -0.1528631052744699, 0.15474286703851117, 0.7351274796595665, 0.5216731747379405, -0.4639965378555096, 0.6154056548505452, 0.22566072300606194, -0.2753510306620507, -0.6298517725575435, 0.5955123604690364, -0.2916117838052165, 0.14401551170246474, -0.18518704567812394, 0.5332131756298024, 0.5808512783688853, -0.1200990836101082, -0.17287512551611797, 0.30176965760810304, 0.7931273598362019, -0.4418836101481594, 0.38683739146261054, 0.5583808209508164, -0.2245414544200955, -0.05457927731004253, -0.2607478968433486, 0.05658531179308189, 0.3569496864681755, 0.8000632941383026, -0.09089803227309932, -0.08228814051041235, -0.1290011332564653, -0.451464529635716, 0.7355284664174431, -0.2507713556365206, -0.09747411066604078, 0.13683008476622263, 0.5536690539309772, 0.02779826487460967, -0.0740895685802952, 0.6338410627531557, 0.5942303321718067, 0.5007348705728591, 0.2628030642848543, -0.39470851193746836, -0.3567102356705415, -0.18933954215638477, -0.33299046027298845, -0.4585272359354093, -0.16930772072851402, -0.3563475048769016, 0.007036196091394905, 0.09382951026491276, 0.08836426859546569, -0.34415253545506136, 0.312198573400941, 0.31299348986978676, 0.10728005332097311, 0.06436418025271282, -0.25553916384653447, 0.5471127557114999, 0.07369793133230262, -0.8820062365120559, 0.40853191744064726, 0.380535768304985, 0.37416989538150963, 0.37912377687476967, -0.2704049121614054, 0.19967002284485946, 0.6419887730630794, 0.9097751172748453, 0.6409231790839764, -0.13381162123757503, 0.30571264570852363, -0.3334003078827213, 0.5433826411390756, 0.890473960830057, -0.3010930551974311, -0.392521054843702, -0.3172148830744463, -0.11031934298364518, 0.3010900895613297, -0.313122054178337], [-0.7007426229337927, 0.014273699250529206, 0.08058948250121527, -0.3923082183589877, 0.09510783191449243, 0.15376915127379132, 0.015521666867448294, -0.09285131009624094, 0.11668290684671613, -0.15283886491793192, -1.2133982702861636, 0.08238285924159539, -0.1362227329097415, -0.027590246915859918, -0.43822580501548936, 0.13608180165675332, 0.35375388048975487, -0.03271667394016765, -0.387765166309606, 0.639426923511192, -0.01712229682394657, -0.049647090146499796, -0.24551695415074687, 0.3521461740705509, -0.4009204580400242, 0.08531512164811812, 0.2593635646911861, -0.14027662295188584, -0.5253889289963911, -0.1934614855884999, -1.0341984414078949, -0.4106543270199768, -0.4428715838977486, -0.8283036002227275, 0.905535537812761, 0.2658826123938169, 0.3194783054868215, -0.19587255755546493, -0.02973900823746662, -0.7231152162314892, -0.4167117399004419, -0.6575704414996977, 0.1004830627789737, -0.2780332163124961, 0.6513149446723749, 0.8457240621681763, -0.7112559506277094, 0.053774271217335225, -0.5553313277731579, 0.03451095147985046, 0.05721974928013714, 0.1168858368469121, -0.7296207895580461, -0.46604485300787574, 0.22835132340982367, -0.10202999106162948, -0.035577930277809026, -0.31451665816709057, -0.11679368089914959, 0.32019455518859735, 0.42283343879703894, 0.11268532637998101, -0.2393721087822617, -0.09247401927301284, 0.6170049156979864, -0.2255831272731062, 0.48931063194222074, -0.30434985646387497, 0.4659554752961205, 0.004884092998398881, -0.4840025350520629, 0.3519351833192024, -0.4286577606481824, 0.48946316637551607, -0.36920760507927336, -0.4834940888496234, -0.09507055476399212, 0.16004985371902936, 0.23943722438621196, -0.8453458747375505, 0.026806618936469077, -0.32048006314988725, -0.11198239118486694, 0.4716285864712994, 0.617150186156761, 0.4114026291361992, 0.02737091681085632, -0.6747031409654162, -0.6956366592271328, 0.34165597038983964, -0.039097798214709024, 0.056769674569997895, 0.9642154930203041, 0.6945753097089338, 0.0021197571184217536, 0.2047380902795081, -0.18038034566852937, -0.44684919383180066, 0.09657241205660096, -1.2346552353424471], [-0.2483695310422646, -0.016855151804517802, 0.0012318095620114634, -0.2730784755081537, -0.5190429262743916, -0.3022536352161286, 0.2206053788235975, 0.6217721785041516, -0.6594851227755507, -0.8262367949792949, -0.28049042228997473, 0.29679674681259255, -0.6735246631733396, -0.08415010936155087, 0.09285209321443613, 0.2403482588978676, 0.14628612808303748, 0.4861324047275642, -0.1608885040300299, -0.37023537787050137, -0.24549219786080734, 0.04013844938730901, 0.03899724863457193, -0.1269196632171758, 0.26307008584198094, 0.195389450196735, -0.5503420269563836, -0.19891473005893986, 0.15105522748394018, 0.13939274746472646, -0.8131815906493898, 0.3621300493483025, -0.7116961600467271, 0.6170498273830011, -1.104883608799645, -0.5180285416982489, 0.19722421809324658, -0.39383391161599085, 0.17377222922175858, -0.05799443509737885, -0.480822582301297, 0.3129453607979334, 0.025503922767465603, 0.06058882112873897, -0.2775091857839216, -0.3708217380571364, 0.3351040535747049, -0.1754630442704879, 0.24298905972494125, 0.0670267350602516, -1.0114640148065568, -0.03181766250348355, -0.22828338747883312, -0.7037217801517428, 0.4441731358761945, -0.014882952455833681, 0.15093307063290476, -0.14562592518119552, -0.20715264572209816, 0.24890592724763166, 0.24546599878355257, -0.7906023174852045, -0.3812576702182, -0.26186066411128656, 0.8609222645618738, -0.2902968601218169, -0.09726253643018305, -0.1572724861221083, 0.321627077724824, 0.06500918749050062, 0.16051483600270777, -0.8471735432514946, 0.06412222743748686, -0.09028450020395133, -0.8257800557798414, -0.21932163249959752, -0.010602600819329353, -0.34110568081586334, 0.7575966421905828, 0.3888993957044887, 0.7417672663689505, -0.32227927074060553, -0.21654899432446326, -0.5075798974127054, 0.11998038298636582, -0.1898048404677801, -0.7540401806526283, 0.3941003302692757, -0.20491937267986932, -1.206490117870367, 0.3563076220560717, -0.22294724362141746, -0.1659622845791213, 0.44589711476280786, -0.2943402001056104, 0.27820590129014816, -0.14446577453651321, -0.257670826691631, -0.039961749022699666, 0.22872929967804037], [0.40998303535050745, 0.36620163449232707, -0.2226477831709321, -0.28623706774491653, 0.3066910527933232, 0.43680944629938967, 1.2383323702970999, -0.35505640658081, -0.03645249880480939, -0.19432278953939064, -0.6435983180197006, -0.22819576716274678, 0.24554495150863023, -0.07613882785474116, 0.32960340255657866, -0.4700732565367744, 0.8372340450807577, 0.3015390873903662, 0.13305231342950186, 0.44823402939281864, -0.1762086687906293, -0.14535968702494279, 0.07040476899194686, 0.4883984826833653, -0.04691255032076887, -0.009229794276700887, 0.742352843592271, -0.550022116631331, -0.9403621904531453, -0.512435137238566, 0.23525080334727405, 0.12324599698423229, 0.4422053781188782, 0.21909262372408936, 0.18326745119059062, 0.5484297385030851, -0.2379192650961995, 0.6202612285570278, -0.19006391684928503, -0.33797760296002727, 1.383552468726955, -0.17777537554951509, -0.3862130615509082, 0.4744143084767522, 0.7180268009501262, -0.2962929845822347, 0.26193658477237686, 0.1791747535434118, -0.28959141989966125, 0.8313326502885586, -0.4461861175695632, 0.841563669304532, -0.07050636708925695, 0.40834724445518444, -0.2743847156269331, 0.7900986343047681, 0.16266219803093962, -0.5013854630797823, 0.3270964211138536, -0.32918561739378344, 0.30224914177062345, 0.5468538018707976, 0.0010640165776965478, -0.6538794238468637, 0.20082923675230827, -1.0761559453887044, -0.34755325283696925, -0.7049991642531268, 0.2137969218151002, 0.09934312741829285, 0.23785549197338413, 0.2002982197313781, 0.34401631312213277, -0.34719826354605665, -0.48302585612392374, -0.31136497147081416, 0.18523323520264373, 0.9799675097771378, 0.034660663784539796, -0.07780882696860954, -0.1502954176192269, -0.10727223881053119, -0.9746078721921739, -0.2752849293118233, 0.4088005273997997, -0.15284382277339625, -0.2707118248483662, 0.3986283615180357, -0.36895346197257045, -0.9316204185593266, 0.2061545571984117, 0.7229232337681217, 0.021261875075718563, 0.3406561721478721, 0.7445238420878155, -0.9712334277533354, 0.6555380524622516, -0.5087094671813517, 0.04178383309605853, -0.04321469350081683], [0.10787847445636277, -0.3039473280898711, -0.2772470201447055, -0.11071637029495625, -0.48680944210829014, -0.1684590462036647, -1.0234628885749086, -0.10808567905735234, -1.1967990175969836, -0.017703749061695178, -0.24625749879660808, -0.13216778268483514, 0.06562958078276962, -0.7013845189381794, -0.5161175740891734, 0.03897337951791486, 0.2885908844361855, 0.08809814015681278, -0.05216666764600353, 0.48688663507388247, 0.2542899921236565, -0.3806210308715194, 0.1574528244092986, -0.023949228153735357, 0.04375856797875984, -0.5170631344501735, 0.829366921773972, -0.043825062519846754, -0.0430757240118571, 0.020574250884032183, 0.1457312189729407, -0.357611325916652, 0.31255613324182163, -0.3794161071204265, -0.5792175184423213, -0.0646323394400107, -0.11802592562365556, -0.3775409597631967, 0.530484194721253, -0.21325373974630712, -0.21495846728514303, -0.4045383853842036, -0.20407413137774974, -0.2492989666684505, -0.06576253112079411, 0.4447354424211219, -0.18100800430782116, 0.24318292126953564, -0.44463310356694097, 0.8186644283546863, 0.45071466397621873, 0.3480566519168765, -0.608940041565085, 0.17819583277480883, -0.2973663033671866, -0.13501829426300782, 0.11610972629407358, -0.3495520607649489, -0.2470237319406745, 0.1053990922877535, -0.48446023516555714, 0.15516864577635137, -0.14388088313295896, -0.3215792789122505, 1.056168142984816, 0.06285625094856215, -0.9984434036336566, 0.10305264688628243, 0.1567734869686932, -0.5792105820414358, -0.16112579353749443, -0.38479670214616823, -0.4378491778117654, -0.24798565145100981, -0.20626742634923462, -0.3316678294077024, -0.34620955780866375, 0.07846430988673474, -0.1990763938184229, -0.11834299522931364, -0.03832236355435844, -0.25937386594577355, 0.2856440397042294, -0.29722406306882604, -0.23732807870315975, -0.13958861275160492, -0.7538578267984342, -0.3432087038705851, 0.43096278093996826, -0.3049998157638652, -0.05725653311608037, -0.7454074125364216, 0.6622191632660049, -0.23180412286845575, 0.21364000393638705, 0.41985112907124267, -0.295366169532133, -0.3434899609493646, -0.25791392413192404, 0.5029392642352081], [0.629213728053561, 0.24212229410360026, -0.08439706872487332, 0.11220567216544966, -0.4275955880107763, 0.36697203112890525, -0.2691622177626501, -0.0257004541989674, -0.14368467530353013, -0.3387912683341575, 0.600462798318163, 0.5526950785816486, -0.42745742355170224, 0.10369957025890893, 0.17385415328751946, 0.7402351039706113, 0.26320750336952403, -0.07231075342732235, 0.6557377163850802, 0.08449125870575099, -0.11714400108599181, 0.13340272576050133, 0.4005508170409279, -0.2352577390572166, 0.3601236627006995, 0.3479064923539961, 0.1167679123997104, -0.17586244534468007, -0.2795809526266686, 0.9157856498256451, 0.04525563005348414, -0.157344250768901, -0.8722407386880796, 0.266400885912552, 0.9485990496211721, 0.1623958243244337, 0.4252054606238901, -0.14947502716480435, 0.3066981986273913, -0.11422168481355538, -0.036025449817515764, 0.14922253052217846, -0.6686441625752011, -0.1074347440546615, -0.2976614932093382, 0.49693055690616206, -0.026410918669496568, 0.05981987035906565, 0.007430612575884143, -0.2241864277600166, 0.01052102382497212, 0.6443254395152245, 0.05764271412206488, -0.4290436249153808, -0.32348245942312515, 0.34329045197719954, -0.5158751287274633, 0.2358196256839928, 0.12167167090719579, 0.7581989140789607, 0.02446870751466588, -0.19977334114414877, -0.33242043160870177, -0.0696034830535045, -0.32293742128544556, -0.026475625553971403, 0.05059794638577826, 0.2071024976131069, -0.08838974413562053, 0.2883904130211119, 0.38055977754909315, 0.4436558415787206, -0.3946806306031807, -0.33702289763442406, 0.5955466575699568, -0.5607522485056704, -0.14195044448046976, 0.17035426068676493, 0.40578162917557686, -0.34851937211838924, 0.18859259706069748, 0.1386157686737728, -0.6571513949256208, -0.21659970888241484, -0.11225285159893642, 0.21092566018529135, 0.24426236554693165, -0.32076597139134555, -0.40110874715595385, -0.07005554840714127, -0.09585216461163049, 0.1929815997225857, 0.26283171376453685, -0.130385954342199, -0.0513820899715162, -0.19906838391053236, 0.12290649472208365, -0.32519597317807447, -0.6103642195563854, 0.2734218728902482], [0.24201767177576927, 0.36965010917552976, 0.031999175408044304, -0.1867200473139866, -0.2629866566297633, 0.6562034772000477, 0.19964144845015533, -0.552382590674658, -0.6191012174673208, -0.01652452159284445, -0.1282830145833816, 0.3788853601987904, -0.4068730483329989, 0.22921399564015837, -0.1173601318324335, -0.31863807954828016, 0.3230104456655867, 0.3921254092287908, 0.523181164555391, -0.5983188935843349, 0.6265171655472879, 0.7192712371189958, -0.26607492881946704, -0.5016063525782396, 0.22918094576633324, 0.05585032048591298, 0.013255347605973355, -0.48519682565345007, -0.07682479991030032, 0.4698537899919453, 0.13053883117997261, 0.23917890532308386, -0.09321053282219906, 0.1057145233161351, -0.462567090189357, -0.871448424689646, -0.1951519118011492, 0.3577560207672664, -0.02647533425109395, 0.26409157866560184, 0.5103052226537182, 0.4833623758408853, -0.15675024641169405, 0.3681767342369913, 0.36240080379712897, 0.3770099091998283, -0.7691459237059142, 0.3336113072937382, -0.00267061259209724, -0.2581544495266255, 0.05859506381994048, -0.018184609962332298, -0.4120303425649394, -0.204004606934533, -0.1658214433510825, -0.2557744076135823, 0.5816163135967042, -0.0037731940794070488, -0.29581495128016483, -0.19872576750761511, -0.710766959585842, 0.5240767980323274, 0.21158155042621662, -0.8750985625320391, -0.2149954326413593, 0.19191932879877807, 0.23544333799263936, -0.5283600860992264, 0.32137611215315093, -0.4055687947173557, 0.16325293224180706, 0.3029465393783012, -0.6197367142894472, -1.2575547636298818, 0.09352006679138035, 0.19873137293097093, -0.4589266530776481, -0.26327108404471444, 0.020080475506879192, 0.3538339997590977, 0.13365590036544972, 0.26984918526586166, -1.3038867672174845, -0.4866718826656012, -0.05936581306260562, 0.09970417525697896, 0.312281678642808, -0.17402148216466223, 0.3190500089548286, -0.4191924570389541, 0.8094560090601686, -0.5337232117472426, -0.1732952174139787, 0.9601113299278113, -1.2800506256841755, 0.2555816714464472, 0.1522480637201503, 0.3830995539386612, -0.5516060351614224, -0.8272051804540643], [-0.23442633938964377, -0.4021546405375132, 0.6716209383513626, -0.05953468088700974, 0.22096559230935955, -0.43841138533483925, 0.14697281033126944, 0.19046087035686968, -0.45530576779583265, -0.9169298785116067, 0.3320437643074259, -1.0377417340460422, 0.6445827238841098, 0.5558971467703611, 0.005172003333130335, 0.3430586922246102, -0.38941874438266116, -0.1370620089279237, -0.014675316557635737, -0.33186667620757887, 0.1724917913198677, -0.39348011803839394, 0.01475715197727495, -0.3165049965849307, 0.7769489552134176, 0.4097423529933761, 0.13071774326627214, -0.3478320523928943, 0.1054412473572889, 0.06610666692049845, 0.37166315388300286, -0.20981182701469026, -0.8746951622550712, 0.39013542148056835, 0.2421489416810756, 0.05906332185215069, 0.11226711579072403, -0.18610820678225343, -0.15443630722093812, 0.5664660252051926, -1.0116963521860525, 0.5331498651591349, -0.5668420410019935, 0.16083490556172192, -0.3167474921781754, -0.3708660154270075, -1.2886157851217193, -0.9372946736013482, 0.18835031696283352, 0.07640391710692242, -0.12354838141325167, -0.5720416525643096, -0.9810645474366293, -0.05373333542475743, -0.02419827571369348, -0.5474975151537766, 0.21524363857546078, 0.6815071938128304, 0.3827670188288991, 1.501543279694135, 0.13623691033259078, 0.11686468952473117, -0.015542792640515399, 0.5749856367782733, -0.6734329256065724, 0.09133332727948068, 0.2761446311951571, 0.475688458961232, 0.6178210994401848, 0.002050794229528725, 0.7668849001715663, 0.4247773963887537, 0.0005418782983920566, 0.44272148667778477, 0.3478844986192434, -0.288919043095336, 0.1537417256421148, 0.39838735930332997, 0.395488890039498, -0.1344895823938729, -0.7317455898537047, -0.29852393360268364, 0.026845649752503538, -0.09327554030553245, -0.09321756391992976, -0.29670000681575404, 0.5577149797871513, 0.08089496611922334, -0.1149489713740326, 0.09436841325380968, 0.20111945350648014, -0.7308035273151291, -0.16281554548022703, -0.7599777123244116, -0.9693427125521985, -0.35005107385147116, 0.1107531793099834, -0.30994536205527007, 0.5273318753058026, 0.5114960897359869], [-0.05171910358716541, 1.1528917929075548, -0.27657945285813845, 0.5621199397021845, -0.437383724057199, 0.5647464168569756, -0.1758057399741299, 0.13488904840047364, -0.22773208450971186, 0.5475584243083146, -0.08632066692453241, -0.7737847755567249, 0.4148125970862161, -0.6068388166706109, -0.3139612637809298, 0.32516626109081415, -0.5244956552432345, -0.2950805289267649, -0.4783511005327854, 0.4498606103354276, -0.17154575103587194, 0.30958559833725224, -1.4912097527368946, -0.1120647330363248, 0.9528732273010292, -0.5430037068468406, -0.30583330694693817, 0.9685447148839041, 0.21058634599458056, 0.03008357760538718, -0.15448523196707867, -0.6178051130770055, 0.06524979828451655, -0.0006935236393962069, -0.6267354318511539, -0.872441564913301, -0.91688836493654, 0.3674444801382847, -0.08806981375501441, 0.38595292229442796, 0.17512505182189067, 0.3478482002179036, 0.4143756589131818, 0.6143495620451289, 0.7762558274777831, -0.08142779126885745, -0.25308187990477593, -1.0264750050744857, 0.313607372805609, -0.09559186212562751, -0.6103492165456442, -1.012155783755218, -0.6395873654471511, -0.028360675347371158, 0.30920030804071824, -0.42047030108584493, -0.40487430740577235, 0.9400589236651253, -0.24734424303377692, -0.0075605189352595855, -0.32064452966607876, 0.00745284984542899, 0.22363251198156095, -0.4061782689168274, -0.0787381055272103, 1.0642490482405706, 0.7459642052524202, -0.28530592124585413, -0.1651837633647211, 0.40327147130144636, 0.5801216560623752, 0.8706372752048628, -0.26486935001292927, 0.12456393899912901, 0.133515130512504, -0.5023510640101181, 0.10152229400352195, -0.060213520145420814, -0.07446399892005064, -0.6848022838217358, -0.10781446397176644, 0.11605974204725276, 0.41431525906278877, -0.09862773168569408, 0.04817877062669242, -0.156311897926465, -0.42332111003690215, -0.022218187476878603, 0.9805228131699323, 1.0727935861409916, -0.146205155787811, -0.3810065806458745, -0.3339612022593988, -0.6800430465559937, -0.4746694601486382, -0.26211131896099205, -0.3854749872977377, 0.10822506679846806, 0.22119028105905897, -0.18591045431621464], [0.5387462258168499, -0.36223040337389384, 0.6568971101514559, -0.9019473005387153, 0.018575005153679942, -0.3242307900246316, -0.6312313574678576, -0.46774903926803535, 0.22161486715532022, 0.6630910410651554, 0.264254458102362, -0.40500917837543127, 0.4541622210448915, 0.5210264693698882, -0.7473357299516012, -0.12944188837557152, 0.5723133640452308, -0.5332807983901324, -0.3286715316281724, 0.4188981204211624, 0.2263150877500126, 0.862494992981536, 0.14469953181939665, 0.2207279871661992, 0.32489634691143204, -0.039340347804234496, -0.08777612160899048, 0.09328595632769336, 0.6772872431326138, 0.09623314410074234, -0.9872378836637241, 0.14093956640984293, -0.32029310306667114, 0.31107813877416507, 0.08602568228941208, -0.040332193364340886, 0.0005285812428656545, -0.15110168514229733, -0.4357231710939924, -0.27825318602163496, 0.5330931317922737, -0.5463963840509317, 0.07466931368115733, 0.21480272411417972, 0.12677656313182864, -0.18574954075015132, 0.19530243737844843, 0.2136273944801986, -0.11078034345950345, -0.4222056708177988, -0.30017496711899283, -0.0873502444527059, 0.07370757217286898, 0.23547080937930026, 0.0064154946560585156, 1.0560485603997782, 0.40597378051110083, 0.1486826437238426, -1.2147600741074975, 0.041357269451196284, 0.19920796764037216, -0.5414250710763147, -0.37472762751465355, -0.5144291423694636, 0.8023243011753415, 0.48117298570346906, -0.32336068677673163, -0.5008757166801409, -0.1900628150365515, 0.42724998308061685, 0.5197917577642425, -0.2816523238443516, -0.021068770660580723, -0.7614026080558091, -0.4521775499199605, -0.32604525053101474, -0.6775773161671612, 1.3645300325550762, 0.5587458096897283, 0.11833695128760681, 1.1499996756807997, 0.5628095586329932, -0.4028233909333421, -0.5839378152611139, -0.08656681050235135, -0.4103524496124654, -0.6518521561187596, 0.41628994111725914, 0.026014640547220025, -0.3997748418954591, -0.03333752533686321, -0.40025385489676224, 0.3816976335885875, 0.3845533222092209, 0.4979452309152186, -0.36499583382668627, 0.3244954424852124, -0.29364549154097896, 0.40417531664479994, -0.16532790396179095], [0.12299323749372866, 0.03551294843697194, -0.4896578452085252, 0.3540526117784333, 0.693532773292044, 0.6346598302648802, 0.3379929288970559, 0.15349375599929982, -0.6580867525525362, -0.53633201118472, 0.23511088909206937, 0.397508922544503, -0.486570186419286, 0.17092175101015783, -0.33670074325786503, 0.6419721991342605, 0.20086770806509008, -0.6706722914381534, -0.16843368381189544, 1.031618341243336, -0.43386857938769463, -0.036437553062427734, -0.3250282243320407, -0.15995777508666756, 0.7067383979954646, -0.4237965953938324, 0.11176686153341171, 0.01050846413436739, 0.08925452660763071, 0.16788948218950983, 0.7466689820314746, -1.0647083853926078, -0.028670850103961643, -0.07147681812142896, 0.04573454090301469, -0.28878555587376004, 0.06224873276443626, 0.07528342545677745, -0.3222443135875976, 0.04953149500075434, 0.18947186590557413, -0.5263893206643913, 0.2834871441653364, -0.3640007081485686, 0.8486746656012247, 0.4471457879373339, -0.8959694359000957, 0.18094282767374412, 0.4889835048652836, 0.044023876098099254, 0.14740885889082003, 0.520932169095879, -0.6064096631317577, 0.1625089815034371, -0.2980007816268281, -0.09286764226546257, 0.06408499859989862, -0.19539156680870337, 0.5108264112973736, 0.6851461086915741, 0.4782534371188235, 0.2512555618996823, 0.3776227555076724, 0.06231061929784537, -0.4734702381911892, -0.6087855391871445, 0.3594934586786136, -0.18160389496548363, -0.8484081423547365, 0.40522456355037795, -0.2230234618422531, -0.49543929075151993, 0.0328613591918759, -0.02013614511024264, -0.29178995515228134, -0.3751988842219245, -0.4115464972557978, 0.34946657689526245, 0.5828449022069024, 0.18254968021030946, -1.2133179339918945, -0.9065758284884182, 0.46194442538846936, -0.11288639778650854, -0.5582615985655236, -0.6368881341598391, -0.225082516512618, 0.331240861852123, -0.012894749670006573, -0.03709279281209778, 0.6371657786365079, 0.2734358482904569, -0.6341850639653732, 0.48051794978870643, -0.8150969409284187, -0.9273019372680232, 0.2186500421451057, 0.5973948593495958, -0.0032659862858861184, 0.1626924713262503], [0.4087399528807948, 0.2765726525527822, 0.2747325135468375, 0.41680426863186004, -0.6717742173680139, 1.0372879111753743, -0.0712881924796064, 0.3772530238560067, 0.5480822662466182, -0.021940213987293948, -0.5250195075942312, -0.2694148944603871, 0.7879742169613417, 0.5835257413140937, -0.16488673032178094, -0.13721088255188862, 0.006861996282521501, 0.010128901256452185, -1.0112553279260854, 0.44767177571944433, 0.16662091356301537, -0.2292797843894082, 0.21763015912133596, -0.05124037391258537, 0.6835497583411142, -0.1807036172962149, 0.5225177840779808, -0.6001541356737864, 0.1649021946757665, 0.48703864033263555, 0.3559598468127682, 0.09212769311638573, 0.22765472777324194, 0.7099626421989546, -0.39581376753575553, -0.08935848167959723, 0.461337227512576, -0.2777052437357955, -0.23709478323634245, 0.8880938630115931, 0.009079018817168192, -0.49137354311877957, 0.11484610651821234, -0.7395743510791484, -0.31942371467159997, 0.669935145982948, 0.7477793344212778, 0.379884116275559, 0.8824092186008782, -0.230302225343036, 0.15671707699674628, 0.02494234739620833, -0.9352918596013129, -0.703185190101425, 0.4612811084533405, -0.5590102884543955, -0.08771032391914656, -0.02067368727487921, -0.23165527306370565, -0.4387011979400328, 0.3977929081303735, -0.7200852553689264, -0.006444062592529978, -0.960525781626099, -0.3988135180234766, -0.6660066073885892, 0.07012225497131684, 0.6851116807259543, -0.3619013432093717, 0.0042989186010989385, 0.2969877032894703, -0.5337452494815551, -0.5106297510375503, -0.39754379934265893, -0.930697722756155, 0.43328721924838454, -0.09641000137938378, 0.38158114819253436, 0.22291512041483133, 0.057493363285514215, -1.0075280936137625, 0.04094826021408854, -0.4780962161719995, -0.731586371789631, -0.3040892798288469, 0.16724308348172548, 0.006604068291951916, 0.10769950410988859, -0.8190263525545387, 0.08257502728602818, -0.7067325495104954, -0.06687334037557544, -0.08246258649394857, -0.12889950426158361, 0.48447325502933153, 0.170852107889286, 0.4618162650919608, -0.2822677610498392, -0.05085581553243741, -0.1520334887160198], [0.8292631744946772, 0.5742487426797117, -0.02925855299733394, 0.5939689896013746, -0.5901357924411211, -0.004834810278412274, -0.025874018677988424, -0.049057666272210365, 0.46608792579887576, -0.015454861528676155, 0.6692524522352783, -0.18541592991301778, 0.04794511580817564, -0.0623255633795908, -0.142560468923904, -0.6211430095430609, 0.20576533583409623, -0.12233505820156669, 0.5697750110612702, 0.334829833410594, -0.37220574351339136, 0.015705724663207712, 0.4417619043904348, 0.4448380070251545, 0.43489630429488935, -0.433548259919559, 0.344706938926614, 0.7004392238839061, -0.839441729732778, 0.27237608547172953, 0.05515096966840718, -0.24079322471036868, 0.09227688861132059, -1.0632382142633823, 0.38992045807339953, 0.19702634591046903, 0.7214853017978826, 0.12429812859733157, -0.09508394566551538, -0.5530698325967358, 0.6518434539752767, 0.21921252763310614, 0.3001770604671717, -0.22565530252579438, -0.7704043092368156, -0.36736194301911185, 0.09269508153759558, -0.34675401150925433, 0.5473362437842234, -0.9225885454046996, -0.48583664802233884, 0.8786972145657739, -0.7104184564831972, -0.297189458155136, 0.22120599558608686, -0.7109156113637617, 0.5774208002956446, 0.043787850794167936, 0.3091829903856431, 0.3724990032627431, 0.45557636560230647, -0.06450083999690995, -0.2667451718919366, 0.5768942197579965, -0.916067856358056, 0.8144475873039007, 0.22406738476025792, 0.6012289314203151, -0.865726816108072, -0.10445256629123864, -0.6199180610335997, 0.2140798760612569, 0.11000638127364694, 0.1617115449019401, -0.2086598834162248, 0.7622041849424501, 0.19528333316472754, 0.22117941007175332, -0.4179597992815958, 1.1210852953959307, -0.04919158170658295, 0.5613540225731674, -0.30829874415649783, -0.5304530239040117, 0.7118808876634785, -1.2163638763055131, 0.5476247898517146, -0.6239547654812836, 0.013070984957863107, -0.7188029442772734, -0.07133545972048508, 0.7714278803225467, 0.24335054375851395, -0.06721695022097006, -0.23911798413620275, -0.2211310185861395, 0.4823979525189162, -0.19235211472020222, 0.6075245456379114, -0.10472443036013944], [-0.3078586807207653, -0.058958051998891946, -1.0026281747381507, -0.07700997742037836, 0.8546317470088748, -0.7488881192966332, -0.2632728947974998, 0.18467547832112233, 0.01730833781862632, -0.16728474982079483, 0.182442952619381, 0.4926646480981728, -1.5147914443395278, -0.4408737998810265, 0.3993739811023573, -0.4995225245106772, 0.029049094408252495, 0.036326101890491014, -0.1720830533736, -0.3178049275245324, -0.28478241691328265, 0.35834888801710313, -0.19497699959680892, -0.30326545950092093, 0.4397429207117649, -0.9502838508692738, 0.0713423273579317, 0.9223035049031814, 0.5693345427815993, -0.31629315303526406, -0.21412070003412845, -0.7221556710658112, -0.4263258701219283, 1.0215613758608009, -0.7133117083430824, -0.09157666336090993, 0.6507345841724054, -0.33051586478298917, -0.11545013583256615, 0.18728142578464935, 0.15320366953168663, -0.11337170061532767, -0.28430925326545836, -0.35763729216673196, 0.3853286800560156, 0.5481077793525364, 0.1363827761039007, 0.5352262115495673, 0.05867935366083519, -0.01176298021564128, 0.8522872503821545, 0.38062111520941294, -0.44628831005414776, -0.05407659239543386, -0.3212110827183815, -0.08463890355279918, 0.12846874317873525, -0.04527257677134693, -0.5973019666475737, -1.1839407790718228, 0.3613262306538171, -0.024297576495382014, 0.19216683883570718, -0.28154660858303154, -0.25328261921874623, 0.2633825786326846, 0.246907385467561, 0.03934811290775603, 0.3224138480529705, -0.2678200093106885, 0.552596219681223, -0.22305650687303077, -0.6334428743498971, -0.3143616456885558, -0.6462645309413251, -0.4055075083409337, 0.9317550730333682, -0.25625907487283134, -0.07813737927022887, -0.8479105954899442, 0.19524547389891467, 0.2600563607435182, 0.7728339078537468, 0.6280525095945921, -0.3447877368683902, -0.18562360573636166, -0.748063321713322, 0.38336197881397605, -0.42500229147612, 1.0570009001081633, 0.0553124502009445, -0.26217006511775665, 0.6061042046028879, 0.059412425005556956, -0.05148707791608942, 0.26559188862158956, -0.45710802474411616, -0.3548461947721779, 0.38050923076833243, -0.5965745456499556], [1.0821987866243188, 0.06639042850181907, 0.2284543183537922, 0.10200477641239193, -0.05177229586809916, 0.44145133276352766, 0.23085070846839625, -0.2726405779463099, 0.39357537183199287, 0.07313617160186067, 0.3424216250855079, 0.007024320056189806, 0.3589502006356379, -0.5975129473513415, -0.022225928513837295, 0.25673426341944333, -0.47231235586034337, 0.42373773359578604, 0.2360071448775346, 0.21304728531170192, -0.23308829639091494, -0.3116687310987472, -0.0492525647968679, 0.17281614624181182, 0.703164807399363, -0.20642889173187814, -0.2049377944872642, -0.034801409026821106, -0.5989434438674799, 0.14038162626128123, -0.11691835177321681, 0.2836845340634417, 0.4734373857254433, -0.19668196179057662, -0.25812980326611656, 0.554358274259689, -0.7529165276285091, 0.5522355615874373, 0.026972131213937368, -0.31499503689427805, 0.2908929370186114, -0.07963991677242403, 0.5713879006950104, 0.4502195441571177, -0.09565559332120487, -0.2544631443340479, -0.5765099143068768, 0.5497429194822342, 0.45608141994135737, 0.020402597707782816, -0.03493218102771069, 0.49462723587636526, -0.04618061127066264, -0.3054400690822179, -0.38001718015913016, -0.12902219672246493, -0.14983522327592647, 0.0568777694634811, 0.321411862224592, 0.24083320484905402, -0.8775237746875969, -0.2186950161600045, 0.28331413853511045, -0.237473069511134, 0.17200308770286357, 0.11540577233391018, -0.5570604012440563, 0.5500463362117446, 0.3792923264859629, -0.8261205404727635, -0.12288636174077129, 0.29458037764925354, 0.45880269838462656, -0.10516012199264325, 0.4374803691796868, 0.32560557320790623, -0.4040978247965099, 0.2635603135110801, -0.34578581179542295, -0.7471093727799036, -0.522850556493126, 0.8577690434806434, -0.15058888850280702, -0.29076465864455375, -0.10321045545279436, 0.1298085028956268, -0.19330663202676057, 0.007705936125994167, -0.19135854675894123, -0.036670683695095026, -0.23109666551519129, -0.185853655748761, -0.4261485577330947, -0.48039997244555377, 0.07930596892971595, -0.2994245140837695, -0.8237172414519144, -0.4011587978681411, 0.4663067637828074, 0.7552848698096791], [-0.3420397961996181, 0.4258768717406395, 0.10747040352386387, 0.5700043638394561, -0.5896903849075018, -0.6050722973303952, 0.11319119843624452, 0.38379007722747555, 0.633343001884205, 0.21848348881563087, -0.9598732874421214, -0.17428342380966558, 0.16251035609839964, 0.8695760512239235, -0.10818717518659468, 0.05950140754593175, 0.03919109186617535, -0.046360167188038884, 0.5624397564658266, -0.7866632058576265, 0.4426543325951559, 1.0251828178102174, 0.9922171658816096, -0.8327735491420444, -0.17044783705893196, 0.10161767427534195, -0.33491555159560266, -0.19254854241520364, -0.09553301310792794, -0.9652568297830034, 0.17459613557039075, -0.018165010220172247, 0.3430490968289936, -0.9267262381594865, -1.0220282811207357, -0.18443929477812854, 0.8460912835707856, 0.2734949311801089, 0.484950707504965, -0.5649039993730918, 0.38094343924245677, 0.17353080528054696, -0.22275833466698525, 0.6380060579592775, 0.16536867261598007, 0.43446303128624986, 0.017296555513062944, -1.1152975238478633, -0.78203995423584, 0.44171261444527454, 0.9492021860438549, -0.5668748793749351, -0.24777096403047927, 1.0340010230607017, 0.8082995980443646, -0.05717620984907916, 0.7629218227224592, -0.039491506541030355, 0.475711056112592, -0.4692627388163666, -0.32003234264297237, -0.19893376271493707, 0.06763253562436741, -0.24891722598180915, 0.3586217336786729, 0.5634387224813469, -0.256815921559252, -0.9638990587886082, -0.6418878120011837, 0.30625183187366634, -0.12499778470359851, 0.215484397210645, 0.620600769773153, -0.32737974566583405, -0.0831278862936902, 0.3441150180088569, -0.4520127259970623, 0.7907721521478008, 0.39290896794018054, -0.4248379443366311, -0.7809017031641812, -1.2546606743109674, 0.7664652901956011, 0.30514127202166524, 0.07884843253067914, 0.6192025138971259, -0.71473974763257, -0.6332803865795452, -0.13726164789427683, -0.003862119735023073, -0.7132077016830116, 0.2403025661228285, -0.8141776769820058, 0.6892570653151455, -1.1573087827083417, -0.3000442015436527, 0.3079655516018607, -0.4134832932840086, -0.3327251141568081, -0.3984767867175206], [0.19467225130013394, -0.21503320457048944, -0.443924185438758, -0.3169845662271292, 0.6401203134319676, -0.45930517726890224, 0.7212708146338744, 0.7884799287200179, 0.6508276090123023, -0.5328033936550503, 0.2646270838298098, -0.08886921182689829, -0.43063686882302316, -0.14167725787798802, 0.9957465398507968, 0.033914131616137475, -0.5857052848204503, 0.9838874911957372, 0.8070002850103446, 0.16104988987190258, -0.03326471964882744, -0.1404847769408395, 0.1991557712279035, 0.3487913590113209, -0.1867567408066594, 0.03560897641621237, 0.16869216721739566, -0.20305218592083252, 0.5529419167815078, -0.16237989679408438, -0.12162210021056066, -0.505612860343056, -0.35166684664961473, 0.04762204917349438, 0.2283597005788173, 0.34549231797033614, 0.38236366155976165, 0.21185565162259343, -0.5134794741058677, -0.7107487557566335, 0.3006817426801862, -0.5346233452966668, -0.9408005163401063, -0.9454279127990127, -0.9057907883590647, 0.06200695467319382, -0.3237832249714813, 0.9832076551253534, 0.12269802870577118, 0.24706446615916142, 0.7874141989501261, 0.2685878179514409, -0.6867768547353366, -0.1768772280654459, -0.7007974101767391, -0.9122485165881956, 0.07238558341653867, -0.05412087921910282, -0.0734111700452248, 0.12748451072901656, 0.3293258484351871, 0.10277235566280253, 0.2170834980201053, -0.6015650860068068, -0.5850632732838963, 0.5166846817960901, -0.16593926004629664, -0.13819492418543422, -0.9046695771705215, -0.1614448274617838, -0.03668923387612482, -0.26979029708879854, -0.41688821505955115, 0.2953126219967275, -0.5382851688884162, -0.17462481168123117, -0.1446975480789702, 0.3972499665266853, -0.648863143344247, -0.0699257217241396, 0.9587756113446636, -0.35451825579426605, -0.26863261472054595, 0.5153665057345242, 0.22440072771482572, -0.8942074815482732, 0.4867354347563232, -0.2514690356387818, 0.9117393823034322, -0.37148743014908314, -0.24782389913867056, -0.25859993776067697, -0.2555019677745386, 0.8087899923120595, -0.27617262806698273, -0.09970963926670667, -0.36623494672053947, 0.7007541877983998, 0.16044896818496138, 0.0171731901496385], [0.34421708821852126, -0.04691729015189362, 0.7518349368605518, -0.12973729917257973, -0.5830365524631211, 0.5670758742689931, -0.10084063348162342, -0.2397027474653405, -1.0442797782965751, -0.26523742930989636, 0.04475417802964496, 0.9817160912546075, -0.12211506267864988, 0.65448316117647, -0.564553423045334, -0.46859620160914117, -0.6801846254226044, 0.5542031144396853, -0.5055440508121688, 0.7068551667937233, -0.3423365700845488, 1.331758817861383, -0.5349924059126403, 0.1844025113092509, -0.1212453460894815, -0.5279608182062949, -0.5000955523025066, -0.22937705659759916, 0.5310742580065689, 0.029214781142073595, -0.08932825557989128, -0.07380771778776285, -0.28396337996476145, -0.005756985600297037, -0.3264922555895947, -0.1990118687948302, 0.2201685466982192, 0.6674654444941818, 0.5749250065149673, -0.4454297274217845, -0.03968435548931047, 0.21272608973198073, -0.7091161471469474, 0.35734685005116135, -0.4594856997151998, -0.09624706765048799, -0.7647166602603672, -0.5292433693480293, -0.5641998379845558, -0.5841924214138952, -0.27389627155606366, -0.3208641012054138, 0.33111325670293984, 0.30268154992769325, 0.07761126238709497, 0.12866978132769502, 0.23594007745813128, -0.9476680803082805, -1.2895687812490146, 0.3995112018460737, -0.7204861362706346, 0.32665138865392934, -0.49615212462539066, 0.6268812038269543, 1.101909007305926, -0.6360935062425601, -0.6043318327215053, 0.6927779058689648, -0.28250146633055184, 0.26120784132988306, 0.6589698881712658, -0.7906760857325164, -1.0505954363291872, -0.07695220797648693, 0.5972124488462791, -0.8114333673949664, -0.6747565278226554, -1.094680277936981, 0.43473176485808446, -0.3744302162208911, -0.16526769090655585, -0.15949394938385847, 0.9275914602816203, 0.42586172099878483, 0.2270892003584779, -0.47566160097485827, -0.9987256742357447, 0.3533364993397511, 0.2452823462717697, -0.10823804132436858, 0.6418164717392535, 0.04966760657698147, -0.03146643885086081, -0.6475465909151913, 0.008367462895031383, 0.26459686216265627, -0.7693640132906092, -0.4415898713088114, -0.28957695346796813, -0.27978921638464677], [0.8235123504542601, 0.01329804011981429, -0.2879250762144057, -0.1054310471631401, -0.003789015079287136, 0.1729568802369492, -0.08380286174884606, 0.2732999387552429, -0.7053431192580835, -0.1889175865874473, 0.2676907448240038, 0.4778904961297011, 1.3165636775513176, -0.757112547027331, 0.6779403630561046, -0.15339981268268188, 0.18264611234924363, -0.6039485990319577, -0.4522604357841747, -0.6116474379884724, -0.11972780858363109, 0.7843446014070606, -0.16446957820997876, 0.8571610308079027, 0.3676277883728041, -0.6976992536218256, -0.4866018722739003, -0.7684821648331457, -0.04739186581572454, -0.8376293119789137, -0.6538485866908336, -0.46120231335403866, -0.5353923936527016, -0.12562755621587107, 0.15938927182984838, 0.4596633816449893, -0.6384234418745578, 0.6167012356950909, 0.14075837084267617, -0.26581136704191183, -0.028632899703777085, 0.08348165069573218, -0.742558638683686, 0.3611959380437782, -0.6074345836918118, -0.49485991408535024, -0.12601918847680563, 0.5433093159066024, 0.21131943833387595, -0.4483157982863798, 0.1803622519259422, -0.653766932556132, 1.5283545088398836, -0.03587284372342255, 0.2617639281082314, 0.11286557860714634, 0.8266083661466198, 0.06498304318859688, 0.08914976746597278, 0.8857714158767377, -0.1575010369206047, 0.9676130014640345, 1.0296937119881677, -0.057860161482973065, 0.4394969553462015, -0.8027229293612457, -0.43552499806747325, -0.5461600246190484, 0.4637410366918566, 0.08238958945212184, -0.027585987417409606, 0.07849771200029224, -0.10823875730112208, -0.17812295712620357, 0.21974374042510986, -0.0941020662767811, -0.08053728894144403, -0.4187471241029747, 0.899595360072852, 0.11253112670479555, -0.7415431150210429, 0.0619422125129731, -0.07502278854186704, 0.7564670172446093, 0.6524754851096912, 0.26590513115395775, -0.5326377509457288, 0.008752618784555223, 1.1077051296953766, -0.01677087528643879, 0.6159388761195608, 0.4530510960545613, -0.4234539734486547, -0.7254125202495539, 0.21520572802901264, -0.7355853656834067, 0.011088872406170996, -0.6250450283069341, -0.11552274016322592, 0.21100590821311418], [0.056105589361657965, -0.18764837808960624, -0.2817489249758324, 0.23629111163086455, 0.3436025888685576, -0.6156403417515656, -0.43806925384937384, 0.09816143253703867, -0.37759471937524225, 0.18777010662000565, 0.5071843414207339, 0.6294471755304545, 1.1361689566903075, 0.45292709416464966, 0.7203389447536115, -0.41884823967370177, -0.09737621642501258, 0.22488151493165107, -0.1910706932802869, 0.30795921845147883, -0.3155155186943179, -0.2439157563895476, -0.18558728328182542, -0.5469537946225203, -0.6091065645734461, -0.13626906584923834, -0.1324160298064189, 0.4395967982837351, -0.2678893268989783, 0.9822372894079073, 0.2325637385642194, 0.06480132075053012, 0.25745036302993257, 0.12142361433768663, 0.028354937292539264, -0.4654254133544909, -0.5805208182221274, 0.2811897847847906, -0.3978911888700874, 0.6374400436889619, 0.32540142118756354, -0.5517010038884708, 0.1797318103968674, -0.7392689683129152, 0.2991821565539623, 0.06300634240172864, 0.46480777461199263, -0.1290098197611861, 0.03860741359363349, -0.13572825824946264, -0.8875191952371503, -0.5276421674148268, -0.6093986232076362, 0.00397704839412959, -0.18590319383841933, 0.4041654091659006, 0.9120649672990455, 0.08914398516087543, -0.9135209271277103, 0.1681258481605733, 0.05199815017076512, -0.23884000087602283, -0.33655380838881116, -0.46790077772812244, -0.18768089432262414, -0.4072010728209763, 0.6160903589110736, -0.28177536610551396, 0.37327998822311187, -0.42196377288838327, -0.484106163207505, 0.5018261206541689, 0.4280533328236126, -0.5338391990354246, 0.5388267820989843, 0.46131039910727567, 0.6511447996174629, 0.20436823310983943, 0.3109591878964474, -0.33278433042731337, -0.20207544126029175, -0.5392640378954741, -0.24122495322919826, -0.3141617712379435, -0.38510646446729085, -1.5862364175543144, 0.41124469675204206, -0.1873287910197027, -0.36966335289956676, -0.546256505033659, 0.687993846508943, 0.016392538641382876, 0.2541121628977407, -0.2120334532375464, 0.2672262236847391, -0.12624341554070562, 0.5144226045517613, -0.184570530267486, 0.7905144109181975, -0.48232035185589495], [1.0149201292087324, -0.1518010751854149, 0.9771844175171467, -0.595322915611295, 0.43570288039257854, 0.39662657093541337, 0.4832855850540181, -0.07388482709517814, 0.07117603393830399, 0.33566605784790143, -0.2490367407438106, 0.12970881210867358, -0.651617123168817, -0.4797922480532024, 0.42377163369280796, 0.3533554079602126, -0.46844592744474084, 0.35790830868812235, 0.14058717022325898, 1.0357704066293993, -0.08854964272317122, 0.9305077544431574, -0.39127776798486313, 0.22516271252558817, 0.04400997759143734, -0.2939231849570553, 0.6032751796071345, 0.022183487971936425, 0.8405907760826881, -0.8699546303501593, 0.6328377122798078, -0.06265354613873494, 0.2632751224967756, -0.6265215524429849, 0.0934247755743656, 0.2350852131108096, 0.7276878498043985, 0.31557952250869015, 0.022855725269869537, -0.7310403618998598, -0.9192174255236442, 0.5353949014143056, 0.5064823375167868, -1.1795718626442817, 0.5077243282865674, 0.3808841148334577, 0.07766396147213483, -0.1008431568863876, 0.36291289917988373, 0.008716211978075145, -0.09990168100167317, -0.04235069789445243, -0.1416555164558019, 0.5736408664679838, -0.24032990723992131, 0.5584063016417534, 1.087177241269498, 0.8261048279212576, 0.8762892770269157, 0.060208641938674694, 0.7173851010099395, 0.411416291732077, 0.6958154509419092, 0.7671870637678109, -0.5060016558258038, 1.003747982312342, 0.5380657960756802, -0.23138398138996086, 0.20832646918217745, 0.8048480674076164, -0.8500688739017798, -0.4694719227712417, -0.6304231621190308, 0.05370007834630747, 0.2409892459972127, -0.3547415451217278, 0.027970895904794357, -0.11204492872235511, -0.9869326989105188, 0.36197145090205635, 0.0028436631401422613, 0.6415161828009089, -0.05559539726644862, 0.25046400470120356, -0.20456907029747884, -0.6857652474983399, -0.08416232287448118, -0.24367147199498132, 0.14848677053459983, -0.8725868597721564, -1.0912564535141784, 0.1483621978648495, -0.49235737486281855, -0.20212477130915973, -0.20808928825649597, 0.6553618356626427, 0.029704741541390415, 0.44859980158830803, 0.5526325164939706, -0.3595658008973782], [0.08425153958260202, -0.9672649640113928, 0.20465272805131804, 0.3264905926731344, 0.14458019116613066, -0.7423108730046658, -0.10014932583571937, 0.6691458478436829, -0.20286131211404626, 0.19773511290169302, 0.41325681149856575, 0.7346713626739345, -0.19432739537329513, -0.11193371381212458, -0.37294399270404616, 0.6858743974735919, -0.7533389764581004, -0.4097519778330752, 0.11046282620471487, 0.007918816199054757, -0.5912464409839719, 0.4044202556843823, 0.4391701911411941, 0.4695831209882449, 0.6388695200870362, -2.0239759359287044, -0.2613949009725563, 0.9097515423409523, -0.19566702030650793, -0.7800628541405497, 0.7264793846065815, -0.06174929469692783, -0.6147209665281979, -0.9204035069982153, 0.15676669574410002, 0.014404457790612087, -0.7593903341967985, 0.19788579399840833, -0.41811794823615467, 0.19926559952691308, -0.032262157985125835, 0.5287341598435573, -0.3567720465761928, 0.24574548694650447, 1.1183326396016264, -0.11006854584339827, 0.08965186600384421, -0.14751716339614615, 0.751529175230649, 0.5943037409761179, -0.26158272424723206, -0.45370490514527034, 0.646463115766424, -0.891327362962177, -0.3985092439927179, 0.6379463746576537, 0.46449453720970346, 0.8448255511008165, 0.0741007787231239, -0.23805593373740166, -0.22126391906052129, -1.2193888623134759, -0.6457026763397636, -0.8015183962358335, 0.03773093166589576, -0.5989234598895901, 0.09640906865562908, 0.16121537884756756, -0.7406869118464539, 0.3341369293368667, -0.16930916452535616, -0.14948396847458195, -0.3115472164425609, -0.6575003665149248, 0.25172184520331925, -0.4517083147124766, 0.018936901781807448, -0.3167251631072875, 0.5742881465669014, -0.760871148932525, 0.010081516451714123, 0.5348326417398759, 0.16370619506092388, -0.5620746733630432, -0.2543404052696221, 0.30206194294313243, 0.5250054815477271, -0.019901505192887487, 0.8694853702023899, -0.5136159069682655, -0.34111899508691945, 0.3420373463909674, 0.7230187898293591, 0.7178067638745588, -0.36024443330487255, -0.36408538919692013, -0.20175427755602074, 0.337022345146863, -0.27279087920086087, -0.43409296004493114]], "bias": null}, {"type": "batchnorm", "gamma": [1.0204846130785137, 0.985031037262638, 1.2318586095657496, 0.9573085504548662, 0.8785685029914096, 1.1526006332392438, 1.256821686065013, 1.0731383730953663, 1.3631554130314254, 1.3465861038815479, 0.8896685163951924, 1.0738162187003575, 0.9084302813580633, 0.894181498563507, 0.9919402188318363, 1.3328026232272108, 1.0988291950398963, 1.280059110069365, 1.038805566666827, 1.0957216478908556, 0.9995216855545719, 1.3147173692930014, 1.0363468861379501, 1.2955980360308341, 1.2958047215504178, 1.219572210578121, 1.4429652509677888, 1.0283029317285037, 1.068768769455436, 1.0641719330896118, 1.202978679841657, 1.236638911591064, 1.1165741003204346, 1.0860573968561464, 0.9964027990433181, 1.4733806944377101, 0.9860924622916333, 1.131972281735905, 1.5584643829954496, 1.1685809853221665, 1.2952811935468511, 1.0212305510346373, 0.9676183264065727, 1.2596672516433873, 1.0305430563022016, 1.2893529136755604, 1.2247637978584938, 1.1396696290942003, 1.0108480112598432, 1.0084937913947665, 1.1867360374960203, 0.9695366185376946, 0.779197906306712, 1.1257117385465572, 1.3695897093376233, 1.1828654751170606, 1.0207719866977834, 1.058143892859255, 1.0542686196262736, 0.7726365580902687, 1.279250465655869, 1.0142821051364779, 1.0304109873147118, 1.0651217019499177, 0.7103303113066183, 0.9102178274758417, 1.183190972705405, 1.3709331874468982, 0.9682263796701237, 1.2496900518861753, 0.9323627830977959, 1.0927510765918647, 1.0343910613847747, 1.3051355481252587, 1.1356001345941025, 1.1329949937949078, 1.2087361642232244, 1.0484569253121097, 0.8520992135501932, 1.111335255938408, 1.0576747805000113, 0.8348077576982841, 0.9382004850557196, 1.0410549136617202, 1.1603896616490583, 0.7995101025109961, 1.1384854550866128, 1.2466619078804286, 1.1152113299441726, 0.8353889227769601, 0.970847915633051, 1.3758418767432634, 1.0924653521125802, 0.7763588536766761, 0.9107399749060384, 1.2024629219674692, 1.0397465900014495, 1.1049769570324988, 1.1311373731940078, 1.30327513018833], "beta": [-0.47108346883132424, -0.12532642122677887, -0.3562673500992178, -0.10156149290158113, 0.529865610796819, 0.05356232376378939, 0.3734225065598215, 0.5156807600346613, -0.2507612154168385, 0.33513968513508896, -0.2191134622884004, 0.19972987956283592, -0.5662106836622075, 0.7523455659891203, 0.23373779791468335, 0.010711390383063795, 0.14270323475609675, -0.08819997299704106, -0.023461305013558302, 0.06917257325541441, -0.18843090069893928, 0.23016776402624348, 0.23629751183842818, -0.12521685774210786, 0.4717025473741312, -0.2890590912652718, 0.04756098153850931, 0.010485475702587786, 0.1375531353852507, -0.362663993164498, 0.16619042619774832, 0.15004286216074952, 0.1017601520209854, 0.20655425866502555, 0.0729560086339517, -0.158783221605775, 0.25925943617302843, -0.10818834124063782, 0.38299348739729155, 0.2616439946560687, 0.34034726114275127, -0.029517118689212345, -0.15533410747510853, -0.4968141643498567, 0.4130286701143432, 0.1843814228684102, 0.20885488059966345, 0.036982883134627116, -0.5686887047445883, -0.09078407559709172, 0.05102258001720149, 0.05292466792723115, -0.16618475066701255, 0.09923165997921418, -0.036046608042835396, 0.5432235148319149, 0.37945013367210023, -0.1376237126368063, 0.3313909722369696, -0.333898289004071, -0.07561468781768332, 0.2900025044310921, -0.17775862315369642, -0.21379636400027552, 0.08509688026855455, -0.029874654510233297, 0.4500374896195987, 0.16285052058792546, -0.32465475334683475, 0.4586184925697389, 0.49201875151771557, 0.45409517168909014, -0.25301323403394516, -0.19319030773042495, 0.09416607421204913, -0.06328003028918261, 0.6843589137526105, 0.042208369440873, -0.1440897845916987, -0.2880993757835265, 0.252964040463819, -0.22525243865559422, 0.3567082849934735, 0.09326975638730493, -0.03914040409326575, 0.019956744661954195, 0.06292767441095921, 0.20720635465620618, -0.09268490945950981, 0.14787262531620762, 0.1987822082904343, 0.07635684466504866, 0.2630618932965594, 0.3474391330681936, 0.10117242216716589, -0.23253747825655557, 0.39722233027457693, -0.5003625804089571, 0.13710116702803954, -0.5892524953400478], "runningMean": [0.7989021839039384, 0.4776348706114012, -0.06317570889923024, -0.25322829118283985, -0.5226437926882647, -0.23786897157309217, -0.11971242340670092, -0.5928463267397754, -0.6608686807696803, 0.05449099247321315, 0.4173314535022256, 0.6114754403186468, 0.786657702271989, -0.6116501074946834, -0.3810171542158766, -0.224812671865394, -0.9581866690664883, -1.3243385622143857, -0.523231117724112, 0.26733143702163986, 0.19512369207191577, 0.27913738333707233, -1.0329780964805477, -0.5001159824729802, -0.7761833184631539, -0.5880828290399126, 0.5008010475481185, 0.7732347464728373, 0.4168964290662757, 0.8490127592370826, 0.04885717579183189, -0.4602775002441095, -0.3549330974551057, -1.087448472359951, -0.4259344283641706, -1.574782448539978, -0.3997767728989176, -0.32221855992025417, -1.2750026885586283, -0.01482899313997035, -1.2756342028942456, -0.9717204524663235, 0.540021635276409, -0.26625491550048, 0.025109756277442996, 0.09554535937622587, -0.16444020968483541, 0.48041409638310184, 1.084626373290598, 0.17036165105870107, 0.13483759277961166, -0.30132502818984375, 0.07303739834127754, -0.940792040338797, -1.0723332495927385, -0.9398855697525202, -0.6356891044152083, 1.2223014419163432, -0.47710754852161946, 0.3091044410917608, -0.6493841395020136, -0.19609973083905355, 0.30390020696995973, -0.3296945098020964, -0.10837702514472478, -0.2975567456089781, -0.3080703396932493, 0.0020544553204524738, 0.08658565415101005, -0.943232972898407, -1.1356454329377685, -0.6933092844351071, -0.1367046616812211, 0.9998806197338627, 0.03117107696175126, -0.49087365762736124, -1.0257408147536713, -0.6796192500617575, 0.17348736517224428, 0.019624442625830553, -0.25318572279651097, 0.27130804611682563, -0.08518774367760994, -0.19238866466275603, -0.5505302741862074, -0.21165737633828813, 0.16621866239172722, -1.3896649943334618, 1.127979196005024, 0.3254012248172332, 0.3220002114524754, -1.406444071576396, -0.11426747230975443, -0.008310043399618373, 0.1509393229946713, 0.2451887520473734, -0.5232313266982027, 1.4660363886509882, -0.26673637268785916, -0.5089344509135196], "runningVar": [0.7425695551361013, 0.6887145009036595, 0.8519855784011953, 1.008468834837037, 0.5756108305141975, 0.5094708246665631, 1.2787294139634369, 0.94823430398815, 1.0295259885291552, 0.9157817800369832, 0.6791355631405618, 0.6802157293385737, 0.5294110185539047, 0.6818998975889634, 0.5326689745065043, 1.030876903606173, 0.9046020826819272, 1.2447198963032304, 0.6774225241667066, 0.6117327636576113, 0.8657370765013029, 1.0143997624743584, 0.7130572352885042, 1.120185537215914, 0.7577840272397482, 1.0731117985716354, 1.121145806287723, 0.8356870655837239, 0.6324542566695416, 0.8491079450283278, 0.7695420870011455, 1.1361075962321396, 0.7012253893412217, 0.554178131503892, 0.48669360842011833, 1.7740916012840091, 0.5289823227661414, 1.3311998081897394, 2.3151892848602644, 0.6548539053968941, 1.1592619755694211, 1.3568530607407143, 0.7822466490128668, 0.8071866724375167, 0.5657100259503316, 1.2107981932944507, 1.3597575129062867, 0.7172364072562405, 0.6444810101040622, 0.6753676540558802, 0.7324073586008418, 0.575326499635358, 0.3455586359225985, 1.176071292581229, 1.2629652587273676, 0.965050728639242, 0.9427189102892741, 0.6517283652640857, 0.6429364934122042, 0.6133896340379432, 1.258018064526964, 0.7507504182344166, 0.8153503205149765, 1.0826560173158233, 0.36332067336185225, 0.3784449843687273, 1.694833675514304, 1.0186704900551655, 0.5064915675997985, 1.4097068601026697, 0.5272750701822121, 1.2322969698005652, 0.7258761949763917, 1.1985296837784296, 0.5159507179739382, 0.5837070217634862, 2.067505450116986, 0.7959254657514863, 0.3114565663668148, 0.7284601959188309, 0.6196218652736747, 0.4233008494029509, 0.5795732217785365, 0.7069844323900695, 1.2077249044407914, 0.4043953361974409, 0.6495989392240041, 1.4982753522886259, 0.6507695769091296, 0.48251371995965897, 0.7832187507832786, 1.3947910247101556, 0.7794629985867094, 0.40921978475744114, 0.5558752254079071, 0.962220161276574, 1.0784298015424318, 1.1042395411488939, 1.4128511174867748, 1.7091604107830705], "eps": 1e-05}, {"type": "tanh"}, {"type": "linear", "weight": [[-0.0008259591561154645, 0.4511780009165097, 0.24271120746206135, 0.07376461463989173, 0.47119417695560784, -0.11483918712393199, -0.4346135815426982, -0.15674731052181357, 0.27569656866373077, 0.12801535032208142, 0.1314951609644772, -0.5339588479831648, 0.058688595031715744, -0.5010001733510241, -0.11250215343193674, -0.24189198212141158, 0.4913026993485204, -0.06501779324879385, -0.33324511770852255, 0.03560566610381294, 0.011843204819081138, -0.13267694716154546, -0.08940540239304996, -0.1382433538065532, -0.03938921130192602, -0.05845440753526319, -0.04180519155921391, 0.07298681867563402, -0.1390894554963746, -0.22267187818279124, 0.24328935620494782, -0.03195827967634736, 0.001094780922826507, 0.015252363206196877, 0.23260675488107754, 0.02295049047957957, 0.25143391223241285, -0.2580616521498959, -0.46564013737750365, -0.31963766409078537, -0.18456565723424295, -0.7371492225034704, -0.22641400500030937, -0.014752017972867236, -0.04217970940562089, 0.22314149818713863, -0.5798411223615708, -0.15440559152569544, 0.2421387662720799, 0.7161124515585663, -0.08957196584172915, -0.11118922254716503, -0.2409928094241772, -0.592779312586853, 0.16509488646975667, -0.028405096729755636, -0.019911813398392514, -0.32492282947381873, -0.2573799492369172, -0.2847151870089191, 0.13569106671938547, -0.05731854363226555, -0.011859579287039054, 0.21305553394791812, 0.4626226284946688, 0.10002346072012244, 0.45054021632394387, 0.13004072340662484, -0.13485670290404675, -0.003022279838486703, 0.0512127946058629, 0.0019873391482102425, 0.12408222002487325, 0.0048274842285358525, 0.07900269395296655, 0.24716617530511376, -0.2602126291264267, 0.000825691781906632, 0.21703663045002902, -2.1591491231058032e-05, 0.01388617567118056, -0.11572365645607884, -0.09724954365771375, 0.13707477121073475, 0.3267099598500592, -0.265305466159997, -0.13714134338189576, -0.102039892469114, 0.010071587325354441, 0.04101494540168709, 0.08339881328989306, -0.06810329224789727, -0.038640858075207604, 0.04576292706667234, 0.2203951078782163, -0.28844435539553187, -0.00987215001169333, -0.09810085513813734, -0.1825715990152714, -0.1551948613323513], [-0.09975569200825211, 0.1469374407801024, -0.038420994810986965, 0.020786397335886025, 0.289468882685192, -0.18907395840982724, 0.3922692380309158, -0.006676190317214767, -0.09891841045623105, -0.16015220130129043, -0.3900584487455084, 0.15186257272666925, 0.2367756870657268, -0.0445470717009616, 0.08517733506562677, 0.011897976576967841, -0.33723495842631146, -0.350278708936395, 0.0651073121231294, -0.3222974185896264, -0.223066900941243, -0.12373519776167863, -0.26017322002889565, 0.09984273105001601, -0.09896893313719375, 0.23527562942850838, 0.25801564739073635, -0.04860207976345776, -0.08560618122971458, 0.0025825762017436258, 0.3059062094363335, -0.15801339680409565, 0.15124261584102497, 0.07235121596030593, 0.06978890688300206, 0.34349969261495855, 0.0013192170580433253, 0.02913293463487429, -0.10494045455086885, -0.49985885786839435, -0.19178871320104063, -0.18247060175913835, 0.23042879975488884, 0.12283253271353199, 0.5444437544971672, 0.2440613313924382, 0.0453576015108319, -0.18168932945677943, 0.04176355613430483, -0.1371604206363305, 0.38741402484341514, -0.0028771456460095833, -0.012530376290115492, -0.008739063863622814, -0.03222835749784913, -0.005800904307004379, -0.0836713661458214, 0.32793497160471824, -0.08931507432905038, -0.12009920552847378, -0.007249775928659244, 0.3910480729925352, 0.5526980132012467, -0.16058175499925287, -0.47173119270906033, 0.12104531135329614, -0.18029058752090543, 0.09613902700671303, 0.19297932181373445, 0.04874877608100142, 0.19228522417015034, 0.49061086779863466, 0.16631090984572708, -0.04448724764478793, 0.0696879666169196, 0.005826838301973861, 0.34736757756012837, 0.34338633548024305, -0.02594451300932622, 0.10635416647968476, 0.2968071804806493, -0.4485558384083062, -0.2123144446458815, 0.19588000541255862, 0.3184317221461437, -0.23937470007077744, 0.2803725283858139, -0.32717371846144166, -0.4292431167635953, -0.33652169144401556, -0.08636524107877583, -0.054965831646562054, 0.07363548106617604, 0.14391714941526085, -0.17074999834538587, 0.2980647135965481, -0.22217805495979115, 0.18815104623129544, -0.4494665076196253, 0.05461674705064591], [-0.03026112829294779, 0.649547832441133, -0.11688311346663267, -0.02143163765913918, -0.17185702135107964, -0.35587864375917455, -0.1398592694128532, -0.0005186811677462006, 0.35170075404749607, 0.1772476189046304, -0.6007309797766677, -0.3803396373994514, 0.22894006850187879, -0.2916228483772603, 0.3370142433374548, 0.2783291796375374, -0.3997451147744463, 0.18070519368116075, 0.025086658243635266, 0.1272148436991216, 0.18872899290329181, -0.4888175643057291, 0.41308665436330017, -0.23029827003560616, -0.15190117597659997, 0.21572572034073664, -0.6033052872225362, 0.3091148910296169, 0.016406592095784253, -0.17544649536790927, -0.038695077850663236, 0.31357016228076995, -0.3313326552020918, -0.49417089517072643, 0.3542694137537133, -0.6065459725048303, -0.06550901344598146, -0.2828676128171695, -0.13904031735828706, -0.30711548187694326, -0.2726582864782912, 0.19554738493714613, -0.44195283913369576, -0.08512899519521168, -0.2645506723081684, 0.033806201624730865, -0.270876951643756, 0.2052360680220228, 0.09769369247224982, 0.2650417931471573, 0.3846277428686771, 0.00458781121230639, 0.16203836770154748, 0.29494890451456446, 0.004071375599387027, -0.23286245048481838, -0.0015118663699871492, -0.13096519252518252, 0.010108030549366565, 0.02006655989663226, 0.029034272862035023, 0.09994629984631423, 0.1412861654459733, 0.264008624531486, -0.1569063362125015, -0.4220802516962003, -0.04986685403525089, -0.18259455972633498, -0.14081432589500317, -0.4902643642336266, -0.17551000915037296, -0.18599141642143466, 0.35156392658337016, 0.566478617983044, 0.06975635279652877, -0.20339142416218206, -0.2669178734519661, 0.10715614621860699, -0.31266784572833395, 0.2814503630390667, -0.20471796849370194, 0.41442474301213017, -0.20543261986473055, 0.16615581410213567, 0.15799436519293064, -0.136476341946452, 0.040985292802005975, 0.17855443908961227, -0.3912587068342084, -0.1626840400443074, 0.06943908640118265, -0.006887779385712434, -0.15004793865394844, -0.08380588925657052, 0.07114513059075986, 0.1202575778147892, 0.06641470976793518, 0.09096476536368302, -0.10531071193498662, -0.1825125696221731], [0.27432833606940676, -0.13573621295323438, -0.16444810288981968, -0.15323170201276148, 0.030988103926749555, -0.37264571491050325, 0.1977769265147747, -0.04039376083111678, -0.5603736921075112, -0.21641362798855543, -0.20865154167962477, 0.34153871780895684, 0.1360930854193488, -0.23274179952523708, 0.3034566775576338, -0.01308387737152716, -0.25013457172780146, -0.07617662406331394, -0.4419226519123149, -0.46630635831472267, 0.23496278963443318, -0.20506956600496348, -0.3729117055661741, 0.25658884478651167, -0.02392528028360736, -0.10006397379805675, -0.28977227157289426, -0.3288426663702377, 0.3688860977360602, -0.14197337695101528, 0.17527370192212882, 0.05364969288465444, 0.04002782695797365, 0.18427048715077582, 0.022340610743305272, 0.250290037617399, -0.06612105103703729, -0.040101018814580745, -0.09547853629209106, 0.10290273701560027, -0.09104991884100794, 0.07285025001863721, 0.2468866886862109, -0.029491458796181116, 0.2538887789359841, 0.05178083644017389, -0.11146192900190097, -0.38245708750780555, 0.28738457560275776, 0.035823653927508685, 0.004746472572397044, 0.1714527886686395, 0.12063998154751343, -0.00236095804142225, 0.41121360254332434, -0.5810115145517059, 0.31211672683640623, 0.21126919331360103, 0.1325916042465549, -0.5501952761015763, -0.09037044202386278, 0.36422604387204854, 0.056607502278954065, -0.423543557374147, -0.08774537055299673, 0.022290138179314575, 0.06444034017326074, 0.46247369554586926, 0.2836587962115519, 0.149086569157058, 0.4123937907757361, -0.09697481399394285, -0.010324677947053575, -0.016311264036449235, -0.21715785324387557, 0.26701171415905717, -0.15832677530658396, 0.0009406550019625496, -0.2087694945027081, 0.332342868468653, -0.20727972924666785, 0.26918434319086015, -0.36056712277944, 0.1526228380036196, 0.03347859908154529, -0.20697300346910946, -0.29279334760517134, -0.25771735098677023, 0.112324511275875, -0.14130350355364577, -0.13896067423627065, 0.27077459134061777, 0.08144172660305671, -0.07450074357324853, -0.15238984580259665, -0.20799217244663024, -0.2655445265120713, -0.4658349280784164, -0.05351841415587871, 0.13314193432259977], [0.3834747679804877, -0.5410741694250748, 0.10980359201923262, 0.39726279973976775, 0.027648208727344727, 0.08828930984117976, -0.4292972703324583, 0.17232053830487126, -0.14063546299997473, 0.06227844449877044, 0.4196931103733516, -0.1471510161799646, -0.08343361688691023, -0.003680494281926746, 0.14981714849703806, -0.23909981492347113, -0.2954472479184327, 0.29924930971232794, 0.35667429908622805, 0.4740335025506203, -0.4130268561273138, 0.46480306123743936, 0.05516303428885434, -0.11558270160790338, 0.09269342611293044, 0.09061812366732933, 0.17612601482889792, -0.5456901718904736, -0.13131520091663368, -0.3421768526989593, -0.15455050764355527, -0.13293315768603262, 0.013241513743845036, -0.21204099488127875, -0.5811220966337659, 0.1134975988148694, -0.32323417150604605, 0.10182381253012154, 0.21666451448151375, 0.14395760394252305, -0.3103390077216165, 0.2597094798026274, 0.2390841410100781, -0.021327206365969346, -0.6863502856872918, 0.39875974224902766, 0.4442038709424498, 0.07914984609829696, -0.45406977288627515, -0.1083521768466936, 0.20558454851073835, -0.1466241859827346, 0.22004759552138345, -0.2029142246376191, -0.5010130888926746, 0.01879094079949873, -0.2991872413888835, -0.19938797540806724, 0.12647571525140325, 0.25796065294947207, -0.30739644144718453, -0.20050323988679017, -0.2675536898709068, -0.26209712852937556, 0.26576702520333206, 0.8143932412887791, -0.09661437872804952, -0.16740994777305981, 0.34507649328190826, -0.22938014616950192, -0.1096104609875153, 0.6369369347464353, -0.2739591886830097, -0.2394851460444112, 0.33232771635617997, -0.20163658837524243, 0.10152787130864106, 0.263333989692183, -0.08914082821872243, 0.12667854351145239, -0.3752309501602872, -0.16512857625872188, 0.37127670982743277, -0.05541278479399523, -0.8133870103654198, -0.032177810684327506, 0.16597948308923618, 0.39342712534609825, 0.2803411197422684, 0.03717027057238068, 0.22841467459057155, 0.47246481261828105, 0.10269225295650111, 0.4961374235652687, 0.49597968665417863, 0.27382011385043326, -0.391526334145006, -0.0335868300317856, 0.12388709785236661, 0.0967464440034798], [-0.23998997368797578, 0.4855748012619885, -0.2150902954395814, 0.1033688053031149, 0.37941251398965276, 0.201956450355056, 0.17720410059954494, 0.06348332830151503, 0.6274395262916003, -0.2727856053456214, 0.06580864548114092, -0.30629337303323395, 0.5940324027085866, 0.4503798045108288, 0.10236602720934429, 0.19901392751791339, 0.003329682398033374, -0.40819113760466225, 0.10557477298557018, 0.15442419003118366, -0.0954117784101978, -0.37279168658188766, -0.11748186833770341, -0.20237384363696873, -0.0905669404294077, 0.5052994612906362, 0.6123246231285725, 0.3251969244209806, 0.21851343141890792, 0.39999418744943094, 0.1102110650890389, 0.06315053583093448, -0.45598050250251837, -0.013452852041118225, 0.02961147418716873, 0.017996937910441962, -0.1394722388396126, 0.10485381777484377, 0.16572851301299948, 0.029911466003123464, -0.14430907422968264, -0.25586208252161025, -0.15957875874949484, 0.6086021411366179, 0.37818505329066904, 0.1827729340492594, -0.12939757972958338, 0.04768832505153533, -0.3643507125155441, 0.2087207423485601, 0.022436205892168163, -0.37881362061772095, -0.2166855197638899, -0.22858458330254872, 0.15531191756040952, -0.20873085430186086, 0.38018032334344976, 0.32240319277981355, 0.07041674089421873, 0.20877575580218571, 0.28696710641916695, 0.0959099847729147, 0.05934123175524, 0.4451051823052991, 0.438733486552088, 0.37609144986666077, 0.2188351476837507, -0.20774750155191973, -0.21104118530204388, -0.2623529739726217, 0.3385592351300681, -0.16137952898533695, -0.15689235348500086, 0.31554701340898456, -0.19054655100192536, -0.21417052137668585, 0.11665931157146218, -0.09662627437043353, 0.04425985865617847, -0.07354942494677179, 0.17823162005062954, -0.1351852926072386, -0.2628710421904235, -0.47151318935331826, -0.14705408322570382, 0.01301490551473631, 0.27038570289592323, -0.21662594689851603, -0.45852855269942633, 0.05799497333717508, 0.34754331959399587, 0.08911724435594547, 0.14212920902359882, -0.18774493961597158, -0.16101711088082774, -0.13850505802854246, -0.06473032734658846, -0.13791605581765992, -0.24191726259460417, -0.2231369106175797], [-0.061761214784360384, -0.05917370215206832, -0.20092454824492934, 0.09929816069395643, 0.08791735845166404, 0.05938909575840342, -0.11748600699442645, -0.40322031896400323, -0.06297051049183032, 0.11597183283974866, -0.12884798403523456, -0.6292042607497158, 0.005728972725032751, 0.08364426766450755, 0.004586005704805559, -0.2916078887332296, -0.16199434648312722, 0.12381126503315666, 0.05453166172294564, 0.4858231991356909, -0.32065624192036957, -0.07730564321717984, -0.27971513275569043, 0.056160126999526105, 0.0060144381700620335, 0.2869126749656559, 0.26929156472479815, 0.004364833150190338, -0.029516199894771875, -0.18028107565376675, 0.2873462135778401, -0.0763806237680901, 0.3630026238845875, 0.20156629569204984, 0.17448705303182083, 0.22204533389050743, -0.2814318002944026, 0.28552531003200654, -0.03901451123473557, -0.37601357143692155, -0.5696246671294506, -0.3543011964401197, -0.26272759009966173, 0.18895701001952966, -0.2333934728980495, -0.008091279332106002, -0.1796331808992356, 0.14422816312174505, -0.1851678223864921, 0.786748047163505, -0.029476540360967307, -0.031554020242146846, -0.21638174001998556, -0.4182425108391536, -0.2758133453193168, -0.20370139456376773, 0.37116891132074037, -0.22034545807375053, 0.14422844857367823, 0.2386282751912628, 0.16371641888380212, -0.19225462362846932, -0.26809208090267334, 0.09354945442474054, -0.4364341198952131, 0.11432412109463015, 0.21925524369016197, -0.05640621549014889, -0.0488843107744798, 0.07414802030533439, 0.059738005951700736, 0.1739692480080321, 0.1961440563538989, -0.7944388307223266, 0.3204613078658081, 0.1038376303777545, 0.014361797095909856, 0.3395454056213107, -0.11021286982742477, 0.02263632010208591, -0.23739178575766545, -0.021976898397399136, 0.005498394586539979, -0.017057578377590987, -0.16263851017745562, -0.6111562682659307, -0.13023255329535255, -0.3955940820338052, -0.17031440210754534, 0.09597757928751603, 0.2187802738506223, 0.848263239493008, 0.3111229859575713, -0.23642608059435263, 0.07286371677047668, 0.47601387082789276, -0.45618579956103833, -0.2607774048018206, 0.1499464670757049, -0.5008953886134121], [-0.3827328458663972, -0.34632507837041665, -0.4517996169589912, -0.33653641514354127, -0.09153797217354884, -0.3266041676564779, -0.2977612669474609, -0.010654662206535171, -0.3141112622160854, -0.1805246015402919, 0.15311666230735207, 0.014831185136104373, 0.16819899272216696, 0.046351675217391995, 0.30535691617223526, -0.40496139112170343, -0.26054177238923276, -0.10022294582901409, 0.09653926145958266, 0.05121561680494211, 0.20241546377444186, -0.3186294670714716, -0.31739525909198935, -0.1688106635074054, 0.039352259550241436, 0.14519061112117923, 0.04361097433490338, -0.5937628750331446, 0.15323626554326691, -0.18185336216398018, -0.5155188210723143, 0.13843288483376004, -0.12157485067383991, 0.44267168106074517, 0.048084292469954354, -0.3088465105370479, -0.3340124771914008, 0.2205438286111155, 0.15890505116249132, -0.14951475238053447, 0.19104046783378303, 0.3215105772586324, 0.28467440188354887, -0.17171592174187075, -0.410400230763599, -0.27871800872044405, -0.03721052807334184, 0.6345816088732409, 0.3932233095015322, -0.36835173511759484, -0.25533646272751764, 0.36203653308138517, 0.125815675788726, 0.05644195412715676, 0.0572241096760062, 0.07752843889288338, -0.05107760870388732, 0.0381460449475107, 0.1839970520243625, -0.21337302343665981, 0.08590171253022166, 0.20358055571237488, 0.1012535965453003, 0.3570803185549631, 0.025392424695081163, 0.042316888769746125, -0.21144957440819487, -0.039678815445900364, 0.6123277393973464, -0.1566652563589009, 0.08064792252246711, -0.163358376275858, 0.24775911763315236, -0.4629026456260122, -0.1290785006767009, -0.015954436365031712, 0.1152599889708909, -0.05927607349689927, -0.04542273911096731, 0.4457463137024312, -0.17289759241995548, -0.14258755688855804, -0.14300025238498656, -0.2448230895190004, -0.5006347431017979, 0.17887901258352298, 0.019847491932868017, 0.29002227175484707, -0.06009848668191418, 0.2440297558691744, -0.06083402320611824, 0.30798380891735644, -0.14185112314720297, -0.27548735014813974, 0.05629056093790193, 0.2514709574702993, -0.22889359628415135, -0.10825375052790916, 0.05612844208172867, -0.052709087055533475], [-0.31780742482438357, -0.367708191198234, 0.13582290980969844, 0.35814768771035077, 0.38733203424191387, -0.00021827168546204948, -0.16909952236135362, 0.13641739032520958, -0.06193130403118028, 0.2979203236120829, 0.1245896481058, -0.05014614938093689, 0.4764128615748236, 0.11451052965990388, 0.0252874949813828, 0.12672365893824522, -0.014638347188712635, -0.24816083713148962, 0.573057705742027, 0.12772897770562552, 0.1054265490327706, -0.02599409740916095, 0.5535599830412948, 0.07385644653730619, 0.06384385575279758, -0.08933659764944561, 0.3143046971399269, -1.101548595837664, 0.20647936755242868, -0.39080761798463426, 0.19564683586153067, 0.0028686189426757654, -0.06646041497656978, -0.13363569643998055, -0.39888614590571436, 0.42782283765394963, -0.1482761218916641, 0.5276668474541489, 0.045394167184950644, -0.3390285276035501, -0.3932632309945983, -0.5919135101008931, 0.38526853063442795, -0.12650490392280672, -0.06980569181440574, -0.6111907769816264, -0.1975822134884439, 0.3485176351455193, 0.039344756954132684, 0.15323421465428977, 0.15902350382261982, 0.7060807892097513, -0.0835288798028551, -0.09280559667041445, -0.08666677565215301, 0.2715662673735827, 0.07312899078072657, -0.08144188411651891, 0.4366416182780443, -0.09028523382503788, 0.17687332700537742, 0.04200467281724474, -0.04288146036358384, -0.01250079869130188, -0.2408708429400725, 0.0768646557138993, -0.12827730959487954, 0.4214205472451166, -0.05691664216819842, 0.16700306808428048, 0.5310667363707332, 0.13957464266317274, -0.03165417752480794, -0.09931377330147545, -0.03435350278003597, 0.493650329205963, 0.0499786716227726, 0.27340266078136166, -0.4691085043386725, 0.2929536853791216, 0.04959258230530312, -0.026326620827121908, 0.17805564192237974, -0.28477906196093244, 0.42850587463550205, 0.4396785298595397, 0.11595609595490873, -0.26237794354973, -0.007382513204252142, -0.34167836943330326, 0.050723791948783445, -0.20645466190219408, -0.03681977752464732, 0.13854628268451716, 0.11337587579427752, -0.42424534696382826, -0.013389520588695861, -0.16216405832453018, -0.11476825688598953, -0.4327520927318071], [-0.13927852842627395, 0.27731231353289715, -0.10297912281628349, 0.3794134872873871, 0.07934611056709509, -0.26035680887296614, -0.24214368913267645, -0.09317977055466091, -0.2094459521730438, 0.28045508834216293, -0.025603161786810394, -0.15682422345827565, -0.3475424983857548, 0.20862907937149663, 0.04457674617074938, 0.2434138253045022, 0.3667805282792202, 0.285581974936684, -0.22617568201312244, -0.013734539378738017, 0.404816502869199, -0.15702124003874784, 0.1497674900707892, 0.360404161900306, -0.20210495811227372, -0.18537969489621944, -0.12345647257700818, 0.016711975060470396, -0.08688556516911299, 0.34196390431578905, 0.5561211490985947, -0.1869500099938125, -0.3455865165603755, -0.44330393843636806, -0.38293513816609936, 0.08037469361785922, -0.14134834457183887, -0.10234493386041939, -0.20172738156701053, -0.4064083640504575, -0.10727029331209367, -0.025819745801010586, 0.13873714872419293, -0.13941705003182003, 0.0025670860868646935, -0.4296878923550454, 0.18026732693096767, 0.0343496757985321, 0.16539897741966297, 0.15746659993240728, 0.34759268415359923, 0.07995233119029228, 0.36644280615875585, 0.042557090495268804, 0.09627756077553848, 0.2558993658824834, 0.2888585075979353, 0.2513359468854677, -0.02410294555506684, 0.09547905586330907, -0.3527395822360337, 0.3783789299291636, -0.1234561023491824, 0.16295748056123247, 0.37845541194990046, 0.04612619829912205, -0.08081996564077985, 0.09575497497093953, 0.14766336177541567, 0.035569955557847414, 0.19742929566517076, -0.11920347049643071, -0.24761942956629104, 0.26130118659400126, 0.1934919782335172, 0.5139970395212602, -0.52554809727411, 0.18705033806446628, -0.29567766760875425, 0.7125549326141214, 0.3025257944612373, -0.2999338888084549, -0.2532288506072061, 0.008924478578678206, 0.3068450260540596, 0.02382763535751803, -0.10440408821965355, 0.23825521529283755, 0.050309630391246134, 0.17784317123222243, 0.24435954012446057, 0.09438576554289332, -0.04521244174912821, -0.3294374401245309, -0.003228151533595162, 0.16764735681183954, 0.3376411493210235, 0.10187704931432517, -0.06140280228409458, 0.06353167639516943], [-0.10368309529734474, 0.03753348940591369, -0.10311935820284968, -0.45267668578537884, 0.12306739110024426, -0.29163590977825493, -0.03230803521158309, -0.5083216802407121, -0.20783789292343535, 0.09389567511536537, -0.266350298080065, 0.34915331577412134, 0.04029440632522934, 0.1749361609888585, 0.0409516223671943, -0.008303830389261456, 0.23075559069372784, -0.03362755837847482, -0.33023201484009074, 0.22307894832776212, 0.09400929010605481, -0.24033424047854904, 0.15319338415353087, 0.4388858990430123, -0.2696216603349695, -0.06458957643656313, -0.2724219780843679, 0.08381567100753295, 0.15491065139579377, -0.07381341232622504, -0.08807499846834876, 0.27930250079330454, 0.19901576303300467, -0.25116015132419445, -0.08986525067623244, -0.4863129722281006, -0.14480635773603034, -0.5933136328750149, -0.2947978208763895, -0.06024259582339854, 0.03504514300643779, 0.005847602760613243, -0.1212382847723383, -0.17452101145987511, 0.0610792630089019, -0.25026041064066185, -0.040416007980175334, -0.44205824311477143, -0.02458514325397404, 0.3195445111514946, 0.16117370603765976, -0.27300060743337584, -0.3592108547603605, 0.03586473623374247, 0.21022540299669706, 0.1172725185583381, 0.004587232160003715, 0.12435157100940836, 0.1569502758597296, -0.16875977859330726, -0.4080841332107062, -0.28142121991532165, -0.36992836850116506, -0.21423835854888534, 